svm_type c_svc
kernel_type rbf
gamma 0.03125
nr_class 2
total_sv 632
rho 1.35269
label 1 -1
probA -2.39325
probB 0.0943117
nr_sv 328 304
SV
2 1:-0.214284 2:0.105261 3:0.133331 4:-0.155558 5:-0.775509 6:-0.238093 8:-0.393941 9:-0.0967767 10:0.317071 11:-0.743591 12:-0.16279 13:-0.647061 15:-0.411765 16:0.135135 17:-0.277777 18:0.567563 19:-0.652174 20:-0.714286 22:-0.437499 23:-0.277777 24:0.349397 25:-0.571431 26:-0.27869 27:-0.875 29:-0.161291 30:0.449999 31:-0.373134 32:-0.166664 33:-0.583333 34:0.599994 36:-0.51724 37:0.0857146 38:0.408452 39:-0.720935 40:-0.717948 41:-0.500001 43:-0.692308 44:-0.0909075 45:0.423075 46:0.151515 47:-0.612903 48:-1 50:0.0666673 51:0.0303041 52:-0.313434 53:0.149998 54:-0.0769198 55:-0.625 57:-0.230769 58:-0.111115 59:0.20635 60:-0.187497 61:-0.483871 62:-0.600002 64:-0.517242 65:0.222217 66:-0.0793646 67:-0.333333 68:-0.553193 69:-0.368418 71:-0.466667 72:0.257142 73:0.0540525 74:-0.666664 75:-0.577776 76:-0.2 78:-0.279998 79:0.310349 80:-0.442625 81:0.176472 82:-0.0370336 83:-0.600002 85:-0.285713 86:0.407413 87:-0.366665 88:-0.411762 89:0.307691 90:-0.176474 92:0.0769244 93:-0.161295 94:-0.371428 95:0.312498 96:-0.172415 97:0.0588195 99:-0.172415 100:0.0967772 101:-0.449273 102:0.219512 103:-0.468751 104:-0.444445 106:-0.444445 107:0.333335 108:-0.342466 109:0.40909 110:-0.727273 111:0.199999 113:-0.214284 114:-0.249998 115:0.235296 116:0.0810789 117:-0.733334 118:-0.538462 120:-0.25 121:-0.31035 122:-2.48276e-06 123:0.225801 124:-0.279999 125:-0.157891 127:-0.466665 128:-0.374999 129:0.402985 130:-0.0810796 131:-0.837838 132:-0.846154 134:-0.0714262 135:0.149998 136:-0.432836 137:0.304348 138:-0.436364 139:-0.636364 141:-0.0666654 142:-0.050004 143:-0.0512843 144:-0.138464 145:-0.60606 146:-0.238093 148:-0.67742 149:-0.312499 150:0.418605 151:-0.405407 152:-0.510205 153:-0.764707 155:-0.741935 156:0.333333 157:0.0389586 158:0.117644 159:-0.67742 160:-0.666667 162:-0.529413 163:-0.647058 164:0.172414 165:-0.209305 166:-0.333334 167:-0.428571 169:-2.21538e-06 170:-0.121951 171:-0.388234 172:0.225806 173:-0.474453 174:-0.454546 
0.5911851134181039 1:0.214293 2:0.263153 3:-0.333334 4:-0.11111 5:-0.571429 6:-0.809523 8:-0.272729 9:0.548389 10:-0.0975607 11:-0.435896 12:-0.16279 13:-0.764707 15:-0.470588 16:0.135135 17:-0.277777 18:-0.0810838 19:-0.217394 20:-0.42857 22:-0.312499 23:0.55556 24:-0.397591 25:0.0952412 26:-0.475408 27:-0.124999 29:-0.032256 30:0.500003 31:-0.223881 32:0.125002 33:-0.716668 34:-0.333336 36:-0.172412 37:-0.0857113 38:-0.126758 39:-0.255814 40:-0.589744 41:-0.300001 43:-0.230769 44:-0.0303054 45:-0.0769265 46:-0.0303012 47:-0.419355 48:-0.249999 50:-0.399999 51:0.151517 52:0.19403 53:-0.799997 54:0.307693 55:-0.375 57:-0.230769 58:-0.333333 59:0.015872 60:0.375003 61:-0.870968 62:0.199996 64:-0.0344835 65:0.333329 66:-0.142857 67:-0.238094 68:-0.723404 69:-0.473683 71:-0.266668 72:0.314281 73:-0.567568 74:0.444448 75:-0.577776 76:-0.300001 78:-0.199997 79:0.448281 80:-0.540985 81:0.35294 82:-0.259261 83:-0.600002 85:-0.499999 86:-0.259253 87:0.300002 88:-0.176467 89:-0.538461 90:-0.29412 92:-0.153844 93:0.096773 94:-0.371428 95:0.625006 96:-0.172415 97:-0.647061 99:0.31034 100:0.0967772 101:-0.130437 102:-0.951223 103:-0.312502 104:-0.333333 107:-0.333331 108:-0.589041 109:0.272728 110:-0.290908 111:-0.4 113:-0.214284 114:-0.374999 115:0.176472 116:-0.135139 117:-0.266668 118:-0.384615 120:0.25 121:-0.379311 122:-0.379309 123:0.419355 124:-0.359998 125:0.263162 127:4.80001e-06 128:-0.187502 129:-0.462687 130:-0.0810796 131:-0.297293 132:0.53846 134:2.05715e-06 135:0.149998 136:-0.611942 137:0.130433 138:-0.381819 139:-0.090911 141:-0.333333 142:-0.050004 143:-0.410258 144:0.23077 145:-0.484849 146:-0.42857 148:-0.0967753 149:0.500004 150:-0.372093 151:-0.459457 152:-0.0204121 153:-0.647061 155:-0.419355 156:0.185184 157:-0.142859 158:0.117644 159:-0.419356 160:-0.666667 162:-0.0588215 163:0.470588 164:-0.563217 165:-0.302329 166:0.179482 167:-0.857143 169:0.846153 170:0.170735 171:-0.176469 172:-0.290322 173:-0.59124 174:-0.636364 
2 1:0.5 2:-3.03158e-06 3:-0.299998 4:0.377779 5:-0.816326 6:-0.714286 8:-0.151517 9:-0.0322555 10:-0.268292 11:0.0256431 12:-0.209305 13:-0.0588263 15:0.235292 16:-0.513511 17:-0.555557 18:-0.405411 19:0.130435 20:0.333336 22:-0.124999 23:-0.222224 24:0.060242 25:-0.0952364 26:-0.409839 27:-0.875 29:-0.032256 30:-0.100002 31:0.0447761 32:0.0833319 33:-0.716668 34:0.199996 36:0.103455 37:0.200001 38:-0.38028 39:-0.30233 40:-0.589744 41:-0.2 43:-0.461539 44:-0.333333 45:0.384616 46:-0.515155 47:-0.354838 48:0.125001 50:-0.533333 51:0.333332 52:0.164177 53:-0.150004 54:-0.461539 55:-0.75 57:-0.76923 58:0.111115 59:0.46032 60:-0.312498 61:-0.741935 62:-0.333336 64:0.448272 65:-0.111111 66:-0.523813 67:-0.380956 68:-0.468086 69:-0.0526284 71:-0.333334 72:0.314281 73:-0.0270272 74:-0.166664 75:-0.755555 76:-0.300001 78:-0.359998 79:-0.172409 80:-0.0491796 81:0.29412 82:-0.481482 83:-0.600002 85:-0.142856 86:-0.555552 87:0.133332 88:-0.294115 89:-0.0769227 90:-0.29412 92:-0.615384 93:-0.0322608 94:0.171428 95:0.187506 96:-0.448277 97:-0.647061 99:-0.172415 100:0.0967772 101:-0.304347 102:-0.26829 103:-0.499999 104:0.222222 106:-0.444445 107:0.380951 108:-0.287671 109:0.136367 110:-0.727273 111:0.500004 113:-0.571427 114:0.124995 115:-0.0294099 116:0.297297 117:-0.533334 118:-0.384615 120:-0.25 121:-0.31035 122:0.0689637 123:0.225801 124:-0.359998 125:-0.263156 127:-0.333333 128:0.062499 129:-0.104475 130:-0.297297 131:-0.243243 132:-0.692308 134:0.0714344 135:0.249998 136:-0.313432 137:0.304348 138:-0.618181 139:-0.454546 141:-0.533333 142:0.0499968 143:0.102563 144:-0.0153858 145:-0.787878 146:0.428579 148:-0.483871 149:0.125001 150:-0.093024 151:0.0270284 152:-0.510205 153:-0.29412 155:-0.741935 156:0.0370347 157:0.168832 158:-0.117644 159:-0.548388 160:-0.555555 162:-0.705883 163:0.235292 164:-0.425285 165:0.348839 166:-0.23077 167:-0.428571 169:-2.21538e-06 170:0.317074 171:-0.317647 172:-0.129033 173:-0.518248 174:-0.272728 
2 1:0.428576 2:0.0526327 3:-0.400001 4:-0.0666685 5:-0.632652 6:-0.333332 8:0.575759 9:-0.0322555 10:-0.560977 11:-0.384617 12:0.255815 13:-0.29412 15:0.058824 16:0.0810845 17:-0.611113 18:0.135135 19:-0.086955 20:-0.714286 22:0.250002 23:0.111112 24:-0.397591 25:-0.190475 26:-0.180327 27:-0.625 29:-0.032256 30:0.300001 31:-0.194028 32:0.291664 33:-0.733333 34:-0.333336 36:-0.0344778 37:0.314288 38:-0.183097 39:-0.767443 40:-0.435897 41:-0.500001 43:-0.384615 44:0.0303054 45:0.0384619 46:-0.393942 47:-0.0967694 48:-0.375 50:-0.466665 51:0.757574 52:-0.283585 53:0.100001 54:-0.538462 55:-0.375 57:-0.230769 58:-0.185184 59:0.20635 60:-0.375003 61:-0.290323 62:-0.466668 64:-0.103449 65:0.388889 66:-0.269842 67:-0.333333 68:-0.595743 69:-0.473683 71:-0.866667 72:0.257142 73:0.648648 74:-0.611112 75:-0.822221 76:-0.8 78:-0.0399935 79:0.655174 80:-0.573774 81:0.058824 82:-0.111113 83:-0.733334 85:-0.714285 86:-0.259253 87:0.266666 88:-0.0588195 89:-0.307691 90:-0.411767 92:0.230772 93:-0.290319 94:-0.085715 95:-0.0624961 96:0.034486 97:-0.764707 99:-0.517242 100:0.290322 101:0.275363 102:-0.414636 103:-0.8125 104:-0.333333 106:-0.555555 107:1.92e-06 108:0.47945 109:0.31818 110:-0.890909 111:-0.8 113:-0.142856 114:-5.84999e-06 115:0.147062 116:-0.405407 117:-0.266668 118:-0.538462 120:0.333328 121:0.31034 122:-0.379309 123:-0.419355 124:0.279999 125:-0.368418 127:-0.133332 128:0.3125 129:-0.223879 130:-0.405406 131:-0.405402 132:-0.384615 134:-0.499999 135:3.6e-07 136:0.283584 137:0.21739 138:-0.672728 139:-0.636364 141:-0.666666 142:-0.35 143:0.846153 144:0.107692 145:-0.984848 146:-0.523809 148:-0.290323 149:0.500004 150:-0.279072 151:0.189188 152:-0.591838 153:-0.529413 155:-0.225805 156:0.259253 157:-0.506495 158:0.058824 159:0.0322569 160:-0.222222 162:-0.529413 163:3.81177e-06 164:-0.195401 165:0.069767 166:-0.435899 167:-0.285715 169:-0.153848 170:-0.170728 171:0.105882 172:-0.129033 173:-0.518248 174:-0.818182 
2 1:-0.285713 2:0.736837 3:-0.2 4:0.0666691 5:-0.816326 6:-0.619046 8:-0.0303054 9:0.225801 10:-0.341465 11:-0.487182 12:0.162791 13:-0.176474 15:-0.294118 16:-0.081083 17:-0.22222 18:0.135135 19:-0.304351 20:-0.714286 22:0.0625051 23:0.111112 24:-0.445785 25:0.285712 26:-0.442624 27:-0.249999 29:-0.419355 30:0.0999993 31:0.402988 32:0.25 33:-0.899999 34:-0.200002 36:-0.241378 37:0.314288 38:-0.0422527 39:-0.348838 40:-0.615384 41:-0.9 43:-0.692308 44:0.0909075 45:0.307692 46:-0.0303012 47:-0.677419 48:-0.499999 50:-0.399999 51:-0.393937 52:0.432834 53:0.100001 54:-0.846154 55:-0.625 57:0.0769275 58:-0.0370347 59:-0.015872 60:-0.375003 61:0.0322551 62:-1 64:-0.24138 65:1.2e-06 66:0.174601 67:-0.285717 68:-0.723404 69:-0.473683 71:-0.733334 72:0.771427 73:0.0810817 74:-0.111112 75:-0.822221 76:-0.700001 78:0.120008 79:-0.24138 80:-0.180328 81:-0.176472 82:0.0370357 83:-0.600002 85:-0.428571 86:-0.333333 87:-0.0666647 88:0.117648 89:-0.0769227 90:-0.29412 92:-0.307691 93:-0.0322608 94:0.0571413 95:2.22045e-16 96:-0.103446 97:-0.882353 99:-0.310346 100:0.354834 101:0.246375 102:-0.463413 103:-0.687501 104:-1 106:-0.5 107:0.428574 108:0.0136993 109:0.136367 110:-0.745454 111:-0.500001 113:0.214293 114:0.249996 115:-0.529412 116:-0.0270299 117:0.199995 118:-0.538462 120:-0.416667 121:0.379311 122:0.103449 123:0.161289 124:-0.759999 125:-0.578946 127:-0.466665 128:0.124995 129:-0.223879 130:0.0810796 131:-0.567568 132:-0.0769226 134:-0.42857 135:3.6e-07 136:0.522388 137:-0.173914 138:-0.654545 139:-0.727274 141:-0.0666654 142:0.100001 143:-0.0769236 144:0.0461531 145:-0.712121 146:-0.333332 148:-0.35484 149:0.5625 150:-0.348838 151:-0.0810804 152:-0.265306 153:-0.529413 155:-0.741935 156:0.629621 157:-0.22078 158:-0.411768 159:0.0322569 160:-0.222222 162:-0.176469 163:3.81177e-06 164:-0.425285 165:-0.0697656 166:0.0256386 167:-0.571429 169:0.0769202 170:0.0243887 171:-0.200001 172:0.322578 173:-0.678832 174:-0.545455 
1.046414873336512 1:0.5 2:0.0526327 3:-0.266667 4:-0.288889 5:-0.632652 6:-0.333332 8:0.21212 9:0.548389 10:-0.804878 11:0.282052 12:-0.116281 13:-0.0588263 15:-0.058824 16:-0.081083 17:-0.666665 18:0.0270253 19:2.1913e-06 20:-0.0476175 22:-0.187499 23:0.611112 24:-0.542167 25:-0.238098 26:-0.0491829 27:-0.499999 29:0.0967772 30:0.2 31:-0.0447748 32:-2.1e-06 33:-0.733333 34:-0.0666699 36:-0.172412 37:-0.0857113 38:-0.183097 39:-0.16279 40:-0.692309 41:0.0999993 43:0.0769275 44:-0.151518 45:-0.46154 46:0.454544 47:-0.290322 48:-0.499999 50:-0.199999 51:-0.0303068 52:-0.223883 53:0.100001 54:-1.66154e-06 55:-0.375 57:-0.230769 58:-0.481483 59:0.0476206 60:0.0625051 61:-0.225802 62:-0.333336 64:0.0344855 65:0.333329 66:-0.428571 67:0.238094 68:-0.829786 69:-0.157891 71:-0.266668 72:0.485715 73:-0.0270272 74:-0.277776 75:-0.733335 76:-0.6 78:0.200003 79:-0.379312 80:-0.213118 81:-0.764704 82:0.407403 83:0.333328 85:-0.357142 86:0.629632 87:-0.433332 88:-0.0588195 89:0.076925 90:-0.529413 92:0.153854 93:0.225807 94:-0.485714 95:2.22045e-16 96:0.034486 97:-0.0588263 99:-0.0344835 100:0.419355 101:-0.594204 102:0.0243887 103:-0.5625 104:0.11111 106:-0.388889 107:0.47619 108:-0.232876 109:0.272728 110:-0.690909 111:-0.500001 113:-0.214284 114:-0.187502 115:0.0294141 116:-0.0810804 117:-0.333334 118:-0.0769226 120:-0.416667 121:-0.0344855 122:0.0689637 123:0.0967679 124:-0.199994 125:-0.473683 127:-0.266665 128:0.437501 129:-0.373132 130:-0.459456 131:0.0810845 132:-0.846154 134:-0.0714262 135:-0.1 136:-0.0746277 137:-0.0434752 138:-0.563636 139:0.0909071 141:-0.266665 142:0.300002 143:-0.46154 144:0.169231 145:-0.575757 146:-0.238093 148:-0.032256 149:-0.0624965 150:-0.581395 151:0.459456 152:-0.306125 153:0.176465 155:0.0322633 156:-0.259264 157:-0.272729 158:-0.235292 159:-0.0322643 160:-0.222222 162:-0.411766 163:-0.0588245 164:-0.195401 165:-0.348838 166:-0.0769261 167:-0.142856 169:-0.153848 170:0.219512 171:-0.223529 172:0.193545 173:-0.620437 174:-0.545455 
0.196018018247662 1:-0.642857 2:-3.03158e-06 3:0.433331 4:0.2 5:-0.857143 6:-0.714286 8:-0.818182 9:0.0322564 10:0.219513 11:0.79487 12:-1 13:-1 15:-0.294118 16:-0.351352 17:-0.416665 18:0.0270253 19:-0.130437 20:0.238098 22:-0.0624961 23:0.444448 24:-0.518073 25:0.428574 26:-0.573771 27:-0.249999 29:-0.419355 30:0.250004 31:0.462686 32:-0.208334 33:-0.749999 34:-0.600002 36:-0.448275 37:-0.485711 38:0.126763 39:0.674419 40:-0.923077 41:-0.8 43:-0.461539 44:-0.333333 45:0.346151 46:-0.272728 47:-0.225803 48:-0.499999 50:-0.399999 51:-0.0909089 52:0.253728 53:-0.200001 54:-0.307693 55:-0.625 57:-0.615384 58:0.407403 59:-0.238094 60:0.312498 61:-0.548387 62:0.0666641 64:-0.517242 65:1.2e-06 66:0.301586 67:0.0476161 68:-0.914894 69:-0.263156 71:-0.266668 72:0.257142 73:-0.135136 74:0.166664 75:-0.755555 76:-0.500001 78:-0.679999 79:-0.103448 80:0.672128 81:-0.588236 82:-0.62963 83:-0.866667 85:-0.357142 86:0.0370347 87:-0.166668 88:0.588229 89:-0.692307 90:-0.647061 92:-0.230768 93:0.354841 94:-0.314284 95:0.250002 96:-0.103446 97:-0.647061 99:-0.103449 100:-0.032256 101:-0.130437 102:0.121951 103:-0.75 104:-0.333333 106:-0.666666 107:0.0952408 108:-0.0958905 109:0.954548 110:-0.890909 111:-0.100001 113:-0.642857 114:0.374996 115:-0.294116 116:0.351347 117:-0.199998 118:-0.384615 120:-0.749999 121:0.793097 122:0.0689637 123:-0.032256 124:-0.359998 125:-0.894737 127:0.200002 128:-0.187502 129:-0.19403 130:-0.459456 131:-0.135134 132:-0.692308 134:-0.214284 135:0.45 136:-0.164179 137:-0.130433 138:-0.527272 139:-0.454546 141:-0.666666 142:0.349999 143:0.102563 144:0.292309 145:-0.818181 146:-0.714286 148:-0.290323 149:0.312498 150:-0.418605 151:0.0270284 152:-0.224492 153:-0.176474 155:-0.741935 156:-0.0370453 157:0.194804 158:0.117644 159:-0.67742 160:-0.777778 162:-0.352943 163:0.29412 164:-0.35632 165:0.0232583 166:-0.333334 167:-0.571429 169:-0.230772 170:-0.0243887 171:-0.411765 172:0.483867 173:-0.562045 174:-0.454546 
2 1:0.0714344 2:0.421052 3:-0.5 4:0.0666691 5:-0.693879 6:-0.238093 8:-0.0909075 9:0.290323 10:-0.390242 11:0.0256431 12:-0.209305 13:-0.176474 15:4.2353e-06 16:-0.189192 17:-0.611113 18:0.135135 19:0.130435 20:-0.619046 22:0.312498 23:0.222224 24:-0.590361 25:-0.0476205 26:-0.114757 27:-0.625 29:0.225801 30:-0.100002 31:-0.0149259 32:0.0833319 33:-0.716668 34:-0.0666699 36:-0.793103 37:-0.0857113 38:0.126763 39:-0.16279 40:-0.589744 41:-0.500001 43:-0.384615 44:0.151518 45:-0.0384619 46:-0.333339 47:0.0967759 48:-0.875 50:-0.333333 51:-0.0909089 52:0.343283 53:-0.0500032 54:-0.76923 55:-0.75 57:-0.307693 58:-0.111115 59:-0.301586 60:0.749998 61:-0.483871 62:-0.333336 64:-0.0344835 65:0.555553 66:-0.238098 67:-0.190478 68:-0.68085 69:-0.894737 71:-0.533333 72:0.0285691 73:0.513514 74:-0.5 75:-0.866667 76:-0.4 78:-0.359998 79:-0.310341 80:0.344262 81:-0.35294 82:-0.703704 83:-0.0666699 85:-0.571427 86:0.185184 87:-0.166668 88:0.411762 89:-0.692307 90:-0.176474 92:6.09232e-06 93:-0.096773 94:0.285715 95:-0.687502 96:-0.310346 97:-0.529413 99:-0.379311 100:0.677422 101:-0.449273 102:0.0731731 103:-0.687501 106:-0.333334 107:0.285712 108:-0.342466 109:0.681819 110:-0.800001 111:-0.100001 113:-0.285713 114:0.249996 115:-0.117644 116:0.189188 117:-0.400001 118:-0.846154 120:-0.5 121:0.0344756 122:0.241382 123:0.032256 124:-0.279999 125:-0.789473 127:-0.133332 128:-0.374999 129:-0.0746264 130:-0.13513 131:-0.405402 132:-0.23077 134:0.142859 135:3.6e-07 136:-0.223881 137:0.173915 138:-0.563636 139:-0.363637 141:0.0666673 142:0.0499968 143:-0.153845 144:0.292309 145:-0.848484 146:-0.0476175 148:-0.35484 149:0.250002 150:-0.16279 151:-0.243248 152:-0.387759 153:-0.176474 155:-0.290322 156:0.185184 157:-0.246753 158:0.117644 159:-0.548388 160:-0.222222 162:-0.294119 163:0.176472 164:-0.402298 165:-0.0697656 166:-0.23077 167:-0.142856 169:0.0769202 170:0.219512 171:-0.223529 172:0.161289 173:-0.649635 174:-0.545455 
2 1:0.0714344 2:0.368417 3:-0.266667 4:-0.244448 5:-0.673469 6:-0.238093 8:0.0909075 9:-0.22581 10:-0.195122 11:0.0769219 12:-0.441862 13:-0.0588263 15:-0.17647 16:0.189194 17:-0.444445 18:0.0270253 19:-0.217394 20:-0.619046 22:0.187497 23:-0.222224 24:-0.518073 25:0.0952412 26:-0.180327 27:0.125001 29:0.290322 30:0.349998 31:-0.134326 32:-0.0416661 33:-0.666666 34:-0.866667 36:0.0344834 37:0.65714 38:-0.605634 39:-0.209306 40:-0.538462 41:-0.500001 43:-0.153847 44:-0.0909075 45:-2.76923e-06 46:-0.0303012 47:-0.225803 48:-0.875 50:-0.199999 51:-0.0909089 52:0.0447732 53:0.149998 54:-0.538462 55:-0.625 57:-0.0769198 58:-0.111115 59:-0.142857 60:-0.250002 61:0.0322551 62:-0.333336 64:0.448272 65:1.2e-06 66:-0.174606 67:-0.285717 68:-0.659575 69:-0.68421 71:-0.0666644 72:0.142856 73:-0.324325 75:-0.577776 76:-0.4 78:0.360005 79:-0.379312 80:-0.180328 81:-0.235292 82:-0.111113 83:-0.333336 85:0.0714349 86:0.333333 87:-0.53333 88:-0.411762 89:0.307691 90:-0.0588263 92:0.461538 93:-0.354841 94:-0.342858 95:-0.125001 96:0.379311 97:-0.411767 99:0.379311 100:0.290322 101:-0.681159 102:-0.121951 103:-0.374998 104:-0.333333 106:-0.277778 107:0.0952408 108:-0.397261 109:0.31818 110:-0.672726 111:0.500004 113:0.214293 114:-0.5 115:-0.176468 116:0.135137 117:-0.333334 118:0.23077 120:0.166672 121:0.103447 122:-0.379309 123:0.225801 124:0.0400021 125:-0.578946 127:-0.399999 128:-5.84999e-06 129:-0.104475 130:-0.297297 131:-0.243243 132:-0.384615 134:-0.0714262 135:0.949996 136:-0.522386 137:3.13044e-07 138:-0.654545 139:-0.090911 141:-0.133332 142:0.0499968 143:-0.179489 144:0.415382 145:-0.757577 146:-0.619046 148:0.161289 149:-0.125002 150:-0.348838 151:-0.405407 152:-0.102039 153:0.0588195 155:-0.225805 156:0.185184 157:-0.22078 158:-4.2353e-06 159:-0.419356 160:-0.444445 162:0.235294 163:-0.0588245 164:-0.747126 165:-0.255814 166:0.179482 167:0.714285 169:-0.0769257 170:0.365852 171:0.152941 172:-0.0645166 173:-0.795621 174:-0.545455 
2 1:0.214293 2:0.315789 3:-0.266667 4:-0.0222205 5:-0.755102 6:-0.42857 8:-0.272729 9:0.0967683 10:-0.073172 11:-0.589747 12:-0.023257 13:-0.0588263 15:4.2353e-06 16:-0.135134 17:-0.555557 18:-0.0810838 19:-0.086955 20:-0.0476175 22:-0.0624961 23:0.111112 24:-0.493974 25:-0.0952364 26:-0.213116 27:0.375002 29:0.225801 30:0.0999993 31:0.0447761 32:0.166666 33:-0.883333 34:0.199996 36:-0.0344778 37:0.314288 38:-0.408451 39:-0.16279 40:-0.692309 41:-1.44e-06 43:-0.384615 44:-0.272731 45:0.115386 46:0.0909123 47:-0.161291 48:-0.875 50:-0.399999 51:0.151517 52:-0.19403 53:0.299995 54:-0.307693 55:-0.499999 57:-0.153847 58:0.0370347 59:-0.238094 60:0.187497 61:-0.290323 62:-0.333336 64:-0.655173 65:0.388889 66:0.0793646 67:-0.476195 68:-0.68085 69:-0.0526284 71:-0.666667 72:0.371429 73:-1.94595e-06 74:-0.055552 75:-0.755555 76:-0.2 78:0.279998 79:0.0344845 80:-0.5082 81:-0.058824 82:0.0370357 83:-0.333336 85:-0.357142 86:0.0370347 87:-0.166668 88:-0.176467 89:0.230773 90:-0.529413 92:0.307691 93:-0.290319 94:-0.285715 95:-0.187497 96:0.103447 97:0.0588195 99:-0.24138 100:-0.032256 101:-0.188404 102:-0.0731731 103:-0.468751 104:-0.444445 106:-0.444445 107:0.0952408 108:0.260274 109:0.136367 110:-0.800001 111:-0.500001 113:2.05715e-06 114:-0.124998 115:-0.235292 116:0.189188 117:-0.199998 118:-0.384615 120:-0.166666 121:-0.241379 122:0.0689637 123:0.161289 124:-0.439999 125:-0.263156 127:-0.333333 128:0.499997 129:-0.283581 130:-0.297297 131:-0.351352 132:-0.538462 134:2.05715e-06 135:0.0499971 136:-0.223881 137:-0.260872 138:-0.436364 139:-1.30909e-06 141:-0.266665 143:0.230767 144:0.0153858 145:-0.787878 146:-0.42857 148:-0.548388 149:0.375003 150:-0.116282 151:0.135137 152:-0.632654 153:-0.411767 155:-0.225805 156:0.111104 157:-0.428574 158:-0.117644 159:-0.0967762 160:0.222222 162:-0.411766 163:-0.470589 164:0.0574725 165:-0.395346 166:-0.179491 167:-0.285715 169:-0.307694 170:0.463413 171:-0.529412 172:0.225806 173:-0.50365 174:-0.454546 
2 1:0.214293 2:0.368417 3:-0.433333 4:-0.11111 5:-0.591836 6:-0.619046 8:-0.636364 9:-0.548388 10:0.341464 11:-0.0256431 12:-0.255814 13:-0.882353 15:-0.294118 16:-0.459461 17:-0.277777 18:0.297294 19:-0.260869 20:-0.238093 22:-0.624999 23:-0.166664 24:0.277109 25:-0.0952364 26:-0.508198 27:-0.75 29:0.0967772 30:-1.584e-06 31:-0.0149259 32:-0.208334 33:-0.533334 34:-0.600002 36:-0.51724 37:0.142854 38:0.380284 39:-0.395354 40:-0.820513 41:-0.8 43:-0.384615 44:-0.272731 45:0.0384619 46:-0.454544 47:0.161288 48:-0.124999 50:-0.666666 51:-0.212122 52:0.432834 53:-0.349998 54:-0.153847 55:-0.499999 57:-0.76923 58:-0.111115 59:0.111113 60:0.562501 61:-0.741935 62:-0.333336 64:-0.448276 65:-0.333334 66:0.0793646 68:-0.531915 69:-0.789473 71:-0.466667 72:0.428568 73:-0.135136 74:0.333336 75:-0.844444 76:-0.4 78:-0.519998 79:-0.103448 80:0.147539 81:-0.588236 82:0.0370357 83:-0.200002 85:-0.785714 86:-0.111115 87:0.733331 88:-0.647057 89:-0.461538 90:-0.764707 92:-0.0769211 93:-0.0322608 94:-0.171428 95:2.22045e-16 96:0.241379 97:-0.882353 99:-0.448276 100:-0.0967772 101:0.217392 102:-0.365852 103:-0.625 104:-0.333333 106:-0.722222 107:0.0476179 108:0.47945 109:0.22727 110:-0.836362 111:-0.700001 113:-0.357141 114:0.124995 115:-0.117644 116:0.0270284 117:-0.333334 118:-0.0769226 120:-0.583332 121:-0.0344855 122:0.172416 123:0.0967679 124:-0.199994 125:-0.578946 127:-0.133332 128:-0.625001 129:0.0149244 130:-0.405406 131:-0.0270245 132:-0.384615 134:-0.0714262 135:0.100001 136:0.0149274 137:-0.086957 138:-0.545456 139:-0.545455 141:-0.8 142:0.45 143:0.28205 144:0.138459 145:-0.818181 146:-0.904762 148:-0.35484 149:-0.562499 150:-0.16279 151:0.189188 152:-0.0204121 153:-0.647061 155:-0.677419 156:-0.185184 157:0.116883 158:-0.117644 159:-0.0967762 160:-0.888889 162:-0.235296 163:-0.235292 164:-0.747126 165:0.0232583 166:0.794871 167:-0.285715 169:0.307694 170:0.219512 171:-0.317647 172:-0.0322606 173:-0.547445 174:-0.545455 
0.8808067899145843 1:-0.142856 2:0.210525 3:-0.266667 4:0.0666691 5:-0.591836 6:-0.714286 8:-0.69697 9:0.612901 10:-0.17073 11:1 12:-1 13:-0.882353 15:-0.17647 16:-0.081083 17:-0.611113 18:0.135135 19:2.1913e-06 20:-0.238093 22:-0.124999 23:0.277776 24:-0.445785 25:0.238096 26:-0.442624 27:-0.124999 29:-0.032256 30:0.2 31:0.253731 32:-0.249998 33:-0.766667 34:-0.0666699 36:-0.37931 37:-0.314285 38:0.0422531 39:-0.0232577 40:-0.692309 41:-0.300001 43:-0.846154 44:-0.21212 45:0.846153 46:-0.454544 47:-0.612903 48:-0.625 50:-0.666666 51:-0.575761 52:0.641788 53:7.19999e-07 54:-0.76923 55:-0.499999 57:-0.461539 58:0.185184 59:0.0476206 60:0.312498 61:-0.741935 62:-0.600002 64:-0.103449 65:0.166665 66:-0.428571 67:-0.0952391 68:-0.574468 69:-0.157891 71:-0.666667 72:-0.0857173 73:0.486484 74:0.277776 75:-0.955556 76:-0.9 78:-0.439999 79:0.241378 80:-0.0491796 81:-0.176472 82:-0.407409 83:-0.333336 85:-0.642857 86:0.259264 87:0.100001 89:-0.615384 90:-0.411767 92:6.09232e-06 93:0.096773 94:-0.342858 95:0.625006 96:-0.448277 97:-0.529413 99:-0.448276 100:0.419355 101:-0.101449 102:0.0731731 103:-0.84375 104:-0.222222 106:-0.222222 107:-0.047621 108:-0.068495 109:0.0454569 110:-0.618181 111:-0.2 113:-0.214284 114:-0.124998 115:0.205882 116:-0.459457 117:-0.133336 118:-0.538462 120:-0.416667 121:-0.379311 122:0.620688 123:-0.290322 124:-0.679999 125:-0.368418 127:-0.399999 128:0.3125 129:0.0447775 130:-0.459456 131:-0.621621 132:-0.384615 134:-0.357141 135:0.349999 136:0.0746295 137:0.0434821 138:-0.654545 139:-0.545455 141:-0.333333 143:0.102563 144:-0.169231 145:-0.575757 146:-0.619046 148:-0.67742 149:0.187506 150:-0.372093 151:0.891891 152:-0.510205 153:-0.529413 155:-0.677419 156:0.259253 157:-0.142859 158:-0.058824 159:-0.290321 160:-0.222222 162:-0.882353 163:0.588236 164:-0.264366 165:0.116276 166:-0.384613 167:-0.714285 169:-0.538462 170:-0.0243887 171:-0.200001 172:0.548384 173:-0.620437 174:-0.727274 
1.95156188013036 1:0.571434 2:-0.0526312 3:-0.166669 4:-0.11111 5:-0.693879 6:-0.619046 8:0.515148 9:-0.22581 10:-0.658535 11:0.0769219 12:0.069767 13:0.0588195 15:0.117644 16:-0.351352 17:-0.750001 18:0.297294 19:-0.0434795 20:0.0476216 22:0.0625051 23:0.333336 24:-0.831326 25:0.238096 26:-0.213116 27:0.500001 29:0.032256 30:0.250004 31:0.0746293 32:0.166666 33:-0.866668 34:-0.0666699 36:-0.241378 37:0.600001 38:-0.492957 39:-0.348838 40:-0.538462 41:-0.100001 43:0.153846 44:-0.515148 45:-0.576922 46:0.151515 47:0.0322546 48:0.500001 50:-0.266665 51:0.151517 52:-0.223883 53:-0.200001 54:0.230764 55:-0.249999 57:0.230764 58:-0.111115 59:-0.428571 60:-0.0624961 61:0.22581 62:-0.466668 64:0.103447 65:0.222217 66:-0.46032 67:0.238094 68:-0.787233 69:-0.157891 71:-0.133334 72:0.657141 73:-0.513514 74:-0.277776 75:-0.555555 76:-0.100001 78:0.360005 79:0.172417 80:-0.573774 81:-0.411768 82:0.259254 83:-0.0666699 85:5.14287e-07 86:0.0370347 87:-0.4 88:-0.47059 89:0.307691 90:0.176465 92:0.153854 93:0.0322608 94:-0.485714 95:0.250002 96:0.241379 97:-0.529413 99:0.103447 100:0.354834 101:-0.507245 102:-0.219512 103:-0.468751 104:-0.11111 106:-0.333334 107:0.47619 108:-0.150685 109:0.0909085 110:-0.763637 111:-0.100001 113:0.142859 114:-0.0625017 115:-0.411764 116:-0.0270299 117:0.266667 118:-0.384615 120:-0.333333 121:0.241379 122:-0.448275 123:0.677412 124:-0.0399929 125:-0.578946 127:0.333337 128:-0.187502 129:-0.671641 130:0.243247 131:-0.351352 132:0.0769226 134:0.214293 135:0.149998 136:-0.343285 137:0.21739 138:-0.545456 139:-0.545455 141:-0.0666654 142:0.249998 143:-0.435897 144:0.138459 145:-0.575757 146:-0.42857 148:-0.35484 149:0.750007 150:-0.534887 151:-0.0810804 152:-0.142859 153:-0.29412 155:-0.225805 156:0.259253 157:-0.350649 158:-0.470588 159:0.225802 160:-0.222222 162:-1.86353e-06 163:-0.0588245 164:-0.586207 165:0.0232583 166:-0.0769261 167:0.142858 169:-0.46154 170:0.365852 171:-0.317647 172:0.193545 173:-0.635037 174:-1.30909e-06 
2 1:0.142859 2:0.263153 3:-0.266667 4:-0.288889 5:-0.571429 6:-0.523809 8:-0.0909075 9:-0.0967767 10:-0.0243911 11:-0.179487 12:-0.209305 13:-0.764707 15:-0.588235 16:0.135135 17:-4e-07 18:0.189185 19:-0.73913 20:-0.523809 22:-0.25 23:0.0555596 24:-0.0843375 25:-0.0476205 26:-0.442624 27:-0.499999 29:0.032256 30:0.349998 31:-0.104477 32:0.208336 33:-0.749999 34:-0.600002 36:0.103455 37:-0.0857113 38:-0.408451 39:0.302323 40:-0.717948 41:-0.4 43:-0.461539 44:0.272723 45:-0.269233 46:-0.212126 47:-0.0322574 48:-0.249999 50:4.80001e-06 51:0.151517 52:-0.343283 53:-0.349998 54:0.46154 55:-0.249999 57:-1.66154e-06 58:-0.333333 59:-0.333335 60:0.187497 61:-0.225802 62:0.333328 64:-0.24138 65:0.277777 66:0.111109 67:-0.142855 68:-0.87234 69:-0.368418 71:0.0666698 72:-0.02857 73:-0.378379 74:0.222224 75:-0.666666 76:-0.100001 78:-0.359998 79:0.103446 80:0.0491796 81:-0.705884 82:0.0370357 83:-0.200002 85:-0.214284 86:0.481483 87:-0.499999 88:-0.176467 89:0.153843 90:-0.176474 92:-0.53846 93:0.096773 94:0.285715 95:-0.374994 96:-0.310346 97:-0.647061 99:-0.379311 100:-0.419355 101:0.362318 102:-0.365852 103:-0.687501 104:-0.222222 106:-0.5 107:0.0952408 108:-0.0958905 109:0.454548 110:-0.70909 111:-0.300001 113:-0.357141 114:0.1875 115:-0.0294099 116:0.0810789 117:-0.466667 118:-0.538462 120:4.2e-06 121:0.172408 122:-0.448275 123:-0.161289 124:0.0400021 125:0.368426 127:-0.133332 128:-0.0625017 129:0.0746264 130:-0.243239 131:-0.675676 132:-0.692308 134:-0.785714 135:0.200002 136:0.0149274 137:0.391305 138:-0.581817 139:-0.636364 141:-0.466665 142:0.0499968 143:0.28205 144:0.292309 145:-0.878788 146:-0.714286 148:-0.0967753 149:0.312498 150:-0.441862 151:0.297297 152:-0.265306 153:-0.882353 155:-0.612903 156:0.629621 157:-0.22078 158:-0.117644 159:-0.290321 160:-0.444445 162:-0.64706 163:0.29412 164:-0.0804595 165:-0.023257 166:-0.589744 167:-0.714285 169:-0.538462 170:-0.219512 171:0.24706 172:0.0967725 173:-0.664234 174:-0.545455 
2 1:-0.42857 2:-0.0526312 3:0.1 4:-0.155558 5:-0.571429 6:-0.523809 8:-0.212122 9:-0.0967767 10:0.0731706 11:-0.333338 12:-0.209305 13:-0.647061 15:-0.411765 16:-0.0270245 17:-0.138888 18:0.081076 19:-0.521739 20:-0.333332 22:-0.25 23:0.166664 24:-0.0843375 25:-0.33333 26:-0.27869 27:-0.625 29:-0.225808 30:-1.584e-06 31:-0.0447748 32:0.0416679 33:-0.516666 34:-0.733334 36:-0.172412 37:-0.257145 38:0.15493 39:-0.209306 40:-0.692309 41:-0.700001 43:-0.461539 44:-0.393935 45:0.538458 46:-0.272728 47:-0.419355 48:-0.625 50:-0.466665 51:-0.0303068 52:0.104475 53:-0.0500032 54:-0.153847 55:-0.625 57:-0.692308 58:0.407403 59:0.365079 60:-0.499995 61:-0.354835 62:-1 64:-0.517242 65:1.2e-06 66:0.111109 67:-0.238094 68:-0.638297 69:-0.368418 71:-0.733334 72:0.71428 73:0.189191 74:-0.222224 75:-0.822221 76:-0.8 78:-0.439999 79:-0.172409 80:-0.114754 81:0.29412 82:-0.333334 83:-0.466668 85:-0.357142 86:0.0370347 87:0.0333336 88:-0.0588195 89:-0.307691 90:-0.647061 92:-0.384614 93:-0.354841 94:0.257145 95:-0.250002 96:-0.172415 97:-0.411767 99:-0.24138 100:0.225801 101:-0.0724653 102:-0.0731731 103:-0.75 104:-0.333333 106:-0.333334 107:0.0952408 108:0.0684942 109:0.0454569 110:-0.672726 111:-0.500001 113:-0.285713 114:-5.84999e-06 115:0.0294141 116:-0.0810804 117:-0.266668 118:-0.538462 120:-0.25 121:-0.31035 122:0.241382 123:0.032256 124:-0.359998 125:-0.473683 127:-0.599999 128:1 129:-0.432834 130:-0.405406 131:-0.243243 132:-0.384615 134:-0.42857 135:0.599997 136:-0.13433 137:0.260872 138:-0.690909 139:-0.545455 141:-0.8 142:0.349999 143:-0.0256412 144:0.353848 145:-0.818181 146:-0.238093 148:-0.290323 149:-0.0624965 150:-0.046512 151:-0.0270299 152:-0.387759 153:-0.764707 155:-0.290322 156:0.555552 157:-0.558443 158:0.411768 159:-0.419356 160:-0.222222 162:-0.588236 163:0.35294 164:0.0114952 165:-0.348838 166:-0.538462 167:-0.714285 169:-2.21538e-06 170:-0.365853 171:-0.270588 172:0.290322 173:-0.60584 174:0.181817 
1.224915097446596 1:2.05715e-06 2:0.210525 3:0.0333329 4:-0.244448 5:-0.734692 6:-0.42857 8:-0.0909075 9:0.290323 10:-0.390242 11:0.384617 12:-0.441862 13:-0.411767 15:-0.294118 16:-0.243243 17:-0.138888 18:0.0270253 19:-0.434784 20:-0.238093 22:-0.5625 23:-0.0555524 24:0.277109 25:0.142857 26:-0.770492 27:-0.75 29:-0.290323 30:-0.0499984 31:-0.0447748 32:0.208336 33:-0.7 34:0.466662 36:-0.37931 37:0.428575 38:-0.267607 39:0.0697664 40:-0.717948 41:-0.6 43:-0.0769198 44:-0.272731 45:-0.115386 46:0.0909123 47:-0.225803 48:-0.499999 50:0.0666673 51:0.0909063 52:-0.283585 53:-0.0500032 54:0.0769275 55:-0.625 57:-0.538462 58:-0.185184 59:0.301586 60:-0.187497 61:-0.483871 62:-0.333336 64:-0.310346 65:0.166665 66:-0.238098 67:0.0476161 68:-0.638297 69:-0.473683 71:-0.533333 72:-0.0857173 73:0.378379 74:0.277776 75:-0.955556 76:-0.700001 78:0.120008 79:0.103446 80:-0.311477 81:4.2353e-06 82:-0.333334 83:-0.466668 85:-0.428571 86:0.259264 87:-0.133332 88:-0.352943 89:0.076925 90:-0.29412 92:-0.153844 93:-0.225807 94:0.0285717 95:0.375003 96:-0.517242 97:-0.647061 99:-0.172415 100:-0.483867 101:-0.0434775 102:0.268297 103:-0.5625 104:-0.777778 106:-0.388889 107:1.92e-06 108:0.342465 109:-1.30909e-06 110:-0.727273 111:-0.8 113:-0.42857 114:0.437501 115:-0.470588 116:0.567565 117:-0.333334 118:-0.384615 120:-0.25 121:0.0344756 122:-0.103449 123:-0.032256 124:0.0400021 125:-0.368418 127:-0.399999 128:-0.0625017 129:-0.134328 130:-0.351348 131:-0.351352 132:0.384615 134:0.0714344 135:3.6e-07 136:-0.194027 137:-0.086957 138:-0.4 139:-0.636364 141:-0.0666654 142:-0.100001 143:0.25641 144:-0.0153858 145:-0.80303 146:-0.42857 148:-0.35484 149:-0.125002 150:0.279069 151:-0.621625 152:-0.551019 153:-0.411767 155:-0.354838 156:0.407403 157:-0.454546 158:0.235292 159:-0.290321 160:-0.222222 162:-0.64706 163:-0.117644 164:-0.0574692 165:-0.0697656 166:-0.487178 169:0.384612 170:-0.0243887 171:-0.270588 172:-0.0322606 173:-0.50365 174:-0.636364 
2 1:-0.0714262 2:0.368417 3:-0.366665 4:0.2 5:-0.714286 6:-0.523809 8:-0.212122 9:0.419356 10:-0.585366 11:0.487182 12:-0.302329 13:-0.0588263 15:-0.17647 16:-0.189192 17:-0.472221 18:-0.189193 19:2.1913e-06 20:0.0476216 23:0.222224 24:-0.518073 25:0.238096 26:-0.213116 27:-0.75 29:-0.225808 30:0.0500025 31:-0.104477 32:0.291664 33:-0.733333 34:0.333328 36:0.103455 37:0.142854 38:-0.408451 39:-0.255814 40:-0.538462 41:-0.300001 43:-1.66154e-06 44:-0.272731 45:-0.230768 46:-0.0303012 47:-0.0322574 48:-0.375 50:4.80001e-06 51:0.0303041 52:-0.402985 53:0.499997 54:-0.230769 55:-0.75 57:-1.66154e-06 58:-0.259264 59:0.0476206 60:-0.499995 61:-0.0967782 62:-0.200002 64:0.241379 65:0.0555531 66:-0.46032 67:-0.190478 68:-0.553193 69:-0.263156 71:-0.133334 72:0.771427 73:-0.621623 74:-0.222224 75:-0.533335 76:-0.100001 78:-0.199997 79:0.241378 80:-0.278692 81:-0.176472 82:-0.259261 83:-0.0666699 85:0.0714349 86:-0.259253 87:-0.466668 88:0.176467 89:0.307691 90:-0.529413 92:0.153854 93:-0.67742 94:0.114285 95:-0.125001 96:0.034486 97:-0.647061 99:-0.24138 100:0.806446 101:-0.565216 102:-0.0731731 103:-0.531251 104:-0.222222 106:-0.277778 107:0.523812 108:-0.150685 109:0.0454569 110:-0.727273 111:-0.4 113:-0.142856 114:-0.124998 115:-0.0882339 116:0.135137 117:-0.199998 118:-0.692308 120:-0.5 121:0.379311 122:-0.310348 123:0.612901 124:-0.359998 125:-0.473683 127:-0.533333 128:0.249996 129:0.0149244 130:-0.459456 131:-0.405402 132:-0.384615 134:0.142859 135:-0.1 136:-0.13433 137:-0.260872 138:-0.472728 139:-1.30909e-06 141:-0.466665 142:0.249998 143:0.333332 144:0.169231 145:-0.924241 146:-0.619046 148:-0.419355 149:-0.0624965 150:0.0930207 151:0.0810789 152:-0.714286 153:-0.529413 155:-0.354838 156:0.481483 157:-0.480519 158:-0.176472 159:0.0322569 162:-0.176469 163:-0.117644 164:-0.0574692 165:-0.348838 166:-0.384613 167:-0.571429 169:-2.21538e-06 170:0.170735 171:-0.458824 172:0.225806 173:-0.547445 174:-0.272728 
0.7990388953267462 1:-0.214284 2:-0.0526312 3:0.533334 4:-0.2 5:-0.857143 6:-0.619046 8:-0.212122 9:0.16129 10:-0.0487798 11:-0.179487 12:-0.395346 13:-0.411767 15:0.117644 16:-0.405402 17:-0.388889 18:0.405404 19:-0.434784 20:-0.42857 22:-0.8125 23:-0.222224 24:0.397591 25:-0.0952364 26:-0.606558 27:-0.499999 29:0.032256 30:0.150003 31:-0.134326 32:0.208336 33:-0.716668 34:-0.200002 36:0.172416 37:-0.142859 38:-0.0704199 39:-0.30233 40:-0.615384 41:-0.700001 43:-0.0769198 44:-0.0909075 45:-0.230768 46:0.212117 47:-0.354838 48:-0.499999 50:-0.266665 51:-0.0909089 52:0.223879 53:-0.0999999 54:-0.461539 55:-0.75 57:-0.461539 58:-0.0370347 59:0.301586 60:-0.624997 61:-0.225802 62:-0.333336 64:-0.379311 65:0.333329 66:-0.111113 67:-0.142855 68:-0.765957 69:-0.0526284 71:-0.200001 72:0.0285691 73:0.216216 74:-0.444448 75:-0.755555 76:-0.4 78:0.120008 79:-0.172409 80:-0.213118 81:-0.058824 82:-0.407409 83:-0.0666699 85:-0.357142 86:-0.111115 87:0.133332 88:-0.647057 89:0.153843 90:-0.29412 92:-0.153844 93:-0.0322608 94:0.0571413 95:-0.0624961 96:-0.448277 97:-0.411767 99:-0.310346 100:0.741934 101:-0.478261 102:-0.317074 103:-0.468751 106:-0.111112 107:0.285712 108:-0.232876 109:-0.136363 110:-0.600001 111:-0.2 113:-0.285713 114:0.624998 115:-0.294116 116:-0.189189 117:-1.44e-06 118:-0.692308 120:4.2e-06 121:0.448272 122:-0.13793 123:-0.0967772 124:-0.279999 125:-0.68421 127:-0.666666 128:0.249996 129:-0.0149244 130:-0.0810796 131:-0.459459 132:-0.846154 134:0.285717 135:0.349999 136:-0.492538 137:0.260872 138:-0.581817 139:-0.454546 141:-0.333333 142:-0.149997 143:-0.128206 144:0.476921 145:-0.80303 146:-0.0476175 148:0.0967772 149:-4.50001e-07 150:-0.0232577 151:-0.351349 152:-0.428572 153:-0.882353 155:-0.290322 156:0.703701 157:-0.532467 158:-0.29412 159:0.290323 160:-0.444445 162:-0.11765 163:3.81177e-06 164:-0.448275 165:-0.0697656 166:-0.0256401 167:-0.428571 169:0.307694 170:-0.317073 171:-0.0352952 172:0.419355 173:-0.795621 174:-0.363637 
0.4544436940364631 1:-0.714285 2:0.210525 3:0.1 4:0.6 5:-0.857143 6:-0.904762 8:-0.454546 9:-0.290322 10:0.0731706 11:0.179487 12:-0.441862 13:-0.411767 15:-0.352941 16:-0.135134 17:-0.111112 18:-0.459462 19:-0.130437 20:-0.238093 22:-0.25 23:0.333336 24:-0.373493 25:0.47619 26:-0.540982 27:-0.625 29:-0.67742 30:0.0999993 31:0.0447761 32:-2.1e-06 33:-0.533334 34:-0.200002 36:-0.724138 37:0.0285754 38:-0.239436 39:0.209299 40:-0.538462 41:-0.500001 43:-0.307693 44:-0.21212 45:-0.115386 46:0.151515 47:-0.161291 48:-0.499999 50:-0.266665 51:0.151517 52:-0.0746264 53:-0.150004 54:-1.66154e-06 55:-0.625 57:-0.538462 58:-0.111115 59:0.174606 60:0.312498 61:-0.548387 62:-0.866667 64:-0.655173 65:-0.777779 66:-0.301591 67:-0.142855 68:-0.0212754 69:-0.578946 71:-1 72:0.542854 73:0.135136 74:0.444448 75:-0.888889 76:-0.8 78:-0.519998 79:0.172417 80:0.114754 81:-0.35294 82:-0.0370336 83:-1 85:-0.571427 86:-0.185184 87:-0.100001 88:0.47059 89:-0.307691 90:-0.529413 92:-0.384614 93:0.354841 94:-0.285715 95:0.187506 96:0.034486 97:-0.647061 99:-0.724138 100:-0.741936 101:-0.884057 102:-0.414636 103:1 104:-0.222222 106:-0.777778 107:-0.285715 108:-0.260275 109:0.22727 110:-0.2 111:-0.700001 113:-0.214284 114:-5.84999e-06 115:-0.205882 116:0.189188 117:-0.333334 118:-0.0769226 120:-0.416667 121:0.241379 122:-0.0689637 123:0.032256 124:-0.119999 125:-0.473683 127:-0.533333 128:-0.0625017 129:-0.134328 130:0.0810796 131:-0.405402 132:-0.384615 134:-0.928571 135:-1 136:-1 137:-0.695652 138:1 139:-0.818182 141:-0.599999 142:-0.050004 143:0.25641 144:-0.107692 145:-0.636364 146:-0.523809 148:0.161289 149:0.312498 150:-0.627907 151:-0.135139 152:0.102041 153:-0.529413 155:0.0322633 156:-0.333333 157:-0.532467 158:0.470588 159:-0.0967762 160:-0.222222 162:-0.47059 163:-0.294121 164:-0.402298 165:0.53488 166:-0.128205 167:-0.714285 169:-1 170:-1 171:-0.905882 172:-0.774194 173:0.839416 174:-1 
0.3310530962936959 1:-0.285713 2:-3.03158e-06 3:-0.2 4:-0.0222205 5:-0.530612 6:-0.42857 8:-0.69697 9:-0.0967767 10:0.195121 11:-0.0256431 12:-0.534884 13:-0.176474 15:-0.647058 16:-0.135134 17:-0.638889 18:0.675673 19:-0.260869 20:0.333336 22:-0.25 23:-0.666666 24:0.13253 25:-0.190475 26:-0.311475 27:-0.124999 29:-0.419355 30:0.449999 31:-0.104477 32:-0.166664 33:-0.599999 34:0.0666641 36:-0.0344778 37:-0.371432 38:-0.211268 39:-0.116282 40:-0.410258 41:-0.700001 43:-0.538462 44:-0.333333 45:0.269227 46:-0.515155 47:-0.161291 48:0.25 50:-0.466665 51:0.393943 52:-0.402985 53:0.249999 54:-0.230769 55:1.8e-06 57:-0.153847 58:-0.185184 59:-0.238094 61:-0.290323 62:0.466662 64:0.31034 65:0.0555531 66:-0.333335 67:-0.380956 68:-0.446808 69:-0.894737 71:-0.666667 72:-0.142856 73:0.432434 74:-0.166664 75:-0.8 76:-0.500001 78:-0.199997 79:-0.24138 80:-0.0163948 81:-0.529408 82:0.185185 83:-0.200002 85:-0.571427 86:-0.0370347 87:-0.333333 88:0.294115 89:0.076925 90:-0.176474 92:-0.153844 93:-0.290319 94:-0.0285717 95:2.22045e-16 96:0.31034 97:-1 99:-0.586207 100:0.677422 101:-0.304347 102:0.219512 103:-0.718749 104:-0.444445 106:-0.722222 107:0.0476179 108:0.232875 109:0.31818 110:-0.70909 111:-0.700001 113:0.285717 114:-0.374999 115:-0.588236 116:0.351347 117:0.266667 118:-0.0769226 120:-0.0833334 121:0.31034 122:-0.172416 123:-0.290322 124:0.119997 125:-0.473683 127:-0.133332 128:-0.0625017 129:-0.462687 130:-0.0810796 131:-0.243243 132:0.384615 134:-0.571427 135:0.550001 136:-0.0149257 137:-0.21739 138:-0.472728 139:-0.727274 141:-0.733333 142:-0.35 143:-0.358975 144:-0.6 145:0.166668 146:-1 148:-0.419355 149:-4.50001e-07 150:-0.348838 151:0.297297 152:-0.142859 153:-0.529413 155:0.0967753 156:-0.185184 157:-0.584416 158:0.470588 159:-0.0967762 160:-0.333333 162:-1.86353e-06 163:0.117652 164:-0.609194 165:-0.116281 166:0.128203 167:-0.285715 169:-0.769232 170:-0.853659 171:-0.411765 172:-0.354839 173:0.226276 174:-0.818182 
2 1:0.142859 2:0.0526327 3:-0.133333 4:-0.2 5:-0.693879 6:-0.142855 8:-0.0909075 9:-0.161289 10:-0.219511 11:0.179487 12:-0.441862 13:0.0588195 15:0.058824 16:-0.297293 17:-0.555557 18:0.405404 19:-0.260869 20:-0.333332 22:-0.624999 23:-0.222224 24:0.301204 25:-0.0476205 26:-0.639345 27:-0.375 29:-0.419355 30:0.2 31:-0.134326 32:0.500002 33:-0.766667 34:0.0666641 36:-0.172412 37:0.0285754 38:-0.211268 39:-0.16279 40:-0.692309 41:-1.44e-06 43:-0.538462 44:0.0303054 45:0.0769209 46:-0.0909123 47:-0.419355 48:-0.249999 50:-0.399999 51:-0.0303068 52:0.0149244 53:0.100001 54:-0.461539 55:-0.249999 57:-0.538462 58:0.0370347 59:0.333335 60:-0.749998 61:-0.225802 62:-0.200002 64:-0.379311 65:-0.333334 66:0.301586 68:-0.808511 69:-0.263156 71:-0.200001 72:0.428568 73:-0.243245 74:-0.111112 75:-0.68889 76:-0.300001 78:-0.119998 79:-0.0344865 80:-0.114754 81:0.117644 82:-0.407409 83:-0.733334 85:-0.571427 86:0.259264 87:0.133332 89:-0.769231 90:-0.411767 92:-0.307691 93:-0.096773 94:0.400001 95:-0.499995 96:-0.24138 97:-1 99:-0.379311 100:-0.161289 101:0.362318 102:-0.414636 103:-0.8125 104:-0.11111 106:0.111112 107:-0.14286 108:-0.232876 109:-0.181821 110:-0.618181 111:0.500004 113:-0.285713 114:-0.124998 115:0.29412 116:-0.351349 117:-0.333334 118:-0.692308 120:-0.749999 121:-0.103456 122:0.344829 123:-0.806455 124:0.119997 125:0.263162 127:-0.266665 128:-0.249998 129:0.0746264 130:-0.297297 131:-0.405402 132:-0.538462 134:0.0714344 135:3.6e-07 136:-0.0447746 137:-0.086957 138:-0.6 139:-0.090911 141:4.80001e-06 142:0.349999 143:-0.384615 144:0.323076 145:-0.681817 146:-0.809523 148:-0.290323 149:-0.187498 150:0.209302 151:-0.297298 152:-0.591838 153:-0.647061 155:-0.16129 156:-0.407413 157:0.0389586 158:-0.058824 159:-0.612905 160:-0.333333 162:-0.588236 163:-0.0588245 164:-0.0344822 165:-0.209305 166:-0.23077 167:-0.714285 169:-0.46154 170:0.121951 171:-0.200001 172:0.0967725 173:-0.649635 174:0.363639 
2 1:2.05715e-06 2:0.368417 3:-0.400001 4:-0.0222205 5:-0.734692 6:0.0476216 8:0.0909075 9:0.0322564 10:-0.390242 11:0.128201 12:-0.348838 13:0.0588195 15:-0.352941 16:0.0270261 17:-0.194444 18:-0.0810838 19:-0.304351 20:-0.523809 22:-0.25 23:0.111112 24:-0.373493 25:0.571429 26:-0.409839 27:-0.875 29:0.0967772 30:0.300001 31:-0.074628 32:-2.1e-06 33:-0.716668 34:-0.333336 36:0.0344834 37:-0.0857113 38:-0.239436 39:-0.255814 40:-0.692309 41:0.199999 43:-0.0769198 44:-0.151518 45:-0.269233 46:0.272728 47:-0.290322 48:-0.499999 50:4.80001e-06 51:-0.0303068 52:-0.164181 53:-0.0500032 54:-0.0769198 55:-0.499999 57:-0.153847 58:-0.333333 59:0.142857 60:-0.312498 61:0.0322551 62:-0.866667 64:-0.172415 65:0.222217 66:0.047616 67:-0.190478 68:-0.765957 69:-0.578946 71:-0.266668 72:0.199995 73:0.162161 74:-0.277776 75:-0.733335 76:-0.8 78:-0.279998 79:0.310349 80:-0.180328 81:-0.35294 82:-0.111113 83:-0.333336 85:-0.0714236 86:0.111115 87:-0.466668 88:-0.235295 89:0.307691 90:-0.0588263 92:-0.0769211 93:0.0322608 94:-0.314284 95:0.187506 96:-0.034485 97:-0.29412 99:-0.103449 100:0.161289 101:-0.217392 102:-0.170728 103:-0.5625 104:-0.333333 106:-0.055552 107:0.142857 108:-0.150685 109:0.0454569 110:-0.654545 111:-0.4 113:2.05715e-06 114:-0.374999 115:0.0294141 116:-0.135139 117:-1.44e-06 118:-0.692308 120:-0.416667 121:-0.448282 122:0.0344831 123:0.677412 124:-0.519999 125:-0.263156 127:0.0666673 128:-0.374999 129:-0.164177 130:-0.0270291 131:-0.405402 132:-0.538462 134:-0.142856 135:0.200002 136:-0.253729 137:0.0434821 138:-0.527272 139:-0.181819 141:-0.0666654 142:0.45 143:-0.384615 144:0.0153858 145:-0.651514 146:-0.142855 148:-0.0967753 149:0.0625046 150:-0.465117 151:-0.0270299 152:-0.102039 153:-0.0588263 155:-0.16129 156:0.111104 157:-0.298701 158:-0.176472 159:-0.225809 160:-0.11111 162:-0.294119 163:0.235292 164:-0.701149 165:-0.116281 166:0.0769247 167:0.857144 169:-0.153848 170:0.414636 171:-0.388234 173:-0.547445 174:-0.181819 
2 1:-0.42857 2:0.263153 3:-0.100002 4:0.333331 5:-0.857143 6:-0.238093 8:-0.636364 9:0.0967683 10:0.292683 11:-0.282052 12:-0.627907 13:-0.29412 15:-0.294118 16:-0.081083 17:-0.444445 18:0.459462 19:-0.347826 20:-0.42857 22:-0.624999 23:0.222224 24:0.180723 25:-0.0952364 26:-0.606558 27:-0.75 29:-0.0967753 30:-0.149999 31:0.343286 32:0.125002 33:-0.749999 34:-0.733334 36:-0.448275 37:0.0285754 38:-0.0422527 39:-0.348838 40:-0.615384 41:-0.100001 43:-0.538462 44:-0.757574 45:0.73077 46:-0.272728 47:-0.225803 48:-0.75 50:-0.466665 51:0.393943 52:-0.313434 53:0.249999 54:-0.307693 55:-0.249999 57:-0.615384 58:-0.185184 59:0.174606 60:0.375003 61:-0.612903 62:-0.600002 64:-0.724138 65:0.0555531 66:0.301586 67:-0.047623 68:-0.851064 69:-0.157891 71:-0.333334 72:-0.0857173 73:-0.189191 74:0.222224 75:-0.577776 76:-0.500001 78:-0.119998 79:0.241378 80:-0.213118 81:-0.058824 82:-0.185183 83:-0.866667 85:-0.499999 86:0.555552 87:-0.366665 88:0.0588195 89:-0.153841 90:-0.29412 92:-0.384614 93:0.0322608 94:0.0571413 95:0.312498 96:-0.517242 97:-0.764707 99:-0.655173 100:0.612901 101:-0.15942 102:0.219512 103:-0.75 104:-0.666667 106:-0.555555 107:0.285712 108:-0.178081 109:0.272728 110:-0.654545 111:-0.2 113:-0.214284 114:0.124995 115:-0.176468 116:0.135137 117:-0.266668 118:-0.538462 120:4.2e-06 121:-0.103456 122:-2.48276e-06 123:0.419355 124:-0.759999 125:-0.473683 127:-0.333333 128:0.1875 129:-0.104475 130:-0.459456 131:-0.243243 132:-0.538462 134:-0.499999 135:0.650001 136:-0.223881 137:0.0869576 138:-0.636364 139:-0.181819 141:0.133339 142:0.100001 143:-0.358975 144:-0.0461531 145:-0.530303 146:-0.42857 148:-0.483871 149:-0.125002 150:0.279069 151:-0.405407 152:-0.510205 153:-0.764707 155:-0.419355 156:-0.111115 157:-0.194808 158:0.29412 159:-0.483872 160:-0.222222 162:-0.705883 163:-0.41176 164:0.241379 165:-0.116281 166:-0.692308 167:-0.285715 169:-2.21538e-06 170:0.170735 171:-0.341178 173:-0.532847 174:-0.181819 
1.582554828468782 1:0.785717 2:0.157897 3:-0.700001 4:0.111111 5:-0.693879 6:-0.238093 8:0.0303054 9:0.0967683 10:-0.414635 11:0.0256431 12:-0.255814 13:0.176465 15:-0.235294 16:0.189194 17:-0.361113 18:-0.621622 19:0.0869531 20:-0.333332 22:0.375003 23:0.222224 24:-0.638554 25:-0.190475 26:-0.0491829 27:-0.375 29:0.935479 30:-1.584e-06 31:-0.313432 32:-0.249998 33:-0.583333 34:-0.466668 36:0.517242 37:0.428575 38:-0.718311 39:-0.674419 40:-0.307693 41:-0.300001 43:0.615387 44:-0.272731 45:-0.500004 46:-0.393942 47:0.161288 48:-0.124999 50:0.0666673 51:0.212119 52:-0.462687 53:-0.0500032 54:0.230764 55:-0.375 57:0.307693 58:-0.185184 59:-0.20635 60:-0.375003 61:-0.16129 62:0.0666641 64:0.655175 65:0.166665 66:-0.587305 67:-0.238094 68:-0.553193 69:-0.578946 71:0.400001 72:0.142856 73:-0.378379 74:-0.611112 75:-0.48889 76:-0.2 78:0.600002 79:0.0344845 80:-0.901641 81:0.235292 82:0.259254 83:-0.333336 85:0.642859 86:-0.185184 87:-0.499999 88:-0.411762 89:0.461539 90:-0.529413 92:0.692316 93:-0.096773 94:-0.657144 95:2.22045e-16 96:0.517243 97:-0.411767 99:0.517243 100:-0.22581 101:-0.681159 102:0.121951 103:-0.5625 104:0.444445 106:0.111112 107:0.428574 108:-0.534246 109:-0.0454529 110:-0.563637 111:-0.2 113:0.714293 114:0.3125 115:-0.67647 116:-0.405407 117:0.533335 118:-0.692308 120:0.25 121:-0.241379 122:-0.517242 123:-0.290322 124:0.44 125:0.578958 127:0.0666673 128:0.562493 129:-0.70149 130:-0.297297 131:0.0270261 132:-0.538462 134:0.357141 135:0.149998 136:-0.253729 137:-0.173914 138:-0.545456 139:-0.181819 141:0.600006 142:0.650001 143:-0.794872 144:0.138459 145:-0.636364 146:-0.42857 148:0.032256 149:0.437499 150:-0.418605 151:-0.351349 152:-0.183673 153:-0.29412 155:0.161287 156:0.777771 157:-0.818182 158:-0.529416 159:0.806446 160:-0.555555 162:0.0588178 163:0.235292 164:-0.471262 165:-0.534885 166:0.0769247 167:-0.142856 169:0.384612 170:0.0243887 171:-0.294119 172:0.032256 173:-0.664234 174:0.181817 
2 1:-0.357141 2:0.473681 3:-0.0666655 4:0.2 5:-0.857143 6:-0.523809 8:-0.151517 9:0.0967683 10:0.0487819 11:-0.282052 12:-0.348838 13:-0.764707 15:-0.235294 16:-0.351352 17:-0.0555564 18:-0.189193 19:-0.434784 20:-0.0476175 22:-0.75 23:0.333336 24:0.0361437 25:0.0476184 26:-0.573771 27:-0.499999 29:-0.225808 30:0.500003 31:-0.343285 32:0.291664 33:-0.800001 34:0.733328 36:-0.103447 37:0.542861 38:-0.352113 39:-0.534887 40:-0.512822 41:-0.4 43:-0.307693 44:0.454546 45:-0.576922 46:0.0909123 47:-0.0322574 48:-0.499999 50:0.133339 51:0.151517 52:-0.462687 53:-0.0999999 54:0.230764 55:-0.249999 57:-0.384615 58:0.111115 59:0.20635 60:-0.437499 61:-0.290323 62:-0.600002 64:-0.24138 65:0.111113 66:-0.0158766 67:-0.238094 68:-0.765957 69:0.0526345 71:-0.733334 72:0.257142 73:0.486484 74:-0.555552 75:-0.866667 76:-0.300001 78:0.120008 79:0.0344845 80:-0.573774 81:0.058824 82:-0.185183 83:0.333328 85:-0.714285 86:0.629632 87:-0.299997 88:-0.235295 89:0.153843 90:-0.176474 92:0.153854 93:-0.161295 94:2.05714e-06 95:-0.0624961 96:-0.448277 97:-0.411767 99:-0.517242 100:-0.161289 101:0.130433 102:-0.414636 103:-0.374998 104:-0.555555 106:-0.777778 107:1.92e-06 108:0.561645 109:0.363638 110:-0.890909 111:-0.8 113:-0.0714262 114:-0.0625017 115:0.176472 116:-0.567566 117:-0.199998 118:-0.384615 120:-0.5 121:0.517233 122:0.13793 123:-1 124:0.44 125:-0.473683 127:-0.133332 128:0.249996 129:-0.283581 130:-0.297297 131:-0.405402 132:-0.23077 134:-0.571427 135:-0.200001 136:0.402984 137:-0.21739 138:-0.472728 139:-0.636364 141:-0.533333 143:1 144:-0.446154 145:-0.924241 146:-0.619046 148:0.032256 149:0.625005 150:-0.558141 151:-0.0270299 152:-0.265306 153:-0.411767 155:0.0322633 156:0.259253 157:-0.454546 158:-0.058824 159:-0.0967762 160:-0.444445 162:0.117646 163:0.176472 164:-0.586207 165:-0.023257 166:-0.23077 167:-0.142856 169:-0.153848 170:0.512198 171:0.0117639 172:-0.161289 173:-0.722627 174:-0.363637 
2 1:-0.142856 2:-0.210531 3:-0.133333 4:0.333331 5:-0.612245 6:-0.809523 8:-0.515152 9:-0.161289 10:0.0487819 11:-0.230773 12:-0.209305 13:-0.0588263 15:-0.294118 16:-0.459461 17:-0.250001 18:0.081076 19:-0.130437 20:-0.238093 22:-0.437499 23:-0.555553 24:-0.0120495 25:0.428574 26:-0.344265 27:-0.75 29:-0.741936 30:-0.199996 31:0.253731 32:0.25 33:-0.55 34:-0.866667 36:-0.586206 37:-0.142859 38:0.183101 39:-0.16279 40:-0.589744 41:-0.9 43:-0.461539 44:-0.454546 45:-0.269233 46:0.696971 47:-0.225803 48:-0.249999 50:-0.266665 51:-0.333335 52:0.104475 53:-0.0999999 54:-0.0769198 55:-0.375 57:-0.76923 58:-0.111115 59:0.0476206 60:0.125001 61:-0.0967782 62:-0.466668 64:-0.724138 65:-0.166671 66:0.142857 67:0.190478 68:-0.617022 69:-0.894737 71:-0.8 72:-0.31429 73:-0.0810817 74:0.277776 75:-0.377776 76:-0.8 78:0.0400016 79:-0.172409 80:-0.180328 81:-0.176472 82:-0.0370336 83:-0.466668 85:-0.285713 86:-0.703701 87:0.300002 88:0.117648 89:-0.307691 90:-0.882353 92:-0.384614 93:-0.419353 94:0.200002 95:-0.0624961 96:0.034486 97:-0.764707 99:-1 100:-0.806452 101:0.478261 102:-0.463413 103:-0.125 104:-0.777778 106:-0.833334 107:-0.619047 108:-0.342466 109:-0.500002 110:0.327273 111:-0.9 113:0.0714344 114:0.124995 115:-0.735294 116:0.0810789 117:0.599998 118:-0.0769226 120:-0.583332 121:-0.448282 122:0.0689637 123:0.677412 124:-0.279999 125:-0.473683 127:-0.599999 128:-0.124998 129:-0.283581 130:0.0810796 131:-0.0270245 132:-0.384615 134:-1 135:-0.600001 136:0.432837 137:-0.391304 138:-0.0909076 139:-1 141:-0.533333 142:-0.200001 143:-1.84615e-06 144:-0.0153858 145:-0.59091 146:0.0476216 148:-0.548388 149:0.5625 150:-0.604653 151:1 152:-0.428572 153:-0.764707 155:-0.225805 156:-0.703712 157:-0.324677 158:0.647056 159:-0.225809 160:-0.222222 162:-0.588236 163:-0.117644 164:-0.563217 165:0.581395 166:-0.128205 169:-0.307694 170:0.0731731 171:0.12941 172:0.322578 173:-0.854014 174:-0.363637 
1.45699998085202 1:-0.357141 2:0.0526327 3:1.68e-06 4:0.111111 5:-0.734692 6:-0.333332 8:-0.151517 9:-0.0322555 10:-0.243903 11:-0.179487 12:-0.023257 13:-0.176474 15:-0.529411 16:-0.459461 17:-4e-07 18:0.243244 19:-0.652174 20:0.142859 22:-0.75 23:-0.500001 24:0.493977 25:0.380951 26:-0.868853 27:-0.75 29:-0.419355 30:0.300001 31:-0.283583 32:0.333334 33:-0.633332 34:-0.0666699 36:-0.241378 37:0.542861 38:-0.577463 39:0.209299 40:-0.666666 41:-0.4 43:-0.0769198 44:-0.454546 45:-0.307692 46:0.393942 47:-0.0967694 48:-0.375 50:-0.266665 51:0.0303041 52:0.0149244 53:-0.150004 54:-1.66154e-06 55:-0.75 57:-0.461539 58:-0.111115 59:0.238094 60:-0.312498 61:-0.419355 62:-0.200002 64:-0.448276 65:0.222217 66:-0.111113 67:0.238094 68:-0.787233 69:-0.473683 71:-2.112e-06 72:0.485715 73:-0.486488 74:-0.611112 75:-0.4 76:-0.2 78:0.520007 79:-0.310341 80:-0.213118 81:-0.117644 82:-0.185183 83:-0.733334 85:0.285718 86:-0.333333 87:-0.499999 88:-0.294115 89:0.615386 90:-0.176474 92:0.0769244 93:0.0322608 94:-0.342858 95:0.312498 96:-0.103446 97:-0.529413 99:-0.103449 100:0.032256 101:-0.449273 102:0.0243887 103:-0.499999 104:0.11111 106:-0.277778 107:-0.333331 108:-0.534246 109:0.363638 110:-0.254545 111:-0.500001 113:-0.214284 114:-0.312503 115:0.176472 116:-0.459457 117:-1.44e-06 118:-0.23077 120:-0.25 121:0.0344756 122:-0.206896 123:0.741934 124:-0.6 125:-0.473683 127:0.133339 128:-0.187502 129:-0.492536 130:-0.0810796 131:-0.135134 132:-0.0769226 134:-0.499999 135:0.149998 136:-0.373134 137:0.304348 138:-0.4 139:-0.454546 141:-0.533333 142:-0.45 143:-0.487179 144:0.292309 145:-0.30303 146:-0.42857 148:-0.225808 149:-0.374995 150:-0.046512 151:-0.135139 152:-0.387759 153:-0.0588263 155:-0.419355 156:-0.555563 157:0.402598 158:-0.470588 159:-0.35484 160:-0.888889 162:-0.529413 163:-0.0588245 164:-0.218388 165:0.255815 166:-0.487178 167:-0.428571 169:-0.692308 170:0.0731731 171:-0.270588 172:0.612901 173:-0.708029 174:-0.090911 
2 1:0.0714344 2:0.157897 3:-0.400001 4:0.244442 5:-0.795919 6:0.0476216 8:-0.333334 9:-0.161289 10:0.121951 11:-0.0256431 12:-0.395346 13:-0.764707 15:0.058824 16:-0.0270245 17:-0.611113 18:0.297294 19:-0.130437 20:-0.714286 22:-0.499999 23:-4e-07 24:-0.0602392 25:-0.190475 26:-0.409839 27:0.25 29:0.677422 30:-1.584e-06 31:-0.134326 32:-0.166664 33:-0.633332 34:-0.600002 36:0.103455 37:0.0857146 38:-0.38028 39:-0.348838 40:-0.538462 41:-0.100001 43:-0.307693 44:-0.454546 45:0.269227 46:-0.0909123 47:-0.225803 48:-0.625 50:-0.666666 51:-0.0909089 52:0.31343 53:-0.150004 54:-0.461539 55:-0.249999 57:-0.0769198 58:-0.111115 59:-0.238094 60:0.375003 61:-0.290323 62:-0.600002 64:-0.0344835 65:0.444441 66:-0.238098 67:-0.523811 68:-0.574468 69:-0.473683 71:-0.266668 72:-0.142856 73:-0.324325 74:0.166664 75:-0.622221 76:0.299999 78:-0.359998 79:0.586203 80:-0.213118 81:-0.235292 82:-0.111113 83:-0.866667 85:-0.214284 86:0.333333 87:-0.299997 88:0.0588195 89:-0.384615 90:-0.29412 92:-0.307691 93:0.096773 94:2.05714e-06 95:-0.0624961 96:-0.172415 97:-0.647061 99:0.241379 100:-0.22581 101:-0.304347 102:-0.26829 103:-0.468751 106:-0.388889 107:-0.095237 108:-0.31507 109:0.136367 110:-0.490909 111:0.199999 113:2.05715e-06 114:-0.124998 115:-0.147058 116:-0.351349 117:0.199995 118:-0.23077 120:-0.0833334 121:0.0344756 122:-0.275862 123:-0.0967772 124:-0.199994 125:0.368426 127:4.80001e-06 128:-0.187502 129:-0.223879 130:-0.13513 131:-0.297293 132:-0.538462 134:0.285717 135:0.599997 136:-0.462684 137:0.130433 138:-0.636364 139:-0.454546 141:-0.399999 142:-0.249998 143:-0.538462 144:0.199998 145:-0.378787 146:-0.0476175 148:0.225801 149:0.312498 150:-0.581395 151:-0.0810804 152:-0.102039 153:-0.411767 155:-0.677419 156:0.555552 157:-0.324677 158:0.176472 159:-0.35484 160:-0.222222 162:0.117646 163:-0.117644 164:-0.678159 165:0.255815 166:-0.128205 169:-0.153848 170:0.121951 171:0.24706 172:0.0645166 173:-0.824818 174:-0.545455 
2 1:0.357141 2:0.63158 3:-0.700001 4:-0.155558 5:-0.632652 6:-0.238093 8:-0.636364 9:0.354835 10:0.0243897 11:-0.0256431 12:-0.534884 13:-0.29412 15:-0.588235 16:-0.351352 17:0.5 18:-0.459462 19:-0.434784 20:-0.904762 22:0.312498 23:0.111112 24:-0.759035 25:-0.190475 26:-0.0491829 27:0.625002 29:0.161289 30:0.850002 31:-0.462685 32:-0.416666 33:-0.533334 34:-0.333336 36:-0.103447 37:0.200001 38:0.126763 39:-0.534887 40:-0.717948 41:-0.700001 43:-0.76923 44:0.393935 45:0.153845 46:-0.454544 47:-0.225803 48:-0.499999 50:-0.333333 51:-0.212122 52:0.164177 53:0.100001 54:-0.461539 55:-0.625 57:-0.0769198 58:-0.407403 59:0.015872 60:-0.312498 61:0.0967764 62:-0.466668 64:0.172418 65:0.277777 66:-0.111113 67:-0.380956 68:-0.617022 69:-1 71:-0.200001 72:0.485715 73:-0.324325 74:-0.166664 75:-0.711111 76:0.0999993 78:-0.0399935 79:0.310349 80:-0.278692 81:-0.058824 82:-0.333334 83:-0.600002 85:-0.428571 86:0.555552 87:-0.266666 88:-0.0588195 89:-0.230768 90:-0.411767 92:0.0769244 93:-0.354841 94:-0.0571413 95:-0.125001 96:0.034486 97:-0.411767 99:-0.0344835 100:0.290322 101:-0.536233 102:0.268297 103:-0.625 104:-0.222222 107:0.0952408 108:-0.20548 109:0.181818 110:-0.672726 111:-0.4 113:-0.285713 114:0.062499 115:-0.147058 116:0.0810789 117:-0.133336 118:-0.538462 120:0.25 121:0.0344756 122:-0.344829 123:-0.677422 124:0.119997 125:0.684215 127:-0.133332 128:-0.249998 129:-0.104475 130:-0.0810796 131:-0.351352 132:-0.692308 134:0.214293 135:0.100001 136:-0.373134 137:0.0434821 138:-0.545456 139:-1.30909e-06 141:-0.466665 142:-0.050004 143:-0.230771 144:0.323076 145:-0.636364 146:-0.238093 148:-0.0967753 149:0.250002 150:-0.302326 151:-0.405407 152:-0.0612258 153:-0.529413 155:-0.741935 156:-0.555563 157:0.402598 158:0.176472 159:-0.870968 160:-0.666667 162:-0.705883 163:0.117652 164:-0.287356 165:0.255815 166:-0.487178 169:0.0769202 170:0.317074 171:-0.105882 172:0.0967725 173:-0.737226 174:-0.454546 
2 1:-0.42857 2:0.210525 3:-0.299998 4:0.68889 5:-0.755102 6:-0.809523 8:-0.212122 9:0.16129 10:-0.0975607 11:-0.128208 12:-0.395346 13:-0.29412 15:-0.17647 16:-0.513511 17:-4e-07 18:0.189185 19:-0.478259 20:-0.619046 22:-0.0624961 23:0.388888 24:-0.493974 25:2.4e-06 26:-0.311475 27:-0.124999 29:-0.161291 30:0.500003 31:-0.164179 32:-2.1e-06 33:-0.816666 34:0.86666 36:-0.37931 37:-0.0285721 38:-0.183097 39:-0.0232577 40:-0.666666 41:-0.100001 43:-0.538462 44:-0.454546 45:0.153845 46:-0.0909123 47:0.0967759 48:-0.499999 50:-0.599999 51:-0.0909089 52:0.31343 53:-0.0500032 54:-0.461539 55:-0.625 57:-0.0769198 58:-0.407403 59:0.111113 60:-0.375003 61:-0.16129 62:-0.200002 64:-0.310346 65:0.0555531 66:0.301586 67:-0.047623 68:-0.893617 69:-0.578946 71:-0.533333 72:0.257142 73:0.0810817 74:0.055552 75:-0.755555 76:-0.700001 78:-0.599998 79:0.103446 80:0.278687 81:0.058824 82:-0.851852 83:-0.866667 85:-0.642857 86:-0.333333 87:0.300002 88:0.117648 89:-0.769231 90:-0.176474 92:0.0769244 93:0.161295 94:-0.228571 95:2.22045e-16 96:-0.103446 97:-0.647061 99:-0.655173 100:0.612901 101:0.15942 102:-0.219512 103:-0.84375 104:-0.555555 106:-0.444445 107:1.92e-06 108:-0.232876 109:0.31818 110:-0.563637 111:-0.2 113:-0.357141 114:-0.187502 115:0.29412 116:-0.243248 117:-0.333334 118:-0.692308 120:-0.416667 121:0.241379 122:0.0344831 123:0.032256 124:-0.439999 125:-0.368418 127:-0.599999 128:-0.124998 129:0.552238 130:-0.675674 131:-0.621621 132:-0.846154 134:0.214293 135:0.249998 136:-0.223881 137:0.21739 138:-0.654545 139:-0.545455 141:0.0666673 142:-0.149997 143:-0.384615 144:0.107692 145:-0.51515 146:-0.333332 148:-0.0967753 149:0.0625046 150:-0.558141 151:0.351347 152:-0.142859 153:-0.29412 155:-0.48387 156:-0.111115 157:-0.22078 158:0.117644 159:-0.35484 160:0.11111 162:-0.11765 163:0.176472 164:-0.402298 165:-0.116281 166:-0.23077 167:-0.428571 169:-0.0769257 170:0.414636 171:-0.129414 172:0.032256 173:-0.708029 174:-0.363637 
0.6859454877196476 1:-0.142856 2:0.473681 3:-0.333334 4:-0.2 5:-0.510205 6:-0.809523 8:-0.333334 9:-0.354843 10:0.195121 11:0.0769219 12:-0.441862 13:-0.882353 15:-0.17647 16:0.189194 17:-0.444445 18:0.243244 19:-0.521739 20:-0.333332 22:-0.25 23:0.0555596 24:-0.0602392 25:0.0476184 26:-0.508198 27:-0.625 29:0.225801 30:-1.584e-06 31:-0.164179 32:-0.249998 33:-0.55 34:0.0666641 36:-0.172412 37:-0.199998 38:0.0140858 39:-0.534887 40:-0.615384 41:0.0999993 43:-0.76923 44:-0.0303054 45:0.115386 46:0.272728 47:-0.419355 48:-0.625 50:-0.266665 51:0.27273 52:-0.253732 53:-0.150004 54:-0.153847 55:0.125001 57:-0.384615 58:0.0370347 59:-0.460315 60:0.125001 61:0.0322551 62:0.466662 64:-0.586207 65:-0.222223 66:0.301586 67:-0.047623 68:-0.68085 69:-0.68421 71:-0.466667 72:0.142856 73:-0.0540525 75:-0.622221 76:-0.6 78:-0.199997 79:-0.379312 80:0.114754 81:0.058824 82:-0.407409 83:-0.733334 85:-0.428571 86:0.185184 87:-0.133332 88:-0.235295 89:0.307691 90:-0.764707 92:-0.307691 93:-0.0322608 94:2.05714e-06 95:0.0625051 96:-0.310346 97:-0.411767 99:-0.655173 100:0.419355 101:-0.0434775 102:0.121951 103:-0.656248 104:-0.888889 106:-0.5 107:-0.14286 108:0.315069 109:0.454548 110:-0.836362 111:-0.6 113:0.357141 114:-5.84999e-06 115:-0.411764 116:0.243238 117:-0.266668 118:-0.538462 120:0.25 121:0.448272 122:-0.793106 123:0.419355 124:0.279999 125:-0.578946 127:-0.399999 128:0.249996 129:-0.19403 130:-0.567565 131:0.0270261 132:-0.538462 134:-0.142856 135:-0.200001 136:-0.0746277 137:-0.260872 138:-0.254544 139:-0.727274 141:-0.466665 142:0.0499968 143:0.128206 144:-0.0153858 145:-0.681817 146:-0.42857 148:-0.225808 149:0.187506 150:-0.23256 151:-0.243248 152:-0.183673 153:-0.529413 155:-0.225805 156:-0.0370453 157:-0.324677 158:-4.2353e-06 159:-0.0322643 160:-0.333333 162:-0.235296 163:-0.0588245 164:-0.0804595 165:-0.441862 166:-0.179491 167:-0.714285 169:-0.46154 170:0.414636 171:-0.176469 172:0.225806 173:-0.664234 174:-0.545455 
2 1:0.142859 2:0.210525 3:-0.266667 4:-0.155558 5:-0.653062 6:-0.333332 8:-0.212122 9:0.0322564 10:-0.414635 11:-0.179487 12:0.116276 13:0.294113 15:-0.529411 16:-0.56757 17:0.0277796 18:0.297294 19:-0.434784 20:-0.333332 22:-0.187499 23:-0.0555524 24:-0.0602392 25:-0.428569 26:-0.0819676 27:-0.875 29:0.612901 30:-0.100002 31:-0.223881 32:-0.0416661 33:-0.616667 34:-0.333336 36:-0.172412 37:-0.0285721 38:-0.0985912 39:-0.116282 40:-0.846153 41:0.199999 43:-0.846154 44:-0.515148 45:0.115386 46:0.636368 47:-0.354838 48:-0.375 50:-0.333333 51:0.0909063 52:-0.104479 53:7.19999e-07 54:-0.0769198 55:-0.499999 57:-0.615384 58:-0.185184 59:0.492064 60:-0.375003 61:-0.419355 62:-0.733334 64:-0.310346 65:-0.388886 66:0.523808 67:-0.333333 68:-0.765957 69:-0.473683 71:-0.666667 72:0.0285691 73:0.189191 74:0.166664 75:-0.822221 76:-0.4 78:-0.359998 79:0.0344845 80:-0.278692 81:4.2353e-06 82:0.185185 83:-0.600002 85:-0.285713 86:-0.555552 87:0.100001 88:0.117648 89:-0.0769227 90:-0.764707 92:-0.230768 93:-0.290319 94:-0.342858 95:0.375003 96:0.241379 97:-0.176474 99:-0.310346 100:0.161289 101:0.0434775 102:-0.609753 103:-0.593752 104:0.11111 106:-0.555555 107:0.523812 108:0.123285 109:0.40909 110:-0.909091 111:-0.700001 113:-0.499999 114:0.1875 115:-0.176468 116:-0.0810804 117:0.199995 118:-0.538462 120:-0.166666 121:0.172408 122:-0.241382 123:0.354834 124:-0.279999 125:-0.473683 127:-0.199999 128:0.3125 129:-0.61194 130:-0.513515 131:0.459462 132:-0.384615 134:0.142859 135:0.149998 136:-0.0149257 137:-0.086957 138:-0.636364 139:-0.363637 141:-0.399999 142:0.249998 143:0.28205 144:-0.107692 145:-0.80303 146:-0.42857 148:-0.290323 149:0.0625046 150:-0.279072 151:0.243238 152:-0.306125 153:-0.647061 155:-0.225805 156:-0.0370453 157:-0.480519 158:-0.117644 159:0.16129 160:0.222222 162:-0.411766 163:-0.0588245 164:-0.425285 165:0.116276 166:-0.0769261 167:-0.142856 169:0.615377 170:0.121951 171:-0.647058 173:-0.430658 174:-0.272728 
1.095895241127261 1:0.214293 2:-3.03158e-06 3:-0.333334 4:-0.0666685 5:-0.571429 6:-0.42857 8:-0.636364 9:-0.161289 10:0.292683 11:-0.282052 12:-0.255814 13:-0.764707 15:-0.235294 16:-0.351352 17:-0.22222 18:0.405404 19:-0.478259 20:-0.42857 22:-0.75 23:0.222224 24:0.228916 25:-0.285714 26:-0.540982 27:-0.499999 29:0.0967772 30:0.600004 31:-0.55224 32:0.125002 33:-0.683334 34:0.333328 36:-0.172412 37:0.0285754 38:-0.0422527 39:-0.488378 40:-0.564101 41:-0.4 43:-0.307693 44:-0.151518 45:-0.192309 46:0.272728 47:-0.290322 48:-0.375 50:-0.0666654 51:0.0303041 52:-0.373136 53:0.100001 54:0.0769275 55:-0.249999 57:-0.0769198 58:-0.259264 59:-0.301586 60:0.312498 61:-0.225802 62:-0.0666699 64:-0.379311 65:0.277777 66:-0.238098 67:-0.190478 68:-0.489361 69:-0.789473 71:-0.333334 72:0.257142 73:0.0270272 74:-0.388888 75:-0.644445 76:-0.500001 78:0.0400016 79:0.103446 80:-0.344262 81:-0.29412 82:0.259254 83:-0.600002 85:0.357142 86:-0.185184 87:-0.266666 88:-0.647057 89:0.461539 90:-0.411767 92:0.538468 93:-0.419353 94:-0.542857 95:0.312498 96:0.172408 97:-0.0588263 99:0.103447 100:0.419355 101:-0.391306 102:-0.414636 103:-0.34375 104:-0.666667 106:-0.333334 107:1.92e-06 108:-0.20548 109:0.545458 110:-0.70909 111:-0.2 113:-0.0714262 114:-0.249998 115:2.22045e-16 116:0.0270284 117:-0.400001 118:-0.23077 120:-0.583332 121:0.172408 122:0.13793 123:0.225801 124:-0.6 125:-0.473683 127:0.266664 128:-5.84999e-06 129:-0.641788 130:0.135138 131:-0.081083 132:-0.846154 134:-0.357141 135:0.299995 136:0.134327 137:0.391305 138:-0.763637 139:-0.818182 141:-0.266665 142:-0.050004 143:-0.307693 144:-0.138464 145:-0.318182 146:-0.809523 148:-0.161291 149:0.5625 150:-0.441862 151:0.0810789 152:-0.387759 153:-0.411767 155:-0.290322 156:-0.0370453 157:-0.272729 158:0.058824 159:-0.161288 160:-0.333333 162:-0.47059 163:0.705884 164:-0.494252 165:-0.209305 166:-0.128205 167:-0.285715 169:-0.307694 170:-0.560975 171:-0.388234 172:0.032256 173:-0.182482 174:-0.545455 
2 1:0.142859 2:0.368417 3:-0.366665 4:0.2 5:-0.795919 6:-0.42857 8:-0.333334 9:0.548389 10:-0.317073 11:-0.128208 12:-0.116281 13:-0.411767 15:-0.117644 16:-0.0270245 17:-0.500001 18:0.135135 19:-0.217394 20:-0.333332 22:-0.624999 23:0.222224 24:-0.108432 25:0.761906 26:-0.770492 27:-0.875 29:-0.419355 30:0.300001 31:0.0447761 32:0.625 33:-0.899999 34:-0.333336 36:-0.172412 37:-0.0857113 38:0.126763 39:-0.348838 40:-0.717948 41:-0.500001 43:-0.307693 44:-0.393935 45:-2.76923e-06 46:0.454544 47:-0.354838 48:-0.75 50:-0.399999 51:0.151517 52:0.0746264 53:7.19999e-07 54:-0.461539 55:-0.625 57:-0.615384 58:-0.555552 59:0.333335 60:0.125001 61:-0.67742 62:0.0666641 64:-0.379311 65:1.2e-06 66:-0.0476206 67:0.285717 68:-0.808511 69:-0.368418 71:-0.133334 72:0.257142 73:-0.243245 74:0.055552 75:-0.733335 76:-0.2 78:-0.279998 79:-0.103448 80:0.114754 81:-0.058824 82:-0.407409 83:-0.866667 85:-0.499999 86:0.481483 87:0.0666695 88:-0.294115 89:-0.461538 90:-0.529413 92:-0.307691 93:-0.096773 94:0.428571 95:-0.499995 96:-0.310346 97:-1 99:-0.448276 100:-0.032256 101:0.188404 102:-0.0731731 103:-0.75 104:-0.555555 106:-0.388889 107:0.380951 108:-0.397261 109:0.590909 110:-0.781818 111:0.0999993 113:0.142859 114:-0.687496 115:0.176472 116:-0.0810804 117:-0.333334 118:-0.384615 120:-0.916666 121:0.172408 122:0.344829 123:-0.0967772 124:-0.439999 125:-0.368418 127:-0.399999 128:-0.124998 129:0.313434 130:-0.567565 131:-0.72973 132:-0.0769226 134:-0.42857 135:0.249998 136:-0.0149257 137:0.130433 138:-0.690909 139:-1.30909e-06 141:-0.333333 143:-0.333332 144:0.384615 145:-0.757577 146:0.428579 148:-0.290323 149:-0.4375 150:0.348835 151:-0.621625 152:-0.469386 153:-0.529413 155:-0.677419 156:0.481483 157:-0.116883 158:0.29412 159:-0.806452 160:-0.444445 162:-0.82353 163:-0.235292 164:0.425288 165:-0.581394 166:-0.435899 167:-0.857143 169:0.0769202 170:0.121951 171:-0.176469 172:0.258062 173:-0.781021 174:-1.30909e-06 
2 1:0.285717 2:-0.473685 3:-0.233331 4:0.0666691 5:-0.489795 6:-0.619046 8:-0.0909075 9:0.290323 10:-0.268292 11:-0.333338 12:-0.023257 13:-0.411767 15:-0.17647 16:-0.0270245 17:-0.555557 18:-0.135135 19:2.1913e-06 20:-0.0476175 22:-0.25 23:0.277776 24:-0.3253 25:0.285712 26:-0.442624 27:-0.625 29:0.032256 30:0.500003 31:-0.074628 32:-0.0833361 33:-0.716668 34:-0.466668 36:-0.172412 37:-0.142859 38:0.183101 39:-0.255814 40:-0.769231 41:-0.6 43:-0.0769198 44:0.0909075 45:-0.615387 46:0.212117 47:-0.0967694 48:-0.124999 50:-0.199999 51:0.0303041 52:0.0149244 53:0.149998 54:-0.692308 55:-0.499999 57:-1.66154e-06 58:0.259264 59:-0.238094 60:0.125001 61:-0.419355 62:-0.600002 64:0.31034 65:0.277777 66:-0.777778 67:0.142855 68:-0.617022 69:-0.157891 71:-0.6 72:0.142856 73:0.108107 74:0.388888 75:-0.888889 76:-0.500001 78:-0.119998 79:0.37931 80:-0.47541 81:-0.35294 82:0.0370357 83:0.199996 85:-0.285713 86:-0.111115 87:-0.0666647 88:-0.294115 89:0.076925 90:-0.29412 92:6.09232e-06 93:0.290328 94:-0.485714 95:-0.125001 96:0.31034 97:-0.176474 99:-0.103449 100:-0.0967772 101:-0.0724653 102:-0.219512 103:-0.625 104:-0.11111 106:-0.055552 107:0.285712 108:-0.287671 109:-1.30909e-06 110:-0.618181 111:-0.300001 113:0.142859 114:0.062499 115:-0.70588 116:0.351347 117:0.133333 118:0.0769226 120:-0.0833334 121:0.0344756 122:-0.206896 123:-0.290322 124:0.0400021 125:0.157899 127:-0.333333 128:0.1875 129:-0.283581 130:-0.0810796 131:-0.405402 132:-0.23077 134:-0.285713 135:0.550001 136:-0.343285 137:0.304348 138:-0.618181 139:-0.454546 141:0.0666673 142:0.0499968 143:-0.307693 144:0.0769248 145:-0.651514 146:-0.0476175 148:-0.612903 149:0.125001 150:0.279069 151:-0.567566 152:-0.469386 153:-0.764707 155:-0.48387 156:0.0370347 157:-0.298701 158:0.117644 159:-0.225809 162:-0.64706 163:0.0588236 164:0.195405 165:-0.581394 166:-0.384613 167:-0.714285 169:0.46153 170:0.0243887 171:-0.411765 173:-0.518248 174:-0.272728 
2 1:-0.357141 2:0.473681 3:-0.2 4:0.111111 5:-0.816326 6:-0.142855 8:-0.272729 9:0.483868 10:-0.0243911 11:-0.692312 12:-0.023257 13:-0.764707 15:0.176472 16:0.0810845 17:-0.527777 18:-0.459462 19:0.217392 20:-0.809523 22:0.125001 23:0.166664 24:-0.518073 25:0.190473 26:-0.27869 27:-0.499999 29:0.0967772 30:0.0500025 31:-0.194028 32:0.166666 33:-0.666666 34:-0.0666699 36:-0.448275 37:-0.0285721 38:0.295774 39:-0.441862 40:-0.717948 41:-0.6 43:0.0769275 44:-0.515148 45:-0.192309 46:0.454544 47:-0.225803 48:-0.75 50:-0.333333 51:0.212119 52:-0.0447775 53:0.0499974 54:-0.307693 55:-0.75 57:-0.307693 58:-0.481483 59:0.142857 60:0.125001 61:-0.67742 62:0.199996 64:-0.24138 65:0.0555531 66:-0.238098 67:-0.285717 68:-0.446808 69:-0.578946 71:-0.200001 72:0.0857165 73:-0.162161 74:-0.055552 75:-0.6 76:-0.500001 78:-0.439999 79:0.0344845 80:0.344262 81:-0.411768 82:-0.555557 83:-0.733334 85:-0.428571 86:0.333333 87:-0.199999 88:-0.117648 89:0.076925 90:-0.647061 92:-0.0769211 93:0.548386 94:-0.428571 95:0.0625051 96:-0.24138 97:-0.176474 99:0.103447 100:-0.22581 101:-0.478261 102:-0.365852 103:-0.0937479 104:-0.222222 106:-0.277778 107:0.0476179 108:-0.068495 109:-1.30909e-06 110:-0.600001 111:-0.300001 113:-0.499999 114:0.124995 115:0.264706 116:-0.0810804 117:-0.6 118:-0.846154 120:-0.25 121:-0.103456 122:-0.0344831 123:0.032256 124:-0.119999 125:-0.263156 127:0.200002 128:-0.5 129:-0.19403 130:-0.0270291 131:-0.297293 132:-0.692308 134:0.214293 135:-0.1 136:-0.373134 137:0.0869576 138:-0.41818 139:-0.363637 141:-0.133332 142:0.149997 143:-0.0256412 144:-0.0461531 145:-0.651514 146:-0.619046 148:-0.35484 149:-0.187498 150:0.046512 151:-0.243248 152:-0.346939 153:-0.529413 155:-0.290322 156:-0.0370453 157:0.0389586 158:-4.2353e-06 159:-0.612905 160:-0.777778 162:-0.411766 163:0.0588236 164:-0.149424 165:-0.302329 166:-0.23077 167:-0.428571 169:0.153847 170:0.0731731 171:-0.317647 172:-0.0967772 173:-0.50365 174:-0.181819 
2 1:-0.0714262 2:0.473681 3:-0.366665 4:-0.11111 5:-0.632652 6:-0.42857 8:-0.454546 9:0.0967683 10:0.14634 11:0.0256431 12:-0.534884 13:-0.882353 15:-0.235294 16:0.135135 17:-0.472221 18:0.189185 19:-0.304351 20:-0.42857 23:0.222224 24:-0.349398 25:-0.190475 26:-0.311475 27:-0.124999 29:-0.225808 30:0.55 31:-0.104477 32:0.0416679 33:-0.716668 34:-0.333336 36:-0.448275 37:0.200001 38:-0.211268 39:-0.348838 40:-0.487179 41:-0.300001 43:-0.846154 44:0.0303054 45:0.384616 46:-0.212126 47:-0.354838 48:-0.625 50:-0.133332 51:-0.393937 52:0.0149244 53:0.100001 54:-0.153847 55:-0.499999 57:-0.230769 58:-0.555552 59:0.015872 60:-0.125001 61:-0.0967782 62:0.0666641 64:0.172418 65:0.444441 66:-0.619049 67:0.142855 68:-0.659575 69:-0.578946 71:-0.733334 72:0.257142 73:0.324325 74:-0.166664 75:-0.888889 76:-0.300001 78:-0.439999 79:-0.103448 80:0.0491796 81:-0.176472 82:-0.259261 83:-0.333336 85:-0.571427 86:0.185184 87:-0.0333336 88:-0.0588195 89:-0.307691 90:-0.29412 92:0.153854 93:-0.0322608 94:-0.171428 95:-0.0624961 96:-0.103446 97:-0.529413 99:-0.586207 100:0.354834 101:-0.130437 102:0.317074 103:-0.84375 104:-0.333333 106:-0.611111 107:0.666667 108:-0.0958905 109:0.363638 110:-0.800001 111:-0.6 113:-0.42857 114:0.437501 115:-0.38235 116:0.0270284 117:-0.0666637 118:0.0769226 120:-0.583332 121:-0.103456 122:0.448275 123:-0.290322 124:-0.279999 125:-0.578946 127:-0.199999 128:-0.124998 129:0.283581 130:-0.783783 131:-0.459459 132:-0.538462 134:-0.285713 135:3.6e-07 136:-0.0447746 137:0.739134 138:-0.727273 139:-0.727274 141:-0.466665 142:0.349999 143:0.153845 144:0.0153858 145:-0.772727 146:-0.619046 148:-0.225808 149:0.250002 150:-0.139536 151:0.0270284 152:-0.632654 153:-0.411767 155:-0.16129 156:-0.259264 157:-0.324677 158:0.235292 159:-0.548388 160:0.333333 162:-0.294119 163:0.117652 164:-0.264366 165:-0.023257 166:-0.538462 167:-0.142856 169:-0.692308 170:-0.317073 171:-0.529412 172:0.677417 173:-0.48905 174:0.0909071 
0.3799638960381229 1:-0.0714262 2:-3.03158e-06 3:-0.0333343 4:0.0666691 5:-0.673469 6:-0.714286 8:-0.636364 9:-0.22581 10:0.365852 11:-0.0769219 12:-0.581395 13:-0.647061 15:-0.764706 16:-0.189192 17:0.25 18:0.243244 19:-0.695652 20:-0.714286 22:-0.437499 23:0.333336 24:-0.277107 25:0.571429 26:-0.639345 27:-0.625 29:-0.290323 30:-1.584e-06 31:0.432837 32:-2.1e-06 33:-0.733333 34:-0.866667 36:-0.586206 37:-0.142859 38:0.239436 39:-0.16279 40:-0.743592 41:-0.500001 43:-0.538462 44:-0.0909075 45:-2.76923e-06 46:0.212117 47:-0.290322 48:-0.625 50:-0.266665 51:0.212119 52:-0.313434 53:-0.150004 54:0.153846 55:1.8e-06 57:-0.230769 58:-0.555552 59:0.0793646 60:-0.125001 61:-0.16129 62:-0.0666699 64:-0.310346 65:0.0555531 66:0.523808 67:-0.809529 68:-0.659575 69:-0.789473 71:-0.333334 72:0.428568 73:-0.405405 74:0.333336 75:-0.733335 76:-0.100001 78:-0.359998 79:0.103446 80:-0.213118 81:-0.058824 82:-0.111113 83:-0.333336 85:-0.357142 86:0.111115 87:0.0666695 88:-0.294115 89:-0.384615 90:-0.29412 92:-0.0769211 93:0.161295 94:-0.400001 95:0.187506 96:-0.034485 97:-0.176474 99:0.103447 100:-0.22581 101:-0.304347 102:-0.121951 103:-0.468751 104:-0.11111 106:-0.055552 107:-0.428571 108:-0.178081 109:-0.181821 110:-0.272728 111:-0.700001 113:-0.357141 114:-0.312503 115:-0.058824 116:0.135137 117:-1.44e-06 118:-0.384615 120:-0.583332 121:-0.241379 122:0.310343 123:0.161289 124:-0.359998 125:-0.578946 127:0.333337 128:-0.312503 129:-0.313434 130:-0.13513 131:-0.243243 132:-0.692308 134:-0.357141 135:0.100001 136:0.0447763 137:0.130433 138:-0.563636 139:-0.636364 141:-0.466665 142:-0.8 143:-0.692308 144:-0.107692 145:0.151515 146:-0.714286 148:-0.483871 149:0.437499 150:-0.325584 151:-0.0270299 152:-0.183673 153:-0.529413 155:-0.677419 156:-0.407413 157:0.142856 158:-0.470588 159:0.0322569 160:-0.222222 162:-0.47059 163:3.81177e-06 164:-0.379311 165:0.255815 166:-0.23077 167:-0.428571 169:-0.384616 170:-0.121951 171:0.0117639 172:0.193545 173:-0.576642 174:-0.818182 
2 1:-0.714285 2:0.315789 3:0.366669 4:0.2 5:-0.897959 6:-0.809523 8:-0.454546 9:0.548389 10:-0.146342 11:-0.179487 12:-0.395346 13:-0.176474 15:-0.235294 16:-0.135134 17:-0.444445 18:0.405404 19:-0.173912 20:-0.714286 22:-0.25 23:-4e-07 24:0.0361437 25:-0.142859 26:-0.475408 27:-0.625 29:-0.483871 30:0.2 31:0.283584 32:0.416668 33:-0.833334 34:-0.866667 36:-0.51724 37:-0.199998 38:0.323946 39:-0.116282 40:-0.948718 41:-0.100001 43:-0.538462 44:-0.333333 45:0.192304 46:0.212117 47:-0.419355 48:-0.499999 50:-0.0666654 51:0.27273 52:-0.522389 53:-0.0500032 54:0.307693 55:-0.124999 57:-0.230769 58:-0.0370347 59:-0.0793646 60:-0.312498 61:-0.0322569 62:-0.200002 64:-0.0344835 65:-0.388886 66:0.047616 67:0.0476161 68:-0.744682 69:-0.263156 71:-0.266668 72:0.314281 73:-0.162161 74:0.444448 75:-0.8 76:-0.8 78:0.120008 79:-0.24138 80:-0.344262 81:-0.058824 82:-0.185183 83:0.199996 85:0.285718 86:-0.481483 87:-0.333333 88:-0.176467 89:0.076925 90:0.0588195 92:0.0769244 93:-0.0322608 94:-0.285715 95:0.250002 96:-0.103446 97:-0.529413 99:-0.517242 100:0.483867 101:-0.275363 102:-0.170728 103:-0.625 104:0.222222 106:-0.222222 107:-0.047621 108:-0.178081 109:0.181818 110:-0.600001 111:-0.2 113:-0.142856 114:-0.249998 115:0.0294141 116:-0.0270299 117:-0.199998 118:-0.538462 120:-0.25 121:0.586204 122:-0.413795 123:-0.032256 124:-0.199994 125:0.0526345 127:-0.666666 128:-0.187502 129:0.0149244 130:0.243247 131:-0.621621 132:-0.384615 134:0.214293 135:-0.1 136:-0.402987 137:0.130433 138:-0.4 139:-0.454546 141:-0.199999 142:0.200001 143:-0.25641 144:0.261537 145:-0.727273 146:-0.238093 148:-0.67742 149:-0.0624965 150:0.232557 151:-0.0810804 152:-0.591838 153:-0.764707 155:-0.741935 156:0.111104 157:0.168832 158:-0.117644 159:-0.612905 160:-0.555555 162:-0.764706 163:0.176472 164:-0.0804595 165:-0.302329 166:-0.128205 167:-0.571429 169:-0.153848 170:0.365852 171:-0.435293 172:0.129033 173:-0.547445 174:-0.272728 
0.6442185207993518 1:-0.0714262 2:0.157897 3:-0.166669 4:-0.11111 5:-0.612245 6:-0.523809 8:-0.878788 9:0.0967683 10:0.512195 11:-0.333338 12:-0.813953 13:-0.29412 15:-0.470588 16:0.0810845 17:-0.194444 18:0.0270253 19:-0.434784 20:-0.333332 22:-0.312499 23:0.222224 24:0.0361437 25:-0.142859 26:-0.540982 27:-0.75 29:-0.225808 30:0.300001 31:-0.074628 32:0.166666 33:-0.716668 34:-0.200002 36:-0.51724 37:-0.0285721 38:0.126763 39:-0.30233 40:-0.641027 41:-0.500001 43:-0.76923 44:-0.0909075 45:-2.76923e-06 46:0.272728 47:-0.48387 48:1.8e-06 50:-0.199999 51:-0.151511 52:-0.0746264 53:-0.0999999 54:0.153846 55:-0.499999 57:-0.76923 58:0.703701 59:-0.333335 60:1 61:-0.741935 62:-0.866667 64:-0.103449 65:1.2e-06 66:-0.0793646 67:-0.238094 68:-0.638297 69:-0.368418 71:-0.6 72:0.371429 73:-1.94595e-06 75:-0.8 76:-0.2 78:0.0400016 79:0.103446 80:-0.278692 81:-0.529408 82:0.111105 83:-0.0666699 85:0.142859 86:-0.111115 87:-0.566666 89:0.076925 90:0.176465 92:-0.230768 93:0.612908 94:-0.342858 95:0.0625051 96:0.034486 97:-0.882353 99:-0.517242 100:-0.032256 101:-0.0144939 102:0.0731731 103:-0.625 104:-0.444445 106:-0.166664 107:0.285712 108:-0.31507 109:0.40909 110:-0.70909 111:-0.4 113:-0.0714262 114:0.249996 115:-0.441174 116:0.0810789 117:-0.0666637 118:-0.0769226 120:-0.583332 121:-0.0344855 122:-0.172416 123:0.612901 124:-0.439999 125:-0.0526284 127:-0.199999 128:0.562493 129:-0.373132 130:-0.837833 131:-0.135134 132:0.384615 134:0.142859 135:0.149998 136:-0.462684 137:-0.0434752 138:-0.527272 139:0.363639 141:-0.266665 142:0.249998 143:0.0512806 144:0.323076 145:-0.863637 146:-0.714286 148:-0.35484 149:0.187506 150:-0.093024 151:-0.0810804 152:-0.428572 153:-0.647061 155:-0.0322581 156:-0.185184 157:-0.428574 158:0.35294 159:-0.290321 160:-0.222222 162:-0.529413 163:0.529416 164:-0.264366 165:-0.023257 166:-0.487178 167:-0.714285 169:0.538459 170:0.121951 171:-0.529412 172:0.0967725 173:-0.48905 174:-0.545455 
2 1:0.571434 2:-0.368423 3:-0.0666655 4:-0.244448 5:-0.653062 6:-0.238093 8:-0.636364 9:0.16129 10:0.268294 11:-0.384617 12:-0.395346 13:-0.647061 15:0.176472 16:-0.405402 17:-0.472221 18:0.459462 19:-0.391302 20:-0.42857 22:-0.75 23:0.0555596 24:0.277109 25:0.190473 26:-0.770492 27:-0.75 29:-0.741936 30:0.400002 31:-0.074628 32:0.291664 33:-0.666666 34:-0.200002 36:-0.103447 37:0.142854 38:-0.211268 39:-0.395354 40:-0.564101 41:-0.300001 43:-0.384615 44:0.0303054 45:-0.115386 46:0.393942 47:-0.48387 48:-0.75 50:-0.466665 51:0.0909063 52:0.0746264 53:-0.0999999 54:-0.230769 55:-0.499999 57:-0.692308 58:0.185184 59:-0.0476206 60:0.187497 61:-0.0967782 62:-0.866667 64:-0.24138 65:1.2e-06 66:-0.20635 67:-0.142855 68:-0.68085 69:0.263162 71:-0.133334 72:0.314281 73:-0.567568 74:-0.111112 75:-0.444445 76:-0.100001 78:0.200003 79:-0.310341 80:0.0491796 81:-0.29412 82:-0.185183 83:-0.866667 85:-0.642857 86:-0.259253 87:0.333333 88:-0.117648 89:-0.538461 90:-0.29412 92:-0.846153 93:0.225807 94:0.457145 95:-0.437499 96:-0.586207 97:-0.529413 99:-0.379311 100:0.0967772 101:-0.275363 102:-0.0243887 103:-0.531251 106:-0.111112 107:0.523812 108:-0.479451 109:-0.136363 110:-0.436364 111:-0.700001 113:-0.571427 114:-0.374999 115:0.205882 116:0.243238 117:-0.533334 118:-0.23077 120:-0.416667 121:0.448272 122:0.0344831 123:-0.161289 124:-0.519999 125:-0.263156 127:-0.399999 128:-0.124998 129:-0.432834 130:0.135138 131:-0.297293 132:0.53846 134:-0.642857 135:0.499997 136:0.0149274 137:3.13044e-07 138:-0.618181 139:-0.363637 141:-0.599999 142:0.399996 143:-0.25641 144:0.107692 145:-0.681817 146:0.142859 148:0.161289 149:-0.125002 150:-0.348838 151:-0.189189 152:-0.102039 153:-0.411767 155:-0.870968 156:0.333333 157:0.0649347 158:0.235292 159:-0.67742 160:-0.777778 162:-0.764706 163:-0.470589 164:0.195405 165:0.2093 166:-0.692308 167:-0.714285 169:-2.21538e-06 170:0.560975 171:-0.129414 172:0.0967725 173:-0.751824 174:-0.636364 
1.361501712505317 1:-0.571427 2:-0.526316 3:-0.666665 4:-0.0666685 5:0.102042 6:-0.619046 8:-0.393941 9:0.0322564 10:-0.219511 11:0.58974 12:-0.395346 13:-0.764707 15:-0.17647 16:0.189194 17:-0.694445 18:0.081076 19:2.1913e-06 20:-0.333332 22:0.125001 23:0.388888 24:-0.710842 25:-0.142859 26:-0.0491829 27:1.8e-06 29:-0.806452 30:-0.499999 31:-0.582089 32:-0.375002 33:0.283333 34:-0.866667 36:-0.448275 37:-0.314285 38:-0.718311 39:-0.441862 40:0.230767 41:-0.2 43:-0.230769 44:-0.0303054 45:-0.269233 46:-0.151515 47:0.0967759 48:-0.375 50:0.333337 51:0.151517 52:-0.761197 53:0.100001 54:0.538458 55:-0.375 57:-0.461539 58:-0.111115 59:-0.238094 61:0.0967764 62:0.0666641 64:-0.24138 65:-0.333334 66:-0.968256 67:-0.190478 68:0.191489 69:-0.789473 71:-0.400001 72:-0.257143 73:-0.675677 74:-0.333336 75:0.0222238 76:-1.44e-06 78:-0.119998 79:0.241378 80:-0.5082 81:4.2353e-06 82:0.111105 83:-0.333336 85:0.0714349 86:-0.0370347 87:-0.499999 88:-0.47059 89:0.461539 90:0.294113 92:-0.384614 93:0.225807 94:-0.142858 95:-0.187497 96:-0.24138 97:0.176465 99:-0.310346 100:-0.354844 101:-0.942029 102:0.0731731 103:0.4375 104:-0.444445 106:-0.722222 107:-0.714286 108:-0.260275 109:-0.318182 110:0.181818 111:-0.8 113:-0.214284 114:0.374996 115:-0.441174 116:0.135137 117:-0.133336 118:-0.0769226 120:-0.5 121:0.103447 122:-0.206896 123:0.548389 124:-0.359998 125:-0.263156 127:-0.333333 128:0.124995 129:-0.253732 130:-0.0270291 131:-0.513513 132:-0.0769226 134:-0.928571 135:-0.7 136:-0.462684 137:-0.43478 138:0.49091 139:-1 141:-0.599999 142:0.45 143:-0.0512843 144:0.292309 145:-0.89394 146:0.0476216 148:-0.290323 149:-0.187498 150:-0.209302 151:0.297297 152:-0.224492 153:-0.882353 155:-0.419355 156:0.481483 157:-0.480519 158:-4.2353e-06 159:-0.0322643 160:-0.11111 162:-0.411766 163:0.529416 164:-0.678159 165:0.488372 166:-0.23077 167:-0.714285 169:-0.307694 170:0.121951 171:0.0588231 172:0.225806 173:-0.751824 174:-0.545455 
0.202075296421292 1:-0.499999 2:0.315789 3:-0.266667 4:0.466669 5:-0.734692 6:-0.619046 8:-0.69697 9:-0.0322555 10:0.365852 11:-0.0769219 12:-0.627907 13:-0.764707 15:0.235292 16:-0.405402 17:-0.388889 18:-0.513513 19:2.1913e-06 20:0.0476216 22:-0.124999 23:0.222224 24:-0.3253 25:0.0952412 26:-0.377049 27:-0.499999 29:-0.419355 30:0.700005 31:0.104478 32:0.0833319 33:-0.833334 34:-0.466668 36:-0.0344778 37:-0.142859 38:-0.183097 39:-0.116282 40:-0.692309 41:-0.100001 43:-0.538462 44:0.21212 45:-0.15385 46:0.0909123 47:-0.290322 48:-0.499999 50:0.0666673 51:-0.272724 52:-0.253732 53:-0.0500032 54:-0.153847 55:0.375002 57:-0.384615 58:-0.111115 59:0.111113 60:-0.437499 61:-0.0322569 62:-0.333336 64:-0.310346 65:-0.166671 66:0.301586 67:-0.333333 68:-0.723404 69:-0.368418 71:-0.333334 72:0.485715 73:-0.324325 74:-0.055552 75:-0.733335 76:0.199999 78:-0.199997 79:0.103446 80:-0.213118 81:-0.411768 82:-0.0370336 83:0.0666641 85:-0.214284 86:0.0370347 87:0.0666695 88:-0.294115 89:-0.461538 90:-0.29412 92:-0.153844 93:0.225807 94:-0.285715 95:-0.250002 96:0.31034 97:-0.411767 99:-0.0344835 100:0.419355 101:-0.130437 102:-0.463413 103:-0.687501 104:-0.11111 106:-0.444445 107:-0.047621 108:-0.178081 109:0.590909 110:-0.636365 111:-0.500001 113:0.142859 114:-0.187502 115:-0.264706 116:0.135137 117:-0.266668 118:-0.0769226 120:-0.166666 121:-0.241379 122:0.0689637 123:0.161289 124:-0.439999 125:-0.263156 127:0.466671 128:0.062499 129:-0.850747 130:0.189188 131:-0.243243 132:-0.0769226 134:-0.499999 135:0.299995 136:-0.0149257 137:-0.0434752 138:-0.472728 139:-0.727274 141:-0.333333 142:0.100001 143:-0.0512843 144:0.323076 145:-0.727273 146:-0.809523 148:-0.67742 149:-0.187498 150:0.255814 151:-0.135139 152:-0.510205 153:-0.764707 155:-0.741935 156:0.111104 157:0.194804 158:0.176472 159:-0.935484 160:-0.666667 162:-0.82353 163:-0.117644 164:0.425288 165:-0.674418 166:-0.435899 167:-0.857143 169:-0.538462 170:-0.0731731 171:0.0588231 172:0.161289 173:-0.635037 174:-0.454546 
0.4161958065565021 1:-0.642857 2:0.263153 3:-0.466669 4:0.466669 5:-0.612245 6:-0.333332 8:-0.878788 9:0.290323 10:0.268294 11:-0.230773 12:-0.395346 13:-0.764707 15:-0.882353 16:-0.189192 17:0.0555556 18:0.621622 19:-0.652174 20:-0.619046 22:-0.8125 23:-0.333337 24:0.54217 25:-0.142859 26:-0.606558 27:-0.875 29:-0.35484 30:-0.149999 31:0.104478 32:0.541666 33:-0.7 34:-0.866667 36:-0.37931 37:-0.199998 38:-0.126758 39:0.023251 40:-0.589744 41:-0.4 43:-0.307693 44:-0.0909075 45:-0.384616 46:0.454544 47:-0.161291 48:-0.499999 50:-0.199999 51:-0.333335 52:0.31343 53:-0.300001 54:-0.384615 55:-0.375 57:-0.153847 58:-0.333333 59:0.0793646 60:-0.187497 61:-0.225802 62:-0.333336 64:-0.517242 65:-0.499998 66:0.714286 67:-0.0952391 68:-0.808511 69:-0.894737 71:-0.200001 72:0.314281 73:-0.243245 74:-0.055552 75:-0.622221 76:-0.500001 78:-0.279998 79:0.37931 80:-0.704918 81:0.647056 82:-0.185183 83:-0.466668 85:-0.428571 86:0.111115 87:0.233335 88:-0.647057 89:-0.0769227 90:-0.529413 92:-0.230768 93:0.225807 94:-0.285715 95:-0.187497 96:0.241379 97:-0.29412 99:-0.0344835 100:-0.419355 101:-0.275363 102:-0.0731731 103:-0.374998 104:-0.11111 106:-0.388889 107:0.0476179 108:0.0136993 109:0.22727 110:-0.672726 111:-0.500001 113:0.142859 114:-0.187502 115:-0.617646 116:0.621623 117:-1.44e-06 118:-0.23077 120:-0.583332 121:0.103447 122:-0.13793 123:0.548389 124:-0.279999 125:-0.473683 127:-0.599999 128:0.3125 129:-0.522389 130:0.135138 131:-0.081083 132:-0.23077 134:-0.642857 135:-0.150004 136:0.16418 137:-0.0434752 138:-0.363636 139:-0.818182 141:-1 142:-0.65 143:-0.487179 144:-0.169231 145:0.136364 146:-0.714286 148:-0.741936 149:0.437499 150:-0.23256 151:0.0270284 152:-0.306125 153:-0.29412 155:-0.741935 156:-0.259264 157:0.0389586 158:0.470588 159:-0.548388 160:-0.666667 162:-0.82353 163:0.176472 164:-0.448275 165:0.720928 166:-0.384613 167:-0.571429 169:-0.692308 170:-0.658536 171:-0.529412 172:-0.258066 173:0.182482 174:-0.818182 
0.1237458735997926 1:-0.642857 2:-0.105267 3:0.433331 4:0.2 5:-0.857143 6:-0.523809 8:-0.515152 9:-0.161289 10:1.05366e-06 11:0.230766 12:-0.441862 13:-0.29412 15:-0.647058 16:0.0810845 17:-0.277777 18:0.081076 19:-0.304351 20:-0.142855 22:-0.624999 23:0.388888 24:-0.0361444 25:-0.0952364 26:-0.475408 27:-0.499999 29:-0.548388 30:0.449999 31:0.253731 32:0.125002 33:-0.833334 34:-0.333336 36:-0.51724 37:0.257141 38:0.183101 39:-0.441862 40:-0.717948 41:-0.6 43:-0.384615 44:-0.333333 45:0.307692 46:-0.636368 47:0.0322546 48:-0.249999 50:-0.199999 51:0.151517 52:-0.313434 53:-0.250004 54:0.692305 55:-0.625 57:-0.692308 58:-0.777781 59:0.587301 61:-0.483871 62:-0.600002 64:-0.724138 65:0.0555531 66:0.015872 67:0.571428 68:-0.808511 69:-0.789473 71:-0.0666644 72:0.371429 73:-0.567568 74:0.388888 75:-0.666666 76:-0.2 78:-0.359998 79:0.0344845 80:-0.114754 81:-0.176472 82:-0.111113 83:-0.333336 85:5.14287e-07 86:-0.0370347 87:-0.433332 88:0.117648 89:-0.384615 90:0.294113 92:-0.307691 93:-0.290319 94:-0.0571413 95:0.187506 96:0.034486 97:-0.529413 99:-0.0344835 100:-0.741936 101:-0.681159 102:0.0243887 103:0.187502 104:-0.222222 106:-0.166664 107:-0.238092 108:-0.561645 109:0.363638 110:-0.454545 111:0.299999 113:0.142859 114:-0.0625017 115:-0.38235 116:-0.0810804 117:0.0666608 118:0.0769226 120:-0.583332 121:-0.172418 122:0.172416 123:0.354834 124:-0.519999 125:-0.368418 127:-0.8 128:0.1875 129:-0.104475 130:0.0270291 131:-0.459459 132:-0.23077 134:-0.571427 135:-0.75 136:-0.55224 137:-0.391304 138:0.345454 139:-0.454546 141:-0.266665 143:0.205128 144:0.0153858 145:-0.833334 146:-0.0476175 148:0.225801 149:0.312498 150:-0.744189 151:0.459456 152:-0.265306 153:-0.29412 155:-0.48387 156:-0.111115 157:-0.22078 158:0.176472 159:-0.161288 160:-0.333333 162:-0.47059 163:0.0588236 164:-0.218388 165:-0.0697656 166:-0.23077 167:-0.571429 169:-1 170:-0.853659 171:-0.599999 172:-0.548388 173:0.50365 174:-1 
1.28444677056146 1:2.05715e-06 2:0.210525 3:-0.299998 4:0.28889 5:-0.795919 6:-0.333332 8:-0.212122 9:0.0322564 10:0.0731706 11:-0.282052 12:-0.348838 13:-0.647061 15:-0.294118 16:-0.0270245 17:-0.305557 18:-0.0810838 19:-0.260869 20:-0.238093 22:-0.6875 23:0.277776 24:0.0843368 25:0.238096 26:-0.639345 27:-1 29:-0.290323 30:0.250004 31:-0.0447748 32:0.208336 33:-0.733333 34:-0.0666699 36:-0.241378 37:0.142854 38:-0.126758 39:-0.395354 40:-0.641027 41:-0.100001 43:-1.66154e-06 44:-0.151518 45:-0.230768 46:0.212117 47:-0.290322 48:-0.625 50:-0.733333 51:-0.51515 52:0.910445 53:-0.250004 54:-0.846154 55:-0.875 57:-0.692308 58:-0.407403 59:0.20635 60:-0.125001 61:-0.16129 62:-0.0666699 64:-0.103449 65:-0.555557 66:0.396823 67:-0.142855 68:-0.829786 69:-0.157891 71:-0.200001 72:0.71428 73:-0.486488 74:-0.111112 75:-0.622221 76:-0.2 78:-0.0399935 79:-0.24138 80:-0.245902 81:0.117644 82:-0.259261 83:-0.200002 85:-0.785714 86:0.259264 87:0.300002 88:-0.235295 89:-0.615384 90:-0.411767 92:-0.692307 93:0.290328 94:0.600001 95:-0.499995 96:-0.862069 97:-0.882353 99:-0.103449 100:0.354834 101:-0.391306 102:-0.414636 103:-0.437498 104:0.11111 106:-0.277778 107:0.285712 108:-0.232876 109:0.136367 110:-0.618181 111:-0.4 113:-0.499999 114:-0.562505 115:0.676474 116:-0.513516 117:-0.466667 118:-0.384615 120:-0.749999 121:0.0344756 122:0.586208 123:-0.741934 124:-0.279999 125:-0.263156 127:-0.199999 128:0.062499 129:-0.0746264 130:-0.567565 131:-0.351352 132:-0.0769226 134:-0.285713 135:0.200002 136:-0.373134 137:0.0869576 138:-0.527272 139:0.272725 141:-0.533333 142:0.45 143:-0.435897 144:0.292309 145:-0.636364 146:-0.238093 148:-0.419355 149:0.437499 150:-0.348838 151:0.243238 152:-0.346939 153:-0.647061 155:-0.419355 156:0.333333 157:-0.142859 158:0.058824 159:-0.612905 160:-0.444445 162:-0.529413 163:-0.117644 164:-0.287356 165:0.255815 166:-0.23077 167:-0.571429 169:-0.153848 170:0.121951 171:-0.294119 172:0.258062 173:-0.751824 174:0.545458 
0.3981561580233046 1:-0.571427 2:0.210525 3:-0.266667 4:-0.0666685 5:-0.448979 6:-0.523809 8:-0.454546 9:-0.290322 10:-0.0487798 11:0.0256431 12:-0.023257 13:-0.529413 15:-0.294118 16:-0.513511 17:-0.22222 18:0.297294 19:-0.173912 20:-0.523809 22:-0.499999 23:-0.444441 24:-0.0120495 25:-0.0476205 26:-0.114757 27:-0.499999 29:-0.741936 30:0.150003 31:-0.283583 32:0.666664 33:-0.599999 34:-0.333336 36:-0.724138 37:-0.0285721 38:0.295774 39:-0.209306 40:-0.666666 41:-0.9 43:-0.538462 44:0.0303054 45:-0.0384619 46:-0.212126 47:0.0322546 48:-0.499999 50:-0.533333 51:0.0909063 52:-0.462687 53:0.599997 54:-0.153847 55:1.8e-06 57:-0.384615 58:-0.555552 59:0.0793646 60:0.375003 61:-0.225802 62:-0.733334 64:-0.379311 65:1.2e-06 66:0.047616 68:-0.723404 69:-0.473683 71:-0.733334 72:-0.02857 73:0.162161 74:0.333336 75:-0.733335 76:-0.8 78:-0.439999 79:0.310349 80:-0.47541 81:0.176472 82:0.185185 83:-0.600002 85:-0.785714 86:-0.111115 87:0.166668 88:0.0588195 89:-0.230768 90:-0.529413 92:-0.615384 93:-0.096773 94:0.171428 95:-0.250002 96:0.241379 97:-0.882353 99:-0.310346 100:-0.419355 101:-0.362318 102:0.463413 103:-0.34375 104:-0.666667 106:-0.666666 107:-0.428571 108:-0.287671 109:-0.318182 110:0.0545451 111:-0.700001 113:-0.571427 114:-0.124998 115:2.22045e-16 116:0.243238 117:-0.0666637 118:-0.846154 120:-1 121:-0.31035 122:0.275862 123:0.483867 124:-0.279999 125:-0.473683 127:-0.333333 128:-0.437504 129:-0.0746264 130:-0.297297 131:0.0810845 132:-0.538462 134:-0.714285 135:-0.349998 136:0.0746295 137:0.304348 138:-0.345455 139:-0.909091 141:-1 142:-0.6 143:-0.46154 144:-0.415387 145:0.242425 146:-0.809523 148:0.161289 149:-0.374995 150:-0.465117 151:-0.0810804 152:0.0204074 153:0.0588195 155:-0.48387 156:0.111104 157:-0.350649 158:0.117644 159:-0.35484 160:0.333333 162:-0.64706 163:0.235292 164:-0.310343 165:-0.255814 166:-0.0769261 167:0.142858 169:-0.923077 170:-0.365853 171:-0.411765 172:0.0967725 173:-0.153284 174:-0.454546 
2 1:-0.571427 2:-3.03158e-06 3:0.1 4:0.422221 5:-0.816326 6:-0.523809 8:-0.636364 9:0.225801 10:0.0243897 11:0.538461 12:-0.813953 13:-0.647061 15:-0.352941 16:-0.243243 17:-0.250001 18:-0.0810838 19:2.1913e-06 20:-0.523809 22:-0.124999 23:0.611112 24:-0.518073 25:2.4e-06 26:-0.344265 27:-0.249999 29:0.032256 30:0.2 31:-0.194028 32:0.291664 33:-0.783332 34:0.199996 36:-0.862069 37:0.0285754 38:0.0704244 39:0.16279 40:-0.743592 41:-0.500001 43:-0.846154 44:-0.0909075 45:0.423075 46:-0.212126 47:-0.48387 48:-0.249999 50:-0.733333 51:-0.0303068 52:0.402985 53:0.0499974 54:-0.76923 55:-0.625 57:-0.461539 58:-0.333333 59:-0.269842 60:0.874999 61:-0.483871 62:-0.0666699 64:-0.448276 65:0.222217 66:0.396823 67:-0.476195 68:-0.808511 69:-0.473683 71:-0.533333 72:0.199995 73:0.0540525 74:0.222224 75:-0.8 76:-0.6 78:-0.519998 79:0.172417 80:0.409836 81:-0.529408 82:-0.703704 83:-0.600002 85:-0.428571 86:-0.0370347 87:-0.199999 88:-0.0588195 89:6.64617e-06 90:-0.0588263 92:-0.53846 93:-0.161295 94:0.314284 95:-0.187497 96:-0.379311 97:-0.529413 99:-0.310346 100:0.225801 101:0.15942 102:-0.365852 103:-0.718749 104:-0.555555 106:-0.666666 107:-0.095237 108:0.28767 109:0.40909 110:-0.745454 111:-0.700001 113:-0.857142 114:-0.437504 115:0.882356 116:-0.405407 117:-0.6 118:-1 120:-0.416667 121:0.31034 122:-0.172416 123:-0.419355 124:-0.0399929 125:0.368426 127:-0.666666 128:0.374996 129:0.223879 130:-0.513515 131:-0.621621 132:-0.692308 134:-0.285713 135:3.6e-07 136:-0.13433 137:0.260872 138:-0.490908 139:-0.636364 141:-0.733333 142:0.200001 143:0.128206 144:0.323076 145:-0.80303 146:-0.619046 148:-0.290323 149:0.187506 150:-0.23256 151:0.297297 152:-0.428572 153:-0.882353 155:-0.548386 156:0.333333 157:0.0909071 158:-0.529416 159:-0.419356 160:-0.444445 162:-0.352943 163:-0.0588245 164:-0.103447 165:-0.348838 166:-0.282056 167:-0.285715 169:-0.538462 170:0.365852 171:0.0588231 172:0.387095 173:-0.795621 174:-0.909091 
2 1:-0.785714 2:-0.736843 3:-0.466669 4:-0.688889 5:0.469389 6:-0.904762 8:-0.393941 9:-0.0967767 10:-0.317073 11:0.128201 12:0.069767 13:-0.176474 15:-0.235294 16:-0.243243 17:-0.555557 18:0.0270253 19:0.217392 20:-0.333332 22:-0.0624961 23:-4e-07 24:-0.73494 25:0.190473 26:-0.0819676 27:0.625002 29:-0.870968 30:-0.95 31:-0.761194 32:-0.875 33:0.766667 34:-1 36:-0.448275 37:-0.371432 38:-0.295774 39:-0.16279 40:-0.25641 41:-0.300001 43:-0.307693 44:-0.333333 45:-2.76923e-06 46:0.0303012 47:-0.161291 48:-0.375 50:-0.199999 51:0.333332 52:-0.253732 53:0.0499974 54:-0.0769198 55:-0.75 57:-0.307693 58:-0.0370347 59:0.111113 60:-0.375003 61:-0.0967782 62:-0.600002 64:-0.586207 65:-0.666668 66:-0.809527 67:-0.476195 68:0.468086 69:-0.894737 71:-0.466667 72:-0.0857173 73:-0.243245 74:0.166664 75:-0.48889 76:-0.4 78:-0.119998 79:0.517242 80:-0.639344 81:-0.176472 82:0.259254 83:-0.200002 85:-0.642857 86:0.0370347 87:0.100001 88:-0.235295 89:6.64617e-06 90:-0.529413 92:-0.153844 93:0.0322608 94:-0.171428 95:-0.437499 96:0.448272 97:-0.411767 99:-0.724138 100:0.032256 101:-0.710143 102:0.0731731 103:0.21875 104:-0.555555 106:-0.555555 107:1.92e-06 108:-0.0958905 109:0.0909085 110:-0.563637 111:-1.44e-06 113:-0.571427 114:-0.249998 115:0.29412 116:0.135137 117:-0.666667 118:-0.384615 120:-0.5 121:0.0344756 122:0.241382 123:-0.483877 124:-0.199994 125:-0.0526284 127:-0.333333 128:0.062499 129:-0.313434 130:0.189188 131:-0.459459 132:-0.384615 134:-0.714285 135:0.299995 136:-0.462684 137:0.304348 138:-0.327272 139:-0.545455 141:-0.666666 143:-0.230771 144:-0.0461531 145:-0.363636 146:-0.619046 148:-0.419355 149:-0.0624965 150:-0.23256 151:0.189188 152:-0.265306 153:-0.411767 155:-0.741935 156:-0.0370453 157:0.0909071 158:-0.058824 159:-0.290321 160:-0.666667 162:-0.529413 163:0.176472 164:-0.586207 165:0.441863 166:-0.179491 167:-0.142856 169:-0.769232 170:-0.609755 171:-0.341178 172:-0.161289 173:0.0218974 174:-0.818182 
2 1:0.142859 2:0.210525 3:1.68e-06 4:-0.11111 5:-0.755102 6:-0.714286 8:0.0909075 9:-0.0322555 10:-0.268292 11:-0.128208 12:-0.116281 13:-0.411767 15:-0.117644 16:0.0810845 17:-0.361113 18:0.0270253 19:-0.260869 20:-0.714286 22:0.0625051 23:-0.333337 24:-0.0361444 25:2.4e-06 26:-0.475408 27:-0.499999 29:-0.35484 30:1 31:-0.223881 32:-2.1e-06 33:-0.733333 34:-0.466668 36:0.0344834 37:-0.0285721 38:-0.126758 39:-0.116282 40:-0.769231 41:-0.300001 43:-0.153847 44:-0.272731 45:-0.269233 46:-0.151515 47:0.0967759 48:1.8e-06 50:-0.199999 51:0.454546 52:-0.402985 53:-0.0500032 54:0.230764 55:-0.625 57:0.153846 58:-0.407403 59:-0.269842 60:-0.687502 61:0.419355 62:0.466662 64:0.0344855 65:0.500001 66:-0.555557 68:-0.702129 69:-0.157891 71:-0.333334 72:0.142856 73:0.0810817 74:0.277776 75:-0.844444 76:-0.8 78:0.680008 79:-0.24138 80:-0.639344 81:0.117644 82:0.333334 83:-0.866667 85:-0.428571 86:0.481483 87:-0.433332 88:-0.117648 89:-0.0769227 90:0.176465 92:-0.0769211 93:0.354841 94:-0.314284 95:2.22045e-16 96:-0.034485 97:-0.529413 99:-0.0344835 100:0.290322 101:-0.42029 102:-0.121951 103:-0.625 104:0.222222 106:-0.333334 107:0.380951 108:-0.068495 109:0.40909 110:-0.818182 111:-0.6 113:0.357141 114:-0.124998 115:-0.32353 116:-0.189189 117:0.199995 118:-0.538462 120:-0.166666 121:0.103447 122:-0.172416 123:-0.0967772 124:-0.199994 125:0.0526345 127:-0.133332 128:-5.84999e-06 129:-0.134328 130:-0.567565 131:-0.243243 132:-0.0769226 134:0.571434 135:-0.150004 136:-0.343285 137:-0.086957 138:-0.509092 139:-1.30909e-06 141:0.266664 142:0.45 143:-0.282053 144:0.199998 145:-0.80303 146:-0.619046 148:-0.0967753 149:0.437499 150:-0.372093 151:0.189188 152:-0.387759 153:-0.882353 155:-0.16129 156:0.555552 157:-0.610392 158:-0.470588 159:0.54838 160:-0.222222 162:0.117646 163:0.176472 164:-0.701149 165:-0.16279 166:0.128203 169:-0.0769257 170:0.512198 171:-0.152941 172:0.0645166 173:-0.781021 174:-0.090911 
2 1:0.214293 2:0.105261 3:-0.333334 4:-0.2 5:-0.530612 6:-0.523809 8:-0.272729 9:0.290323 10:-0.0487798 11:-0.282052 12:-0.302329 13:-0.529413 15:-0.117644 16:0.0810845 17:-0.638889 18:0.243244 19:-0.217394 20:-0.238093 22:-0.6875 23:0.166664 24:0.204818 25:0.0476184 26:-0.704919 27:-0.625 29:-0.161291 30:0.250004 31:0.104478 32:0.0416679 33:-0.800001 34:0.0666641 36:-0.103447 37:-0.0857113 38:-0.0704199 39:-0.30233 40:-0.589744 41:-0.500001 43:-0.153847 44:-0.0909075 45:-0.0769265 46:-0.0303012 47:-0.225803 48:-0.625 50:-0.266665 51:-0.393937 52:0.462687 53:-0.349998 54:-0.461539 55:-0.499999 57:-0.153847 58:-0.0370347 59:0.238094 60:-0.562501 61:-0.225802 62:-0.733334 64:-0.448276 65:0.111113 66:0.015872 67:-0.190478 68:-0.68085 69:-0.263156 71:-0.400001 72:0.542854 73:-0.108107 74:-0.277776 75:-0.733335 76:-0.2 78:-0.119998 79:-0.379312 80:0.0819643 81:4.2353e-06 82:-0.555557 83:-0.333336 85:-0.642857 86:0.333333 87:2.4e-06 88:-0.235295 89:-0.153841 90:-0.411767 92:-0.384614 93:-0.096773 94:0.200002 95:-0.187497 96:-0.310346 97:-0.529413 99:-0.24138 100:0.419355 101:-0.188404 102:-0.121951 103:-0.656248 104:-0.444445 106:-0.388889 107:0.285712 108:0.0410948 109:0.363638 110:-0.800001 111:-0.700001 113:-0.499999 114:0.249996 115:0.0882382 116:0.0270284 117:-0.6 118:-0.538462 120:-0.25 121:0.103447 122:0.241382 123:-0.483877 124:-0.199994 125:-0.473683 127:-0.533333 128:0.374996 129:-0.134328 130:0.0270291 131:-0.783783 132:-0.23077 134:-0.214284 135:0.349999 136:-0.13433 137:0.130433 138:-0.636364 139:-0.363637 141:-0.8 142:-0.050004 143:0.871792 144:0.0153858 145:-1 146:-0.619046 148:-0.225808 149:0.250002 150:-0.23256 151:-0.297298 152:-0.183673 153:-0.529413 155:-0.548386 156:-0.0370453 157:0.0389586 158:-0.235292 159:-0.225809 160:-0.555555 162:-0.411766 163:0.470588 164:-0.310343 165:-0.395346 166:-0.0256401 167:-0.714285 169:-0.230772 170:0.121951 171:-0.0352952 172:0.193545 173:-0.664234 174:-0.727274 
