svm_type c_svc
kernel_type rbf
gamma 0.125
nr_class 2
total_sv 1058
rho 0.411942
label 1 -1
probA -8.02715
probB -1.14985
nr_sv 421 637
SV
0.03198858760842776 1:-1 2:-0.692307 3:0.524475 4:-0.219515 5:-0.680554 6:-0.809524 8:-0.785714 9:-0.322033 10:0.666666 11:-0.0400005 12:-0.937778 13:-0.84 15:-0.466665 16:-0.166669 17:0.338348 18:0.61165 19:-0.909091 20:-0.666666 22:-1 23:-0.409836 24:0.604396 25:0.0505045 26:-0.964286 27:-0.764705 29:-0.750001 30:-0.730769 31:0.592105 32:-0.146069 33:-0.698113 34:-1 36:-0.809524 37:-0.809524 38:0.762378 39:-0.236361 40:-0.835616 41:-0.809524 43:-0.8 44:-0.435895 45:0.522724 46:-0.2 47:-0.671642 48:-0.625001 50:-1 51:-0.464285 52:0.647057 53:-0.0344866 54:-0.9375 55:-0.846154 57:-0.6 58:-0.857143 59:0.48936 60:-0.291671 61:-0.540541 62:-0.375001 64:-0.739131 65:-0.320757 66:0.49495 67:-0.403507 68:-0.485714 69:-0.625001 71:-0.62963 72:-0.016947 73:-0.189188 74:0.770493 75:-0.645161 76:-0.684211 78:-0.833334 79:-0.034487 80:0.415384 81:0.384616 82:-0.914634 83:-0.333334 85:-0.700001 86:-0.0333337 87:0.54717 88:-0.0120491 89:-0.91133 90:-0.625001 92:-0.428571 93:-0.309091 94:0.671641 95:0.230769 96:-0.863636 97:-0.764706 99:0.176469 100:0.0645168 101:-0.0650892 102:0.458825 103:-0.82243 104:0.294117 106:-0.842106 107:-0.0384615 108:-0.390244 109:0.614458 110:-0.66 111:-0.238094 113:-0.679999 114:-0.163637 115:0.615819 116:-0.424244 117:-0.874345 118:-0.75 120:-0.789474 121:0.0877157 122:0.211539 123:-0.433961 124:-0.814433 125:-0.411766 127:-0.8 128:0.169811 129:0.395061 130:0.267604 131:-0.860697 132:-0.499999 134:-0.333335 135:-0.127268 136:0.0108706 137:0.540543 138:-0.813725 139:-0.700001 141:-0.846154 142:-0.245285 143:0.0921045 144:0.298702 145:-0.560001 146:-0.935484 148:-0.818182 149:-0.183668 150:0.626376 151:-0.157899 152:-0.797101 153:-0.777778 155:-0.250002 156:0.260866 157:-0.217391 158:-3.75e-06 159:-0.739131 160:-0.37143 162:-0.727273 163:0.640001 164:0.155172 165:-0.0645168 166:-0.763889 167:-0.578947 169:-0.67742 170:-0.176467 171:-0.136365 172:0.312504 173:-0.522935 174:-0.739131 
0.03860690797102502 1:-0.870968 2:-0.0769211 3:0.342656 4:0.0243902 5:-0.875 6:-0.904762 8:-1 9:-0.898305 10:-0.689655 11:-0.5 12:0.511112 13:-1 15:-1 16:-1 17:-1 18:-1 19:1 20:-1 22:-1 23:-1 24:-1 25:-0.79798 26:0.910715 27:-1 29:-0.833334 30:-0.807692 31:0.171053 32:-0.213483 33:-0.245283 34:-0.789474 36:-1 37:-0.0476207 38:0.306929 39:0.127271 40:-0.863013 41:-0.809524 43:-0.399999 44:0.179487 45:0.0227276 46:0.2 47:-0.701492 48:-0.875 50:-1 51:-0.75 52:-0.397059 53:-0.172411 54:0.328126 55:-0.538463 57:-0.399999 58:-0.0476201 59:0.0851074 60:-0.0833392 61:-0.621622 62:-0.625001 64:-0.913043 65:0.0943377 66:0.232323 67:0.0877182 68:-0.771428 69:-0.625001 71:-0.925926 72:-0.0508496 73:0.283786 74:0.180329 75:-0.854839 76:-0.578947 78:-0.416669 79:-0.103446 80:-0.446154 81:0.038462 82:-0.121951 83:-0.733333 85:-0.6 86:-0.433334 87:-0.119496 88:0.204818 89:-0.369459 90:-0.625001 92:-0.619047 93:-0.454546 94:-0.477611 95:0.73077 96:-0.0909095 97:-0.529411 99:-0.882353 100:-0.548388 101:-0.53846 102:0.270587 103:-0.0280371 104:-0.764706 106:-0.894737 107:-0.115386 108:0.37805 109:-0.445781 110:-0.92 111:-0.52381 113:-0.84 114:0.272733 115:0.276837 116:0.181818 117:-0.905759 118:-0.375001 120:-0.789474 121:-0.438597 122:0.596155 123:-0.547173 124:-0.876288 125:-0.294117 127:-0.8 128:0.283016 129:0.481483 130:0.183099 131:-0.940298 132:-0.375001 134:-0.833334 135:0.200005 136:0.184783 137:0.162166 138:-0.882353 139:-0.500001 141:-0.897436 142:-0.584906 143:0.671053 144:-0.324677 145:-0.82 146:-0.741936 148:0.272727 149:0.0612245 150:-0.0549446 151:-0.0526303 152:-0.565217 153:-0.555555 155:-0.333335 156:0.30435 157:-0.513041 158:0.100001 159:-0.630435 160:0.142854 162:-0.181818 163:0.839998 164:-0.0689663 165:-0.19355 166:-0.694443 167:-0.473684 169:-0.612903 170:-0.137255 171:0.393939 172:-0.406252 173:-0.761468 174:-0.826087 
0.1344023989877542 1:-0.870968 2:-0.269229 3:-0.132868 4:0.634145 5:-0.680554 6:-0.904762 8:-0.428569 9:0.186445 10:-0.413792 11:0.400001 12:-0.591112 13:0.200002 15:-0.8 16:-0.0666712 17:0.263157 18:0.533979 19:-0.836364 20:-0.466665 22:-0.785714 23:0.114754 24:-0.197803 25:0.555555 26:-0.758929 27:-0.411765 29:-0.750001 30:-0.0384629 31:0.0789483 32:0.213481 33:-0.672956 34:-0.684211 36:-0.0476197 37:-0.333338 38:-0.0891111 39:0.527271 40:-0.780822 41:-0.619047 43:-0.399999 44:-0.333329 45:0.272723 46:-0.24444 47:-0.552238 48:-0.375001 50:-0.9 51:-0.428571 52:0.764706 53:-0.37931 54:-0.953125 55:-0.692308 57:-0.500001 58:-0.428577 59:0.106382 60:0.249999 61:-0.675676 62:-0.375001 64:-0.130434 65:-0.54717 66:0.575759 67:-0.157894 68:-0.8 69:-0.75 71:-0.703703 72:0.186438 73:-0.283783 74:0.44262 75:-0.580643 76:0.157896 78:-0.333335 79:0.172412 80:0.261536 81:0.115386 82:-0.878049 83:-0.0666675 85:-0.6 86:-0.133331 87:0.534592 88:0.0843375 89:-0.931034 90:-0.499999 92:-0.333333 93:0.0909104 94:0.611939 95:0.0769205 96:-0.920454 97:-0.64706 99:-0.64706 100:0.161288 101:0.0650887 102:0.482352 103:-0.850467 104:-0.294117 106:-0.736843 107:-0.0384615 108:-0.621953 109:0.566264 110:-0.280002 111:-0.238094 113:-0.519999 114:-0.01818 115:0.333334 116:0.242424 117:-0.905759 118:-0.75 120:-0.473684 121:-0.122805 122:0.173077 123:-0.169811 124:-0.876288 125:-0.294117 127:-0.399999 128:0.547165 129:0.271605 130:0.183099 131:-0.860697 132:-0.625001 134:-0.250002 135:-0.199998 136:0.0543469 137:0.162166 138:-0.72549 139:-0.500001 141:-0.692307 142:-0.0943394 143:-0.0789488 144:0.376622 145:-0.62 146:-0.548388 148:-0.818182 149:-0.142856 150:0.0329687 151:0.26316 152:-0.594203 155:-0.333335 156:0.217392 157:-0.356519 158:0.0666637 159:-0.608696 160:-0.257145 162:-0.363637 163:0.12 164:0.0344832 165:0.0322548 166:-0.583334 167:-0.578947 169:-0.741936 170:-0.333333 171:0.0303017 172:0.468753 173:-0.724771 174:-0.739131 
0.3722257113809459 1:-0.935484 2:-0.576922 3:0.566436 4:-0.219515 5:-0.777777 6:-0.809524 8:-1 9:0.152543 10:0.390806 11:0.18 12:-0.937778 13:-0.679999 15:-0.266665 16:0.133331 17:0.308272 18:0.300971 19:-0.836364 20:-0.8 22:-0.571427 23:0.573769 24:-0.0549457 25:0.212123 26:-0.821429 27:-0.764705 29:-0.916667 30:0.0384612 31:0.223685 32:0.30337 33:-0.874214 34:-0.578947 36:-0.714286 37:-0.14286 38:0.544556 39:-0.27273 40:-0.863013 41:-1 43:-0.3 44:0.0769213 45:0.0909077 46:0.11111 47:-0.731343 48:-0.75 50:-0.8 51:0.142862 52:0.161765 53:0.310345 54:-0.921875 55:-0.384615 57:-0.199999 58:-0.619044 59:0.319146 60:0.125002 61:-0.783784 62:-0.625001 64:-0.565217 65:-0.283017 66:0.333332 67:0.0526341 68:-0.828571 69:-0.125 71:-1 72:0.0508504 73:0.472974 74:-0.114753 75:-0.935484 76:-0.789474 78:-0.500001 79:0.551723 80:0.384615 81:-0.307692 82:-0.914634 83:-0.466666 85:-0.6 86:0.466668 87:0.320754 88:-0.0602425 89:-0.921182 90:1.40625e-06 92:-0.238094 93:0.345455 94:0.582088 95:-0.230767 96:-0.897727 97:-0.64706 99:-0.882353 100:0.322577 101:0.384615 102:0.129414 103:-0.953271 104:-0.764706 106:-0.842106 107:-0.269231 108:0.134147 109:-0.0361453 110:-0.76 111:-0.714286 113:-0.84 114:0.200005 115:0.423728 116:-0.212124 117:-0.884817 118:-0.375001 120:-0.684211 121:-0.157898 122:0.26923 123:-0.0943385 124:-0.917526 125:-0.529411 127:-0.700001 128:0.207543 129:0.703705 130:-0.154933 131:-0.950249 132:-0.875 134:-0.16667 135:0.272733 136:0.021739 137:-0.0540536 138:-0.784314 139:-0.199999 141:-0.846154 142:-0.698113 143:0.513156 144:-0.87013 145:-0.0799994 146:-0.870968 148:-0.818182 149:0.142858 150:0.230771 151:0.0877146 152:-0.739131 153:-0.666667 155:-0.250002 156:-0.217395 157:-0.0782589 158:0.166669 159:-0.717391 160:-0.542858 162:-0.545455 163:0.200001 164:0.51724 165:-0.258067 166:-0.861111 167:-0.473684 169:-0.290324 170:0.176474 171:-0.287879 172:-0.21875 173:-0.3211 174:-0.652173 
0.4747835553143798 1:-0.870968 2:-0.307691 3:0.160841 4:-0.195122 5:-0.48611 6:-0.904762 8:-0.928571 9:0.05085 10:0.505747 11:0.0800011 12:-0.955556 13:-0.76 15:-0.466665 16:0.0333337 17:-0.0526314 18:0.456309 19:-0.727272 20:-0.133331 22:-0.642856 23:-0.278688 24:0.131869 25:0.51515 26:-0.857143 27:-0.82353 29:-0.666667 30:-0.53846 31:0.236842 32:0.505617 33:-0.823899 34:-0.789474 36:-0.809524 37:-0.380953 38:0.504951 39:-0.27273 40:-0.69863 41:-0.809524 43:-0.500001 44:-0.487184 45:0.204543 46:-0.11111 47:-0.61194 48:0.375001 50:-0.9 51:-0.464285 52:0.558824 53:0.0344797 54:-0.9375 55:-0.384615 57:-0.399999 58:-0.333338 59:0.0638282 60:0.208336 61:-0.675676 62:-0.375001 64:-0.739131 65:-0.0188669 66:0.51515 67:-0.22807 68:-0.857142 69:-0.75 71:-0.851852 72:0.186438 73:0.256758 74:0.180329 75:-0.935484 76:-0.684211 78:-0.666667 79:0.137933 80:0.615385 81:-0.230768 82:-0.914634 83:-0.866667 85:-0.6 86:0.0666637 87:0.811323 88:-0.373496 89:-1 90:-0.75 92:-0.809524 93:-0.0909058 94:0.850745 95:0.0384629 96:-0.977273 97:-0.64706 99:-0.882353 100:-0.225805 101:0.704142 102:-0.12941 103:-0.962617 104:-0.529411 106:-0.947369 107:0.153844 108:0.0365845 109:0.0361475 110:-0.86 111:-0.619047 113:-0.84 114:0.236365 115:0.20904 116:0.393938 117:-0.895288 118:-0.499999 120:-0.789474 121:-0.192982 122:0.173077 123:0.0943385 124:-0.835052 125:-0.764706 127:-0.6 128:0.018866 129:0.740742 130:-0.267604 131:-0.900498 132:-0.875 134:-0.750001 135:-0.0545401 136:0.141305 137:0.324324 138:-0.882353 139:-0.1 141:-0.641025 142:-0.207544 143:-0.144738 144:0.220776 145:-0.359998 146:-0.548388 148:-0.818182 149:-0.0612217 150:0.296704 151:0.0175461 152:-0.623188 153:-0.666667 155:-0.416669 156:0.30435 157:-0.165215 158:-3.75e-06 159:-0.717391 160:-0.542858 162:-0.636363 163:0.0399991 164:0.327584 165:0.0645168 166:-0.763889 167:-0.578947 169:-0.096776 170:-0.137255 171:-0.121212 172:-0.156249 173:-0.504588 174:-0.478259 
0.3250155968825659 1:-0.935484 2:0.346157 3:0.132868 4:-0.0487841 5:-0.777777 6:-0.809524 8:-0.499998 9:0.254235 10:0.172413 11:0.160002 12:-0.857778 13:-0.6 15:-0.933333 16:-0.5 17:-0.639097 18:0.0873786 19:0.0181818 20:-0.199998 22:-0.928571 23:0.147545 24:-0.23077 25:0.535355 26:-0.651785 27:-0.82353 29:-0.750001 30:0.423082 31:2.22045e-16 32:0.30337 33:-0.811321 34:-0.578947 36:-0.52381 37:-0.571431 38:0.20792 39:0.272727 40:-0.835616 41:-0.238094 43:-0.500001 44:-0.435895 45:0.499999 46:-0.15555 47:-0.731343 48:-0.75 50:-1 51:-0.392856 52:0.588236 53:-0.206898 54:-0.8125 55:-1 57:-0.3 58:-0.0476201 59:0.0425537 60:0.333333 61:-0.810811 62:-0.875 64:-0.304345 65:0.547165 66:-0.313132 67:0.192978 68:-0.685714 69:-0.375001 71:-0.925926 72:0.355935 73:0.310813 74:-0.0491783 75:-0.935484 76:-0.789474 78:-0.416669 79:0.41379 80:0.399998 81:-0.384616 82:-0.878049 83:-0.333334 85:-1 86:-0.100001 87:0.245284 88:0.132531 89:-0.665025 90:-0.875 92:-0.428571 93:0.0181823 94:0.208954 95:0.73077 96:-0.784091 97:-0.529411 99:-0.529411 100:0.0967716 101:0.384615 102:0.152941 103:-0.925234 104:-0.764706 106:-0.789474 107:0.307692 108:-0.0853657 109:-0.0843388 110:-0.8 111:-0.142857 113:-0.6 114:0.236365 115:0.344632 116:-0.151517 117:-0.863874 118:-0.499999 120:-0.789474 121:-0.333334 122:0.230768 123:0.018866 124:-0.731959 125:-1 127:-0.3 128:0.433961 129:0.358025 130:0.211265 131:-0.950249 132:-0.249999 134:0.0833304 135:0.127277 136:0.0760863 137:0.0270256 138:-0.862745 139:-0.1 141:-0.794871 142:-0.13208 143:0.473684 144:-0.428574 145:-0.72 146:-0.741936 148:-0.181818 149:0.265305 150:-0.164834 151:0.298244 152:-0.739131 153:-0.444445 155:-3.74999e-06 156:0.65217 157:-0.460869 158:-3.75e-06 159:-0.739131 160:-0.257145 162:-0.272727 163:-5.84999e-06 164:0.41379 165:0.0967716 166:-0.875 167:-0.684211 169:-0.161291 170:0.0588211 171:-0.0909085 172:-0.156249 173:-0.706422 174:-0.043476 
0.1325084375384149 1:-0.225808 2:0.884618 3:-0.692307 4:0.317071 5:-0.61111 6:-0.142857 8:-0.357141 9:-0.084745 10:0.390806 11:-0.199998 12:-0.813333 13:-0.44 15:0.200003 16:0.73333 17:-0.127819 18:0.165049 19:-0.79091 20:-0.399998 22:-0.428569 23:-0.0163955 24:0.263736 25:0.0303045 26:-0.883929 27:-0.588235 29:0.166663 30:0.115385 31:-0.18421 32:0.168537 33:-0.647798 34:-0.157893 36:0.333333 37:0.333336 38:-0.683169 39:0.454543 40:-0.479452 41:-0.333333 43:0.3 44:0.435895 45:-0.431819 46:0.15556 47:-0.582089 48:-0.249999 50:-0.1 51:0.250002 52:-0.0882365 53:0.172412 54:-0.8125 55:0.23077 57:-0.399999 58:0.285712 59:-0.170215 60:0.0416673 61:-0.675676 62:-0.125 64:-0.043476 65:0.849055 66:-0.919191 67:0.0526341 68:-0.142854 69:0.125 71:0.0370367 72:0.525425 73:-0.189188 74:-0.377051 75:-0.548389 76:-0.263158 78:0.499995 79:0.655168 80:-0.23077 81:-4.32693e-06 82:-0.768293 83:0.199999 85:-0.700001 86:0.400001 87:0.421385 88:-0.301204 89:-0.862069 90:-0.125 92:-0.428571 93:0.527271 94:0.402985 95:0.153845 96:-0.909091 97:-0.64706 99:0.294117 100:0.451611 101:-0.0177513 102:0.011763 103:-0.766354 104:-0.176471 106:0.421052 107:0.307692 108:-0.804878 109:-0.132527 110:-0.219999 111:0.714286 113:0.120001 114:0.745455 115:-0.096045 116:0.0606038 117:-0.811518 118:1.40625e-06 120:0.157896 121:0.543858 122:-0.596155 123:-0.207551 124:-0.71134 125:0.647057 127:0.1 128:0.735842 129:0.172839 130:0.0985879 131:-0.830846 132:-0.875 134:0.833328 135:0.563638 136:-0.347826 137:0.108111 138:-0.715687 139:-0.1 141:0.384618 142:0.320755 143:-0.644738 144:-0.0909105 145:-0.0600014 146:-0.483871 148:0.272727 149:0.265305 150:-0.450549 151:0.228067 152:-0.478261 153:-0.333333 155:-0.250002 156:0.30435 157:-0.217391 158:-0.100001 159:-0.717391 160:-0.314288 162:-0.545455 163:0.159996 164:0.465517 165:0.0645168 166:-0.888889 167:-0.894737 169:0.483865 170:0.137253 171:-0.545456 172:-0.0312469 173:-0.394495 174:-0.304345 
0.5231076608701826 1:-0.935484 2:-0.115379 3:0.146853 4:0.170728 5:-0.777777 6:-0.619047 8:-1 9:-0.79661 10:-0.781609 11:-0.459999 12:0.528888 13:-0.92 15:-1 16:-0.966667 17:-0.789474 18:-0.689321 19:0.709091 20:-0.933333 22:-0.571427 23:-0.180328 24:0.241758 25:-0.131314 26:-0.696428 27:-0.82353 29:-0.333335 30:0.615388 31:-0.0263161 32:-0.191013 33:-0.710691 34:0.0526311 36:-0.52381 37:0.333336 38:-0.148516 39:0.309087 40:-0.726027 41:-0.809524 43:-0.6 44:-0.179487 45:-0.318183 46:0.06667 47:-0.0149249 48:-0.375001 50:-0.700001 51:-0.464285 52:-0.676473 53:0.137933 54:0.343749 55:-0.846154 57:-0.700001 58:-0.523805 59:0.446807 60:-0.375005 61:-0.486488 62:-0.875 64:-0.739131 65:1 66:-0.353536 67:0.0877182 68:-0.685714 69:-0.625001 71:-0.851852 72:-0.22034 73:-0.175673 74:-0.0163947 75:-0.0967736 76:-0.894737 78:-0.583335 79:-0.448276 80:-0.569232 81:-0.307692 82:0.219511 83:-0.600001 85:-1 86:-0.866667 87:-0.949685 88:-0.879518 89:0.91133 90:-0.875 92:-0.714286 93:-0.745454 94:-0.611939 95:-0.615387 96:0.499999 97:-0.411766 99:-1 100:-0.451613 101:-0.2071 102:0.0588224 103:-0.233645 104:-0.64706 106:-0.68421 107:-0.19231 108:-0.0731717 109:-0.325301 110:-0.3 111:-0.619047 113:-0.76 114:0.236365 115:0.141242 116:-0.0303031 117:-0.685863 118:-0.625001 120:-0.684211 121:-0.157898 122:-0.596155 123:-0.245283 124:-0.0103103 125:0.0588229 127:-0.9 128:-0.207549 129:0.0123469 130:0.718307 131:-0.601989 132:-0.499999 134:-0.666667 135:-0.418181 136:-0.163042 137:-0.324322 138:-0.235294 139:-0.6 141:-0.333332 142:-0.245285 143:-0.394736 144:0.506491 145:-0.34 146:-0.419356 149:-0.265302 150:0.494506 151:-0.508773 152:-0.507246 153:-0.888889 155:-0.750001 156:-0.3913 157:-0.391302 158:0.666663 159:-0.369564 160:-0.714287 162:-0.818182 163:-0.200003 164:-0.396551 165:0.80645 166:-0.541665 167:0.578949 169:-0.161291 170:0.0196094 171:0.0909085 172:-0.125002 173:-0.761468 174:-0.826087 
0.05525484598959194 1:-0.806452 2:-0.230769 3:-0.328672 4:0.609752 5:-0.583332 6:-0.333333 8:-0.857142 9:0.22034 10:-0.057472 11:0.300002 12:-0.715556 13:-0.359999 15:-0.399998 16:0.133331 17:0.0375953 18:0.417473 19:-0.754546 20:-0.466665 22:-0.785714 23:-0.114754 24:0.0439554 25:0.353536 26:-0.776785 27:-0.588235 29:-0.500001 30:-0.115387 31:-0.0131566 32:0.213481 33:-0.584906 34:-0.789474 36:0.238096 37:-0.476192 38:-0.0297022 39:0.127271 40:-0.589041 41:-0.52381 43:-0.399999 44:-0.0769213 45:0.181818 46:-0.2 47:-0.552238 48:-0.625001 50:-0.9 51:-0.214286 52:0.338235 53:0.517236 54:-0.984375 55:-0.846154 57:-0.500001 58:-0.142859 59:0.0212745 60:0.333333 61:-0.810811 62:-0.249999 64:-0.304345 65:-0.0943394 66:-0.0101 67:-0.0877182 68:-0.342853 69:-0.625001 71:-0.481482 72:0.0169479 73:-0.0540517 74:0.147538 75:-0.693548 76:0.263158 78:-0.583335 79:0.0344793 80:0.399998 81:0.0769197 82:-0.878049 83:-0.199999 85:-0.399999 86:-3.75e-06 87:0.496857 88:-0.0602425 89:-0.891626 90:-0.625001 92:-0.52381 93:0.163639 94:0.537313 95:-0.0384611 96:-0.840909 97:-0.529411 99:0.0588229 101:0.207102 102:0.24706 103:-0.878505 104:-0.294117 106:-0.947369 107:-0.346154 108:0.231706 109:-0.0120459 110:-0.82 111:-0.904762 113:-0.279999 114:-0.01818 115:0.367231 116:3.75e-06 117:-0.895288 118:-0.625001 120:-0.36842 121:0.0175472 122:-0.134615 123:-0.245283 124:-0.670103 125:0.0588229 127:-0.399999 128:0.320756 129:0.0740747 130:0.915489 131:-0.910448 132:-0.499999 134:-0.916667 135:0.0545483 136:0.304349 137:0.21622 138:-0.911765 139:-1 141:-0.384615 142:0.16981 143:-0.276315 144:0.298702 145:-0.539998 146:-0.483871 148:-0.0909102 149:-0.306123 150:-0.142858 151:0.508773 152:-0.594203 153:-0.333333 155:-0.583335 156:0.217392 157:-0.0608694 158:0.133331 159:-0.826087 160:-0.600001 162:-0.545455 163:0.0399991 164:0.103446 165:0.612899 166:-0.847222 167:-0.473684 169:-0.612903 170:0.0588211 171:-0.0606051 172:0.125002 173:-0.669726 174:-0.565217 
0.5875791946980206 1:-0.870968 2:0.153851 3:-0.146853 4:0.658533 5:-0.875 6:-0.619047 8:-0.928571 9:0.525425 10:0.149425 11:0.220001 12:-0.893333 13:-0.519999 15:-0.333332 16:0.166669 17:0.127819 18:0.2233 19:-0.754546 20:-0.333332 22:-0.642856 23:0.573769 24:-0.153847 25:0.313132 26:-0.8125 27:-0.529411 29:-0.583335 30:-0.0384629 31:-0.0131566 32:0.415728 33:-0.748428 34:-0.473684 36:-0.238094 37:0.142858 38:-0.108911 39:-0.0181853 40:-0.643836 41:-0.333333 43:-0.1 44:-0.230764 45:0.249998 46:0.06667 47:-0.791045 48:-0.75 50:-0.9 51:-0.357142 52:0.77941 53:-0.551722 54:-0.9375 55:-0.538463 57:-0.500001 58:0.333337 59:-0.276597 60:0.45833 61:-0.756757 62:-0.375001 64:0.0434799 65:0.358487 66:-0.272727 67:0.298247 68:-0.685714 69:-0.875 71:-0.703703 72:0.491523 73:0.121622 74:-0.147544 75:-0.806452 76:-0.578947 78:-0.250002 79:0.689655 80:0.0615392 81:0.192302 82:-0.926829 83:-0.199999 85:-0.3 86:0.466668 87:0.0314465 88:0.277105 89:-0.881773 90:0.249999 92:-0.238094 93:0.381815 94:0.417909 95:0.115387 96:-0.897727 97:-0.529411 99:-0.294117 100:0.645161 101:0.0414197 102:0.200001 103:-0.88785 104:-0.294117 106:-0.894737 107:0.230768 108:-0.0121939 109:-0.132527 110:-0.78 111:-0.238094 113:-0.359999 114:0.236365 115:0.288136 116:-0.0303031 117:-0.905759 118:-0.249999 120:-0.894737 121:0.228068 122:0.0961529 123:-0.207551 124:-0.835052 125:-0.64706 127:0.1 128:0.320756 129:0.370372 130:-0.0985942 131:-0.850746 132:-0.375001 134:-0.416669 135:0.236365 136:0.152173 137:0.054056 138:-0.872549 139:-0.500001 141:-0.641025 142:0.132078 143:0.210525 144:-0.220779 145:-0.66 146:-0.806452 148:-0.636363 149:0.714286 150:-0.538463 151:0.157891 152:-0.449275 153:0.11111 155:-0.250002 156:0.260866 157:-0.286953 158:-0.0666637 159:-0.673914 160:-0.200003 163:0.599996 164:-0.155172 165:0.387094 166:-0.847222 167:-0.263158 169:-0.548388 170:-0.0588229 171:0.136362 172:-0.187496 173:-0.74312 174:-0.304345 
0.1258599149513195 1:-0.67742 2:-0.730769 3:0.454546 4:-0.195122 5:-0.736111 6:-0.428571 8:-0.428569 9:0.288138 10:-0.172413 11:0.400001 12:-0.733334 13:-0.44 15:-0.733332 16:0.366663 17:0.0526314 18:0.572815 19:-0.818182 20:-0.733332 22:-0.642856 23:-0.114754 24:-0.208791 25:0.575759 26:-0.732142 27:-0.294118 29:-0.666667 30:-0.576922 31:0.592105 32:-0.123594 33:-0.798742 34:-0.789474 36:-0.904762 37:-0.333338 38:0.267324 39:0.236359 40:-0.808219 41:-0.619047 43:-0.399999 44:-0.641026 45:0.477269 46:-0.42222 47:-0.522388 48:-0.375001 50:-0.9 51:-0.107145 52:0.32353 53:0.275858 54:-0.953125 55:-0.384615 57:-0.199999 58:-0.714286 59:0.191489 60:-0.0833392 61:-0.567568 62:1.40625e-06 64:-0.478259 65:-0.207544 66:0.393941 67:-0.12281 68:-0.8 69:-0.375001 71:-0.851852 72:-0.288137 73:0.162164 74:0.475411 75:-0.758064 76:-0.578947 78:-0.666667 79:-0.103446 80:0.492307 81:0.115386 82:-0.939024 83:0.199999 85:-0.500001 86:0.133331 87:0.396227 88:0.156625 89:-0.940887 90:-0.499999 92:-0.714286 93:0.0545423 94:0.537313 95:0.269226 96:-0.875 97:-0.529411 99:-0.64706 100:-0.290324 101:0.384615 102:0.529411 103:-0.962617 104:-0.64706 106:-0.894737 107:-0.5 108:0.475609 109:-0.325301 110:-0.88 111:-1 113:-1 114:-0.199998 115:0.649717 116:-0.272724 117:-0.884817 118:-1 120:-0.684211 121:0.0526315 122:0.192306 123:-0.018866 124:-0.938144 125:-0.882353 127:-0.6 128:0.056598 129:0.555555 130:-0.183099 131:-0.830846 132:-0.375001 134:-0.916667 135:-0.345453 136:0.271739 137:0.621622 138:-0.931372 139:-0.9 141:-0.846154 142:-0.924528 143:0.749998 144:-0.532465 145:-0.579999 146:-0.870968 148:-0.636363 149:-0.551019 150:0.604395 151:0.122807 152:-0.826087 153:-0.666667 155:-0.250002 156:0.130435 157:-0.547824 158:0.466668 159:-0.695653 160:-0.0285736 162:-0.909091 163:-0.320001 164:0.724135 165:-0.0967716 166:-0.847222 167:-0.578947 169:-0.806452 170:-0.568628 171:0.575756 172:-0.656249 173:-0.577984 174:-0.826087 
0.1317518229576537 1:-0.741936 2:0.115385 3:0.0209785 4:0.195121 5:-0.805555 6:-0.52381 8:-0.571427 9:-0.0169475 10:0.287357 11:0.300002 12:-0.911111 13:-0.76 15:-0.866666 16:-0.833334 17:-0.428571 18:-0.436893 19:0.327273 20:-1 22:-0.857142 23:-0.377049 24:0.0219771 25:0.0707091 26:-0.491071 27:-1 29:-0.083336 30:-0.0384629 31:0.0263161 32:0.2809 33:-0.811321 34:-0.263158 36:-0.714286 37:0.238097 38:0.0495067 39:-0.30909 40:-0.589041 41:-0.238094 43:-0.399999 44:0.435895 45:-0.181818 46:0.06667 47:-0.61194 48:-0.375001 50:-0.8 51:-0.321428 52:0.5 53:-0.0689659 54:-0.859375 55:-0.846154 57:-0.500001 58:0.142858 59:-1.11022e-16 60:0.0833298 61:-0.72973 62:-0.499999 64:-0.391303 65:0.396228 66:-0.171718 67:-0.298247 68:-0.571428 69:0.625001 71:-1 72:-0.38983 73:0.635135 74:-0.311477 75:-0.854839 76:-0.578947 78:-0.583335 79:-0.344828 80:-0.184618 81:0.153844 82:-0.243904 83:-0.866667 85:-0.8 86:-0.433334 87:0.257862 88:0.638553 89:-0.82266 90:-0.625001 92:-0.714286 93:-0.381818 94:-2.22045e-16 95:0.0384629 96:-0.261365 97:-0.529411 99:-0.882353 100:-0.129034 101:0.254438 102:0.223528 103:-0.757009 104:-0.764706 106:-1 107:-0.230769 108:0.195122 109:-0.0120459 110:-0.9 111:-0.428571 113:-0.76 114:0.01818 115:0.525423 116:-0.0606031 117:-0.937173 118:-1 120:-0.789474 121:-0.298242 122:0.53846 123:-0.433961 124:-0.876288 125:-0.764706 127:-0.700001 128:-0.132079 129:0.901236 130:-0.605636 131:-0.850746 132:-1 134:-0.833334 135:0.01818 136:0.347825 137:0.0810804 138:-0.931372 139:-0.700001 141:-0.846154 142:-0.509434 143:0.81579 144:-0.558443 145:-0.88 146:-0.870968 148:-0.545455 149:0.142858 150:0.252747 151:-0.0526303 152:-0.768116 153:-0.555555 155:-0.083336 156:0.565213 157:-0.530435 158:0.166669 159:-0.695653 160:-0.257145 162:-0.545455 163:0.200001 164:0.5 165:0.0645168 166:-0.930556 167:-0.894737 169:-0.548388 170:-0.0980435 171:0.151515 172:-0.156249 173:-0.688073 174:-0.652173 
0.4249916830388761 1:-1 2:-0.115379 3:0.11888 4:-0.195122 5:-0.527776 6:-0.619047 8:-0.928571 9:0.084745 10:0.413795 11:0.279999 12:-0.964444 13:-0.92 15:-0.266665 16:0.299996 17:0.082707 18:0.339807 19:-0.818182 20:-0.399998 22:-0.642856 23:-0.114754 24:0.549451 25:-0.171718 26:-0.928571 27:-0.882353 29:-0.666667 30:-0.0769207 31:0.144737 32:0.101123 33:-0.660379 34:-0.789474 36:-0.619047 37:-0.285713 38:0.326733 39:-0.0545453 40:-0.69863 41:-0.904762 43:-0.399999 44:-0.333329 45:0.204543 46:-0.06666 47:-0.641791 48:-0.125 50:-0.8 51:0.250002 52:0.426471 53:-0.206898 54:-0.953125 55:-1 57:-0.399999 58:-5.89285e-06 59:-0.106382 60:0.208336 61:-0.72973 62:1.40625e-06 64:-0.739131 65:-0.0943394 66:-0.0505045 67:-0.157894 68:-0.08571 69:-0.625001 71:-0.555555 72:0.0847454 73:0.0675699 74:0.409836 75:-0.854839 76:-0.578947 78:-0.583335 79:0.275858 80:0.292306 81:0.384616 82:-0.926829 83:-0.733333 85:-0.500001 86:-3.75e-06 87:0.421385 88:-0.180723 89:-0.832512 90:0.125 92:-0.52381 93:0.236367 94:0.417909 95:0.0769205 96:-0.829546 97:-0.294117 99:-0.411766 100:0.225805 101:0.325444 102:0.0823548 103:-0.925234 104:-0.411766 106:-0.894737 107:0.499998 108:-0.268294 109:0.325303 110:-0.76 111:-0.809524 113:-0.279999 114:0.381822 115:-0.096045 116:0.515152 117:-0.821989 118:0.125 120:-0.36842 121:0.228068 122:-0.115386 123:0.169811 124:-0.958763 125:-0.411766 127:-0.500001 128:0.169811 129:0.469136 130:0.154927 131:-0.900498 132:-0.625001 134:-0.916667 135:0.127277 136:0.228262 137:0.135135 138:-0.872549 139:-0.6 141:-1 142:-0.283017 143:0.13158 144:-0.350648 145:-0.0799994 146:-0.806452 148:-0.545455 149:0.428572 150:-0.0989012 151:-0.122807 152:-0.536231 153:-0.222222 155:-0.583335 156:0.217392 157:-0.0782589 158:0.233336 159:-0.847826 160:-0.657143 162:-0.363637 163:-0.0400018 164:0.206895 165:0.483873 166:-0.833333 167:-0.789474 169:-0.67742 170:0.215686 171:0.166665 172:-0.156249 173:-0.816514 174:-0.652173 
1.154702487830231 1:-0.935484 2:-0.230769 3:0.314687 4:-3.01829e-06 5:-0.833333 6:-0.428571 8:-0.571427 9:0.186445 10:0.356321 11:0.120002 12:-0.928889 13:-0.84 15:-0.533332 16:0.633333 17:0.233081 18:0.106794 19:-0.818182 20:-0.666666 22:-0.499998 23:0.704918 24:-1.23626e-06 25:0.232323 26:-0.901786 27:-0.882353 29:-0.916667 30:-0.615384 31:0.749999 32:-0.213483 33:-0.861635 34:-0.684211 36:-0.714286 37:-0.0476207 38:0.227724 39:-0.0181853 40:-0.753425 41:-0.714286 43:-0.199999 44:0.641026 45:-0.409094 46:0.33334 47:-0.61194 48:-0.625001 50:0.1 51:0.250002 52:0.0147044 53:-0.0689659 54:-0.828125 55:0.0769223 57:0.1 58:0.380951 59:-0.48936 60:0.291661 61:-0.621622 62:-0.125 64:0.0434799 65:-0.0188669 66:0.0505045 67:0.0877182 68:-0.771428 69:-0.499999 71:-0.777778 72:0.0847454 73:0.337837 74:0.0491798 75:-0.935484 76:-0.684211 78:-0.416669 79:0.241378 80:0.230767 81:-0.038462 82:-0.756098 83:-0.733333 85:-0.6 86:0.100001 87:0.572327 88:-0.13253 89:-0.931034 90:-0.625001 92:-0.333333 93:0.454543 94:0.208954 95:0.115387 96:-0.750001 97:-0.529411 99:-0.882353 100:-0.0645168 101:0.455622 102:0.011763 103:-0.850467 104:-0.764706 106:-0.842106 107:-0.346154 108:0.329269 109:-0.20482 110:-0.86 111:-0.904762 113:-0.92 114:0.345453 115:0.355933 116:0.181818 117:-0.958115 118:-0.75 120:-0.684211 121:0.0526315 122:0.365383 123:-0.622638 124:-0.876288 125:-0.411766 127:-0.6 128:0.169811 129:0.592594 130:0.154927 131:-0.970149 132:-0.875 134:-0.833334 135:-0.127268 136:0.543477 137:-0.324322 138:-0.921569 139:-0.700001 141:-0.846154 142:-0.0943394 143:0.30263 144:0.0649356 145:-0.84 146:-0.741936 148:-0.181818 149:0.79592 150:-0.406593 151:0.0175461 152:-0.594203 153:-0.333333 155:-0.916667 156:-0.478258 157:-0.286953 158:0.499998 159:-0.695653 160:0.314279 162:-0.272727 163:0.759998 164:0.0172396 165:-0.161288 166:-0.777778 167:-0.157893 169:-0.806452 170:0.0196094 171:0.257575 172:-0.125002 173:-0.853211 174:-0.478259 
0.7315189698037887 1:-1 2:0.307691 3:-0.0769233 4:0.463414 5:-0.861111 6:-0.619047 8:-0.928571 9:-0.084745 10:0.402299 11:0.0200025 12:-0.866667 13:-0.279999 15:-0.666666 16:0.366663 17:0.503758 18:0.00970776 19:-0.863636 20:-0.533332 22:-0.714284 23:0.311478 24:-0.0219771 25:0.272727 26:-0.830357 27:-0.470588 29:-0.750001 30:0.0769276 31:0.118421 32:0.505617 33:-0.924528 34:-0.578947 36:-0.52381 37:-0.285713 38:0.267324 39:-0.127273 40:-0.753425 41:-0.333333 43:-0.399999 44:-0.333329 45:0.227273 46:0.02223 47:-0.641791 48:-0.499999 50:-1 51:-0.214286 52:0.82353 53:-0.620688 54:-0.984375 55:-0.692308 57:-0.399999 58:-0.285713 59:0.0851074 60:0.125002 61:-0.594595 62:-0.75 64:-0.652173 65:0.0566057 66:0.353536 67:-0.192986 68:-0.857142 69:-0.249999 71:-0.62963 72:0.254235 73:0.189191 74:-0.147544 75:-0.806452 76:-0.473684 78:-0.583335 79:0.310345 80:0.599999 81:-0.384616 82:-0.951219 83:-0.600001 85:-0.399999 86:0.433331 87:0.433962 88:-0.0361431 89:-0.980296 90:-0.625001 92:-0.714286 93:0.454543 94:0.761191 95:-0.615387 96:-0.909091 97:-0.529411 99:-0.529411 100:0.0645168 101:0.573964 102:-0.200002 103:-0.934579 104:-0.64706 106:-0.736843 107:0.0384625 108:-0.0365845 109:0.108435 110:-0.9 111:-0.238094 113:-0.76 114:0.01818 115:0.649717 116:-0.666666 117:-0.874345 118:-0.625001 120:-0.894737 121:-0.157898 122:0.423078 123:-0.509433 124:-0.814433 125:-0.529411 127:-0.6 128:0.207543 129:0.753086 130:-0.323943 131:-0.940298 132:-0.875 134:-0.750001 135:-0.30909 136:0.434783 137:-0.108108 138:-0.901961 139:-0.3 141:-0.538461 142:0.0188652 143:-0.0657892 144:-0.0129904 145:-0.52 146:-0.35484 148:-0.727273 149:0.38776 150:-0.120877 151:0.543857 152:-0.884058 153:-0.555555 155:-0.583335 156:0.260866 157:-0.0956524 158:-0.133331 159:-0.652174 160:-0.542858 162:-0.545455 163:0.719993 164:-0.0344832 165:0.290322 166:-0.819444 167:-0.578947 169:-0.548388 170:0.0980417 171:-0.227272 172:-0.312497 173:-0.376149 174:0.0434799 
0.3985298710747066 1:-0.612903 2:0.153851 3:-0.0209785 4:0.292683 5:-0.847222 6:-0.619047 8:-0.857142 9:-0.661017 10:-0.758621 11:-0.279999 12:0.36 13:-0.76 15:-1 16:-1 17:-1 18:-1 19:1 20:-1 22:-1 23:-1 24:-1 25:-1 26:1 27:-1 29:-1 30:-0.499999 31:-0.131578 32:0.325845 33:-0.345911 34:-0.684211 36:-0.238094 37:0.0476185 38:-0.108911 39:0.236359 40:-0.835616 41:-0.142857 43:-0.500001 44:-0.487184 45:-0.136368 46:0.06667 47:0.0149229 48:-0.875 50:-0.8 51:-0.392856 52:-0.338235 53:0.0689667 54:-0.062499 55:-0.23077 57:-0.399999 58:-0.476191 59:-0.404258 60:0.249999 61:0.0270279 62:-0.625001 64:-0.652173 65:-0.169812 66:0.111114 67:0.192978 68:-0.657142 69:-0.249999 71:-0.777778 72:-0.0508496 73:-0.108106 74:0.508194 75:-0.596775 76:-0.473684 78:-0.833334 79:-0.482759 80:-0.369232 81:-0.307692 82:0.0609765 83:-0.0666675 85:-0.6 86:-0.5 87:-0.484276 88:0.493973 89:-0.211821 90:-0.249999 92:-0.619047 93:-0.345455 94:-0.0447783 95:-3.46154e-06 96:-0.295455 97:0.0588229 99:-0.882353 100:-0.548388 101:-0.100591 102:0.482352 103:-0.495328 104:-0.294117 106:-1 107:0.423074 108:-0.0731717 109:-0.0120459 110:-0.84 111:-0.238094 113:-0.84 114:-0.381817 115:0.446327 116:3.75e-06 117:-0.790576 118:-0.625001 120:-0.684211 121:-0.192982 122:0.230768 123:-0.169811 124:-0.773196 125:-0.764706 127:-0.399999 128:-0.245284 129:0.728394 130:-0.12676 131:-0.910448 132:-0.625001 134:-0.583335 135:0.01818 136:0.282609 137:-0.108108 138:-0.892157 139:-0.1 141:-0.74359 142:-0.207544 143:0.263158 144:-0.0649332 145:-0.68 146:-0.67742 148:-0.272727 149:0.102046 150:-0.142858 151:0.0526303 152:-0.449275 153:-0.333333 155:-0.250002 156:3.42391e-06 157:-0.182608 158:0.266666 159:-0.804348 160:-0.428574 162:-0.363637 163:0.679997 164:-0.310345 165:0.483873 166:-0.736111 167:-0.263158 169:-0.741936 170:-0.137255 171:0.212122 172:-0.156249 173:-0.74312 174:-0.391303 
0.626285352546191 1:-0.0322591 2:0.423082 3:-0.356644 4:-0.0975596 5:-0.638889 6:0.238096 8:-0.142855 9:-0.0169475 10:0.425288 11:-0.220001 12:-0.84 13:-0.76 15:-0.266665 16:0.0666637 17:0.744363 18:-0.24272 19:-0.872727 20:-0.466665 22:-0.0714249 23:0.311478 24:-0.0549457 25:0.232323 26:-0.830357 27:-0.705882 29:-0.250002 30:-0.115387 31:0.0263161 32:0.213481 33:-0.710691 34:-0.36842 36:-0.714286 37:4.28571e-06 38:0.0891067 39:-0.0545453 40:-0.616438 41:-0.52381 43:-0.6 44:0.282052 45:-0.204548 46:0.46667 47:-0.731343 48:-0.249999 50:-0.8 51:0.214283 52:0.382351 53:-0.0689659 54:-0.953125 55:-1 57:-0.700001 58:-0.380952 59:0.17021 60:-0.0416673 61:-0.594595 62:-0.125 64:-0.391303 65:-0.245285 66:0.313132 67:-0.333331 68:-0.485714 69:-0.499999 71:-0.703703 72:-0.0508496 73:0.202704 74:-0.0163947 75:-0.709677 76:-0.578947 78:-0.500001 79:0.241378 80:0.415384 81:-0.153852 82:-0.890244 83:-0.333334 85:-0.700001 86:0.199999 87:0.421385 88:-0.0120491 89:-0.921182 90:-0.125 92:-0.428571 93:0.309087 94:0.462687 95:0.153845 96:-0.897727 97:-0.529411 99:-0.529411 100:-0.387098 101:0.479291 102:0.294119 103:-0.925234 104:-0.64706 106:-0.736843 107:0.192311 108:-0.0121939 109:-0.108433 110:-0.82 111:-0.333333 113:-0.44 114:-0.345453 115:0.683617 116:-0.363637 117:-0.937173 118:-0.75 120:-0.578947 121:-0.263158 122:0.288463 123:-0.0566065 124:-0.896907 125:-0.64706 127:-0.500001 128:0.132071 129:0.543211 130:-0.12676 131:-0.870647 132:-0.375001 134:-0.916667 135:0.127277 136:0.108697 137:0.432434 138:-0.882353 139:-0.500001 141:-0.487179 142:0.0943377 143:-0.355264 144:0.480519 145:-0.48 146:-0.483871 148:-0.545455 149:-0.224489 150:-0.120877 151:0.438597 152:-0.507246 153:-0.222222 155:-0.750001 156:-0.0434802 157:-0.0608694 158:0.366663 159:-0.782609 160:-0.657143 162:-0.727273 163:0.159996 164:0.0517228 165:0.451611 166:-0.763889 167:-0.36842 169:-0.612903 170:-0.0980435 171:-0.0454551 172:-0.0625009 173:-0.522935 174:-0.478259 
0.9967724344127861 1:-0.741936 2:-0.269229 3:0.216782 4:0.0975591 5:-0.847222 6:-0.238094 8:-0.785714 9:-0.22034 10:0.057472 11:0.480002 12:-0.76 13:-0.519999 15:-0.733332 16:-0.0333337 17:0.00751974 18:0.572815 19:-0.7 20:-0.599998 22:-0.857142 23:-0.377049 24:0.285714 25:0.292927 26:-0.830357 27:-0.82353 29:-0.750001 30:-0.76923 31:0.776315 32:-0.191013 33:-0.849057 34:-0.894737 36:-0.619047 37:0.428575 38:-0.227724 39:0.0181828 40:-0.561644 41:-0.333333 43:-0.500001 44:-0.538461 45:0.340908 46:0.02223 47:-0.671642 48:-0.375001 50:-0.700001 51:-0.214286 52:0.647057 53:-0.448277 54:-0.921875 55:-0.692308 57:-0.1 58:-0.380952 59:-0.0851074 60:0.125002 61:-0.459458 62:-0.499999 64:-0.21739 65:-0.0566074 66:0.171718 67:-0.157894 68:-0.628571 69:-0.499999 71:-0.925926 72:-0.355932 73:0.662163 74:-0.442626 75:-0.806452 76:-0.894737 78:-0.333335 79:0.0344793 80:0.276923 81:0.230768 82:-0.817073 83:-0.733333 85:-0.399999 86:-0.266667 87:0.54717 88:0.108431 89:-0.931034 90:-0.499999 92:-0.428571 93:0.563639 94:0.149252 95:0.461541 96:-0.863636 97:-0.176471 99:-0.764706 100:-0.451613 101:0.408284 102:0.364706 103:-0.859813 104:-0.64706 106:-0.947369 107:-0.76923 108:0.646343 109:-0.493975 110:-0.86 111:-1 113:-0.679999 114:-0.01818 115:0.435029 116:0.0303038 117:-0.895288 118:-0.875 120:-0.789474 121:-0.192982 122:0.115386 123:0.169811 124:-0.814433 125:-0.764706 127:-0.6 128:-0.0566065 129:0.71605 130:-0.0140831 131:-0.960199 132:-0.75 134:-1 135:-0.163637 136:0.26087 137:0.513513 138:-0.921569 139:-0.9 141:-1 142:-0.0943394 143:0.105264 144:0.246753 145:-0.62 146:-0.741936 148:-0.636363 149:0.0612245 150:0.186814 151:-0.0175461 152:-0.565217 153:-0.777778 155:-0.833334 156:-0.304353 157:0.373913 158:-0.333333 159:-0.869566 160:-0.257145 162:-0.545455 163:-0.159999 164:0.482756 165:0.129034 166:-0.847222 167:-0.684211 169:-0.806452 170:-0.372549 171:0.136362 172:0.437499 173:-0.834863 174:-0.565217 
0.1510629206912083 1:0.0322562 2:-0.230769 3:-0.104896 4:-0.195122 5:-0.500001 6:-0.52381 8:-0.857142 9:-0.525423 10:0.965518 11:-0.32 12:-0.964444 13:-1 15:-0.866666 16:-0.5 17:0.44361 18:0.359222 19:-0.754546 20:-0.333332 22:-0.785714 23:-0.278688 24:0.527473 25:0.0909091 26:-0.973214 27:-0.82353 29:-0.500001 30:0.115385 31:-0.105264 32:0.213481 33:-0.610063 34:-0.473684 36:-0.333333 37:-0.619047 38:0.663364 39:-0.527274 40:-0.69863 41:-0.904762 43:-0.9 44:-0.230764 45:0.295453 46:0.2 47:-0.641791 48:-1 50:-0.8 51:-0.571428 52:0.72059 53:-0.0689659 54:-0.984375 55:-0.846154 57:-0.700001 58:-0.190474 59:-0.0851074 60:0.416668 61:-0.648649 62:-0.249999 64:0.391307 65:-0.169812 66:-0.111109 67:-0.508775 68:2.25e-06 69:-0.75 71:-0.555555 72:-0.22034 74:0.475411 75:-0.693548 76:-0.36842 78:-0.416669 79:0.137933 80:0.323076 81:0.192302 82:-0.841463 83:-1 85:-0.9 86:0.233328 87:0.106919 88:0.566265 89:-0.881773 90:-0.375001 92:-0.714286 93:0.272727 94:0.552237 95:0.230769 96:-0.920454 97:-0.764706 99:-1 100:-0.225805 101:0.656804 102:-0.0352964 103:-0.934579 104:-0.764706 106:-0.894737 107:-0.307692 108:-0.207319 109:0.349397 110:-0.539999 111:-0.428571 113:-0.84 114:-0.127268 115:0.457628 116:0.0303038 117:-0.874345 118:-0.75 120:-0.684211 121:-0.157898 122:0.230768 123:-0.132079 124:-0.835052 125:-0.64706 127:-0.9 128:-0.358491 129:0.666667 130:0.323943 131:-0.950249 132:-0.499999 134:-0.916667 135:-0.272726 136:0.52174 137:-0.243242 138:-0.911765 139:-0.399999 141:-0.74359 142:-0.169812 143:-0.19737 144:0.584416 145:-0.600001 146:-0.35484 148:-0.272727 149:0.265305 150:-0.120877 151:0.157891 152:-0.594203 153:-0.666667 155:-0.500001 156:0.30435 157:-0.130432 158:0.133331 159:-0.869566 160:-0.428574 162:-0.818182 163:0.200001 164:0.241378 165:0.290322 166:-0.861111 167:-0.263158 169:-0.806452 170:-0.333333 171:-0.136365 172:-0.343751 173:-0.247709 174:0.304351 
0.2005640209061741 1:-0.870968 2:3.02885e-06 3:0.132868 4:0.26829 5:-0.875 6:-0.619047 8:-0.928571 9:0.38983 10:0.0919539 11:0.420003 12:-0.875556 13:-0.76 15:-1 16:-0.766667 17:-0.684211 18:-0.378642 19:0.400001 20:-0.599998 22:-1 23:-0.47541 24:-0.725275 25:0.0909091 26:0.0892864 27:-0.588235 29:-0.750001 30:-0.0384629 31:0.144737 32:0.2809 33:-0.823899 34:-0.263158 36:-0.52381 37:4.28571e-06 38:0.0891067 39:0.199999 40:-0.863013 41:-0.52381 43:-0.3 44:-0.487184 45:0.0909077 46:0.37778 47:-0.731343 48:-0.125 50:-0.6 51:-0.178567 52:0.441176 53:0.0344797 54:-0.9375 55:-0.846154 57:0.1 58:-0.142859 59:-0.106382 60:0.0833298 61:-0.594595 62:-0.499999 64:-0.652173 65:0.471701 66:-0.0505045 67:0.22807 68:-0.8 69:-0.875 71:-0.925926 72:-0.186437 73:0.64865 74:-0.34426 75:-0.935484 76:-0.789474 78:-0.666667 79:-0.137933 80:0.200001 81:0.34615 82:-0.731706 83:-0.199999 85:-0.8 86:0.0666637 87:0.0691843 88:0.518072 89:-0.783251 90:-0.499999 92:-0.714286 93:-0.418182 94:0.0597022 95:0.230769 96:-0.386365 97:-0.176471 99:-0.764706 100:-0.483872 101:-0.100591 102:0.835295 103:-0.635514 104:-0.64706 106:-0.842106 107:-0.307692 108:0.475609 109:-0.734942 110:-0.76 111:-0.52381 113:-0.679999 114:0.272733 115:0.423728 116:-0.181817 117:-0.905759 118:-0.75 120:-0.684211 121:-0.192982 122:0.192306 123:-0.283016 124:-0.71134 125:-0.529411 127:-0.3 128:0.018866 129:0.666667 130:-0.12676 131:-0.950249 132:-0.499999 134:-0.916667 135:-0.0909083 136:0.565217 137:-0.243242 138:-0.95098 139:-0.9 141:-0.794871 142:-0.245285 143:0.118421 144:0.142856 145:-0.539998 146:-0.806452 148:-0.363637 149:0.0204121 150:0.164834 151:-0.0175461 152:-0.710145 153:-0.333333 155:-0.333335 156:0.478255 157:-0.321736 158:0.233336 159:-0.76087 160:-0.600001 162:-0.363637 163:0.479999 164:0.258618 165:-0.0967716 166:-0.847222 167:-0.473684 169:-0.548388 170:0.490194 171:-0.0303017 172:-0.156249 173:-0.724771 174:-0.739131 
0.09024377046484519 1:0.0322562 2:0.192309 3:-0.412589 4:0.26829 5:-0.666667 6:-0.142857 8:-0.214283 9:-0.05085 10:0.390806 11:-0.14 12:-0.84 13:-0.679999 15:-0.266665 16:0.533328 17:-0.0375953 18:0.456309 19:-0.872727 20:-0.333332 22:0.0714329 23:0.0163955 24:0.175825 25:0.0101 26:-0.857143 27:-0.705882 29:-0.250002 30:0.192309 31:-0.0657888 32:0.235956 33:-0.735849 34:-0.36842 36:0.238096 37:0.38095 38:-0.623764 39:0.272727 40:-0.342466 41:-0.619047 43:0.500001 44:0.282052 45:-0.363638 46:0.37778 47:-0.731343 48:-0.499999 50:-0.399999 51:0.214283 52:0.0294122 53:0.103446 54:-0.8125 55:-0.0769223 57:-0.199999 58:-0.0952343 59:-0.148936 60:0.416668 61:-0.756757 62:-0.249999 64:0.391307 65:0.358487 66:-0.595959 67:0.0877182 68:-0.171429 69:-0.875 71:1 72:0.0508504 73:-0.432432 74:-0.0163947 75:-0.483872 76:0.157896 78:-0.16667 79:0.724135 80:0.0153831 81:-4.32693e-06 82:-0.829268 83:-0.466666 85:-0.399999 86:0.566666 87:0.132077 88:0.0120448 89:-0.871921 90:0.249999 92:-0.428571 93:0.490911 94:0.477611 95:-0.153843 96:-0.897727 97:-0.294117 99:0.176469 100:0.354839 101:0.0532555 102:0.317647 103:-0.906542 104:-0.176471 106:0.368425 107:0.423074 108:-0.768294 109:-0.18072 110:-0.160001 111:0.142857 113:0.120001 114:0.563638 115:-0.00564839 116:0.0606038 117:-0.811518 118:-0.375001 120:0.157896 121:0.368421 122:-0.365387 123:-0.320756 124:-0.752577 125:0.411763 127:0.199999 128:0.584906 129:0.14815 130:0.12676 131:-0.850746 132:-0.125 134:-0.416669 135:0.418182 136:-0.0543477 137:0.0810804 138:-0.823529 139:0.3 141:0.487184 142:0.283015 143:-0.723683 144:-0.194808 145:-0.0600014 146:0.0967731 148:0.272727 149:0.346938 150:-0.494506 151:-0.0526303 152:-0.275359 153:-0.222222 155:0.166663 156:0.347824 157:-0.165215 158:-0.466668 159:-0.630435 160:-0.428574 162:-0.0909102 163:0.159996 164:0.327584 165:-0.225805 166:-0.777778 167:-0.473684 169:0.0322562 170:0.0196094 171:-0.257575 172:-0.156249 173:-0.467891 174:-0.391303 
0.2513224932735277 1:-0.935484 2:3.02885e-06 3:-0.0349663 4:0.26829 5:-0.708333 6:-0.52381 8:-1 9:-0.864406 10:-0.735633 11:-0.459999 12:0.493334 13:-0.76 15:-1 16:-0.933333 17:-0.879699 18:-0.689321 19:0.763635 20:-1 22:-0.642856 23:-0.278688 24:0.197801 25:-0.0909091 26:-0.625 27:-0.941176 29:-0.416669 30:0.46154 31:-0.0131566 32:0.101123 33:-0.798742 34:-0.157893 36:-0.333333 37:-0.0952349 38:-0.108911 39:0.418183 40:-0.808219 41:-0.333333 43:-0.700001 44:-0.179487 45:-0.363638 46:0.2 47:0.0746251 48:-0.75 50:-0.700001 51:-0.464285 52:-0.661765 53:0.137933 54:0.281248 55:-0.384615 57:-0.700001 58:-0.238098 59:0.106382 60:0.125002 61:-0.513514 62:-1 64:-0.565217 65:0.396228 66:-0.0505045 67:0.0526341 68:-0.8 69:-0.125 71:-0.851852 72:-0.38983 73:-0.162161 74:-0.0163947 75:-0.0806462 76:-0.578947 78:-0.583335 79:-0.551724 80:-0.615385 81:-0.19231 82:0.231708 83:-0.333334 85:-1 86:-0.933333 87:-0.91195 88:-0.831326 89:0.881774 90:-0.875 92:-0.809524 93:-0.709091 94:-0.522389 95:-0.730769 96:0.499999 97:-0.764706 99:-0.764706 100:-0.35484 101:-0.325442 102:0.0823548 103:-0.205608 104:-0.529411 106:-0.789474 107:-0.153843 109:-0.566262 110:-0.200001 111:-0.619047 113:-0.92 114:0.127277 115:0.186441 116:-0.242424 117:-0.591622 118:-0.75 120:-1 121:-0.333334 122:-0.480769 123:-0.169811 124:0.0309273 125:-0.176471 127:-0.8 128:-0.207549 129:-2.77778e-07 130:0.464786 131:-0.492536 132:-0.75 134:-0.750001 135:-0.381817 136:-0.195653 137:-0.243242 138:-0.205883 139:-0.9 141:-0.333332 142:0.16981 143:-0.289475 144:-0.0129904 145:-0.320002 146:-0.419356 148:-0.0909102 149:-0.346937 150:0.47253 151:-0.333336 152:-0.536231 153:-0.888889 155:-0.750001 156:-0.478258 157:-0.286953 158:0.599996 159:-0.565216 160:-0.314288 162:-0.545455 163:0.079995 164:-0.431034 165:0.612899 166:-0.472222 167:-0.157893 169:-0.419356 170:0.411762 171:-0.0909085 172:0.031254 173:-0.816514 174:-0.478259 
0.1572056180439158 1:-0.483871 2:3.02885e-06 3:-0.146853 4:0.14634 5:-0.583332 6:-0.809524 8:-0.499998 9:0.0169475 10:-0.0114944 11:0.340002 12:-0.751112 13:-0.44 15:-0.199998 16:0.0333337 17:-0.0225558 18:0.359222 19:-0.736364 20:-0.133331 22:-0.428569 23:0.409836 24:-0.0989023 25:0.313132 26:-0.821429 27:-0.647058 29:-0.333335 30:-0.230769 31:-0.0263161 32:0.550561 33:-0.786163 34:-0.473684 36:-0.52381 37:-0.190474 38:-0.0495067 39:0.199999 40:-0.561644 41:-0.52381 43:-0.399999 44:-0.538461 45:0.363633 46:-0.28889 47:-0.522388 48:-0.375001 50:-0.9 51:-0.107145 52:0.5 53:3.87931e-07 54:-0.953125 55:-1 57:-0.500001 58:-0.333338 59:0.0212745 60:-0.0416673 61:-0.486488 62:-0.125 64:0.0434799 65:0.358487 66:-0.636364 67:0.684211 68:-0.542857 69:-0.625001 71:-0.0370367 72:0.0847454 73:-0.0945942 74:0.0163962 75:-0.693548 76:0.157896 78:0.249997 79:0.0344793 80:0.0615392 81:-0.038462 82:-0.731706 83:0.199999 85:-0.3 86:0.299996 87:0.446542 88:-0.13253 89:-0.91133 90:-0.75 92:0.142857 93:0.454543 94:0.179103 95:0.153845 96:-0.795455 97:-0.529411 99:0.764706 100:0.129034 101:0.0650887 102:-0.176469 103:-0.691589 104:-0.294117 106:-0.473685 107:0.34615 108:-0.0731717 109:-0.277107 110:-0.68 111:-0.714286 113:-0.519999 114:0.127277 115:0.423728 116:-0.333331 117:-0.832461 118:-0.75 120:-0.36842 121:-0.192982 122:0.0192289 123:0.169811 124:-0.835052 125:-0.529411 127:-1.125e-06 128:0.358488 129:0.160494 130:0.211265 131:-0.810945 132:-0.125 134:-0.500001 135:0.236365 136:0.217391 137:-0.162163 138:-0.813725 139:-0.8 141:-0.692307 142:0.320755 143:-0.236842 144:0.116884 145:-0.399999 146:-0.548388 148:0.181818 149:0.0204121 150:-0.318679 151:0.26316 152:-0.333331 153:-0.888889 155:-0.500001 156:0.434781 157:-0.356519 158:-3.75e-06 159:-0.652174 160:-0.200003 162:0.363637 163:0.200001 164:0.0517228 165:-0.19355 166:-0.736111 167:0.157896 169:-0.612903 170:0.254897 171:-0.212122 173:-0.522935 174:-0.478259 
0.485901369964301 1:-0.806452 2:-0.0384634 3:-0.104896 4:0.414633 5:-0.708333 6:-0.714286 8:-1 9:-0.932203 10:-0.735633 11:-0.559999 12:0.582222 13:-1 15:-1 16:-0.933333 17:-0.714286 18:-0.669903 19:0.654545 20:-1 22:-0.642856 23:-0.344262 24:0.417581 25:-0.252527 26:-0.741072 27:-0.764705 29:-0.250002 30:0.384616 31:-0.0394727 32:0.123598 33:-0.798742 34:-0.0526311 36:-0.428571 37:0.190472 38:-0.0693067 39:0.127271 40:-0.726027 41:-0.52381 43:-0.3 44:-0.282052 45:-0.295458 46:0.51111 47:-0.373132 48:-0.375001 50:-0.700001 51:-0.714285 52:-0.676473 53:0.482757 54:0.265625 55:-0.538463 57:-0.199999 58:-0.380952 59:-1.11022e-16 60:0.208336 61:-0.594595 62:-0.499999 64:-0.565217 65:0.773582 66:-0.313132 67:0.192978 68:-0.685714 69:-0.75 71:-0.851852 72:-0.152542 73:-0.283783 74:-0.0819693 75:1.81452e-06 76:-0.684211 78:-0.666667 79:-0.551724 80:-0.553846 81:-0.384616 82:0.280489 83:-0.600001 85:-1 86:-0.866667 87:-0.962264 88:-0.903614 89:0.940888 90:-1 92:-0.619047 93:-0.745454 94:-0.55224 95:-0.807693 96:0.534089 97:-0.764706 99:-0.764706 100:-0.419356 101:-0.2071 102:0.152941 103:-0.308412 104:-0.529411 106:-0.526316 107:-0.153843 108:-0.109756 109:-0.493975 110:-0.3 111:-0.0476197 113:-1 114:0.01818 115:0.20904 116:-0.12121 117:-0.602095 118:-0.875 120:-0.894737 121:-0.192982 122:-0.653846 123:0.396228 124:-0.257731 125:0.176469 127:-0.9 128:-0.207549 129:-2.77778e-07 130:0.577463 131:-0.552238 132:-0.375001 134:-0.666667 135:-0.381817 136:-0.130434 137:-0.216218 138:-0.303921 139:-0.700001 141:-0.0769213 142:-0.13208 143:-0.302631 144:0.0129869 145:-0.240001 146:-0.483871 148:-0.181818 149:-0.265302 150:0.362636 151:-0.36842 152:-0.507246 153:-0.444445 155:-0.500001 156:-0.217395 157:-0.373913 158:0.400001 159:-0.586958 160:-0.142859 162:-0.181818 163:-0.320001 164:-0.310345 165:0.741933 166:-0.611112 167:0.368422 169:-0.35484 170:-0.0196112 171:0.166665 172:-0.21875 173:-0.74312 174:-0.739131 
0.1239973265624797 1:-0.741936 2:0.192309 3:0.0209785 4:0.341464 5:-0.916667 6:-0.52381 8:-0.785714 9:0.288138 10:0.183909 11:0.300002 12:-0.902222 13:-0.6 15:-0.466665 16:0.266666 17:0.0526314 18:0.475728 19:-0.836364 20:-0.333332 22:-0.214283 23:0.114754 24:-0.0989023 25:0.434345 26:-0.857143 27:-0.411765 29:-0.833334 30:0.423082 31:-0.0131566 32:0.483147 33:-0.874214 34:-0.684211 36:-0.52381 37:-0.238099 38:0.0297022 39:0.381815 40:-0.835616 41:-0.333333 43:-0.700001 44:-0.384618 45:0.545454 46:-0.37777 47:-0.701492 48:-0.375001 50:-0.8 51:-0.392856 52:0.735294 53:-0.241378 54:-0.984375 55:-1 57:-0.199999 58:-0.428577 59:0.191489 60:0.0416673 61:-0.72973 62:-0.375001 64:-0.21739 65:0.0566057 66:0.0303045 67:0.0877182 68:-0.685714 69:-0.625001 71:-0.925926 72:0.0508504 73:0.391892 74:0.0491798 75:-0.919355 76:-0.894737 78:-3.74999e-06 79:0.379311 80:0.338462 81:-0.538464 82:-0.829268 83:-0.333334 85:-0.700001 86:0.633333 87:0.459119 88:-0.13253 89:-0.970443 90:-0.875 92:-0.0476197 93:0.12727 94:0.626863 95:-0.230767 96:-0.909091 97:-0.411766 99:-1 100:0.225805 101:0.384615 102:0.176468 103:-0.962617 104:-0.411766 106:-0.789474 107:0.0769202 108:0.158537 109:-0.469881 110:-0.7 111:-0.428571 113:-0.84 114:0.200005 115:0.536724 116:-0.363637 117:-0.91623 118:-0.625001 120:-0.894737 121:-0.0526291 122:0.153844 123:-0.018866 124:-0.85567 125:-0.529411 127:-0.9 128:0.169811 129:0.641975 130:-0.0704217 131:-0.910448 132:-0.75 134:-0.750001 135:0.163637 136:0.282609 137:0.0270256 138:-0.921569 139:-0.500001 141:-0.948718 142:-0.471699 143:-4.44079e-07 144:-0.948052 145:0.699999 146:-0.935484 148:-0.545455 149:-0.183668 150:0.824178 151:-0.578949 152:-0.797101 153:-0.777778 155:-0.16667 156:0.30435 157:-0.269564 158:0.0666637 159:-0.76087 160:-0.37143 162:-0.0909102 163:0.239997 164:0.482756 165:-0.387094 166:-0.861111 167:-0.473684 169:-0.741936 170:0.490194 171:-0.151515 172:-0.687503 173:-0.211011 174:-0.739131 
0.6447924682129051 1:-0.935484 2:3.02885e-06 3:0.0909079 4:0.365852 5:-0.861111 6:-0.714286 8:-0.714284 9:0.254235 10:0.0689651 11:0.380003 12:-0.857778 13:-0.519999 15:-0.599998 16:0.566666 17:-0.233081 18:0.300971 19:-0.709092 20:0.133337 22:-0.642856 23:0.245903 24:0.0549457 25:0.191918 26:-0.857143 27:-0.411765 29:-0.833334 30:0.0384612 31:0.0789483 32:0.505617 33:-0.886793 34:-0.36842 36:-0.333333 37:0.38095 38:-0.108911 39:0.0181828 40:-0.69863 41:-0.619047 43:-1.125e-06 44:-0.282052 45:0.159088 46:-0.15555 47:-0.671642 48:-0.125 50:-0.3 51:2.8125e-06 52:0.338235 53:-0.206898 54:-0.875 55:-0.538463 57:-0.399999 58:0.190472 59:-0.212769 60:0.249999 61:-0.675676 62:-0.249999 64:-0.391303 65:-0.0188669 66:-0.171718 67:0.543859 68:-0.742857 69:-0.249999 71:-0.481482 72:0.152543 74:0.344262 75:-0.83871 76:-0.263158 78:-0.250002 79:0.275858 80:0.138461 81:0.153844 82:-0.841463 83:-0.0666675 85:-0.1 86:0.433331 87:0.0817617 88:0.108431 89:-0.832512 90:-0.125 92:0.238096 93:0.527271 94:-0.0298511 95:0.423074 96:-0.784091 97:-0.176471 99:-0.764706 100:0.451611 101:0.0887576 102:0.270587 103:-0.850467 104:-0.411766 106:-1 107:0.0769202 108:-0.0121939 109:-0.0602394 110:-0.66 111:-0.52381 113:-0.519999 114:-0.01818 115:0.355933 116:0.0303038 117:-0.853403 118:-0.75 120:-0.789474 121:-0.0526291 122:0.384616 123:-0.358488 124:-0.938144 125:-0.529411 127:-0.500001 128:0.169811 129:0.555555 130:0.0140831 131:-0.890547 132:-1 134:-0.750001 135:0.127277 136:0.119565 137:-0.162163 138:-0.735295 139:-0.1 141:-0.846154 142:-0.0566074 143:0.118421 144:-0.66234 145:0.0199996 146:-0.870968 148:-0.363637 149:-0.183668 150:0.296704 151:-0.578949 152:-0.478261 153:0.444445 155:-0.333335 156:0.0869511 157:-0.182608 158:0.266666 159:-0.869566 160:-0.314288 162:-0.363637 163:0.319997 164:0.0689663 166:-0.75 167:0.0526311 169:0.0322562 170:0.254897 171:-0.242425 172:0.031254 173:-0.706422 174:-0.391303 
0.005088436100644319 1:-0.096776 2:0.692312 3:-0.510491 4:0.0975591 5:-0.583332 6:-0.428571 8:-0.357141 9:-0.22034 10:0.45977 12:-0.884444 13:-0.76 15:0.0666692 16:0.400001 17:0.0977431 18:0.184465 19:-0.80909 20:-0.533332 22:-0.357141 23:0.0819701 24:0.31868 25:-0.0505045 26:-0.875 27:-0.941176 29:-0.416669 30:0.576922 31:-0.223685 32:0.0786531 33:-0.610063 34:-0.263158 36:-0.428571 37:0.38095 38:-0.58416 39:0.418183 40:-0.452056 41:-0.142857 43:0.399999 44:-0.0256443 45:-0.0681827 46:-0.06666 47:-0.641791 48:-0.375001 50:-0.500001 51:0.428572 52:-0.132353 53:0.137933 54:-0.796875 55:0.538459 57:-0.199999 58:0.333337 59:-0.297871 60:0.500002 61:-0.756757 62:-0.75 64:0.304351 65:0.245283 66:-0.575759 67:0.0526341 68:-0.257141 69:1.40625e-06 71:0.407407 72:0.254235 73:-0.31081 74:-0.442626 75:-0.51613 76:1 78:0.666662 79:0.275858 80:0.123075 81:-0.19231 82:-0.804878 83:-0.600001 85:-0.1 86:0.266666 87:0.333334 88:-0.108436 89:-0.901478 90:1.40625e-06 92:-0.238094 93:0.418183 94:0.522386 95:-0.192309 96:-0.886364 97:-0.64706 99:-0.0588229 100:0.387094 101:0.0769245 102:0.200001 103:-0.859813 104:-0.294117 106:0.473678 107:0.46154 108:-0.90244 109:0.0602415 110:-0.219999 111:0.238096 113:0.0400014 114:0.636367 115:-0.0169492 116:-0.0303031 117:-0.811518 118:1.40625e-06 120:-0.36842 121:0.894739 122:-0.480769 123:-0.471701 124:-0.649485 125:-0.176471 127:0.399999 128:0.773583 129:0.160494 130:-0.239438 131:-0.800995 132:-0.125 134:0.0833304 135:0.345453 136:-0.217392 137:0.270269 138:-0.794118 139:0.399999 141:0.487184 142:0.471701 143:-0.736843 144:-0.116882 145:-0.100002 146:-0.225808 148:0.545455 149:0.224492 150:-0.362636 151:-0.0877225 152:-0.42029 153:-0.222222 155:0.333329 156:0.217392 157:-0.252174 158:-0.133331 159:-0.717391 160:-0.428574 162:-0.545455 163:-0.0400018 164:0.672412 165:-0.483873 166:-0.791667 167:-0.578947 169:0.0322562 170:0.647059 171:-0.530303 172:-0.374998 173:-0.357798 174:-0.130434 
2 1:-0.935484 2:-0.230769 3:0.300699 4:0.195121 5:-0.930555 6:-0.428571 8:-0.785714 9:0.355935 10:0.183909 11:0.36 12:-0.928889 13:-0.76 15:-0.466665 16:-3.75e-06 17:-0.112783 18:0.689321 19:-0.754546 20:-0.399998 22:-0.642856 23:-0.213112 24:0.252748 25:0.111109 26:-0.830357 27:-0.588235 29:-0.500001 30:-0.230769 31:0.48684 32:-0.146069 33:-0.811321 34:-0.894737 36:-0.619047 37:-0.285713 38:0.465347 39:-0.236361 40:-0.863013 41:-0.52381 43:-0.500001 44:0.333341 45:-0.0454577 46:0.02223 47:-0.731343 48:-0.125 50:-1 51:-0.214286 52:0.573529 53:3.87931e-07 54:-0.96875 55:-1 57:-0.3 58:-0.190474 59:0.191489 60:-0.125002 61:-0.675676 62:-0.625001 64:-0.565217 65:0.0188652 66:0.272727 67:-0.263155 68:-0.714285 69:-0.125 71:-1 72:-0.254234 73:0.716217 74:-0.409835 75:-0.967742 76:-0.578947 78:-0.416669 79:-0.24138 80:0.184614 81:0.384616 82:-0.719513 83:-0.333334 85:-0.9 86:0.199999 87:0.345912 88:0.156625 89:-0.901478 90:-0.249999 92:-0.619047 93:-0.272728 94:0.417909 95:0.192311 96:-0.681818 97:-0.411766 99:-0.882353 100:-0.0967789 101:0.360946 102:0.0352954 103:-0.775701 104:-0.764706 106:-0.894737 107:-0.653846 108:0.621953 109:-0.590362 110:-0.88 111:-0.714286 113:-0.76 114:0.418182 115:0.355933 116:-0.0303031 117:-0.926701 118:-0.75 120:-0.578947 121:-0.403511 122:0.326921 123:-0.245283 124:-0.85567 125:-0.0588229 127:-0.8 128:0.283016 129:0.617283 130:-0.0140831 131:-0.970149 132:-0.499999 134:-0.666667 135:-0.272726 136:0.52174 137:-0.243242 138:-0.901961 139:-0.8 141:-0.74359 142:-0.471699 143:0.473684 144:0.0389583 145:-0.92 146:-0.741936 148:-0.727273 149:0.142858 150:0.362636 151:-0.228075 152:-0.739131 153:-0.444445 155:-0.333335 156:0.0869511 157:0.113046 158:-0.166669 159:-0.869566 160:-0.542858 162:-0.818182 163:0.200001 164:0.551723 165:-0.19355 166:-0.861111 167:-0.578947 169:-0.290324 170:0.254897 171:-0.196969 172:0.031254 173:-0.724771 174:-0.130434 
0.08143786961449777 1:-1 2:0.115385 3:0.0349663 4:0.560976 5:-0.958333 6:-0.619047 8:-0.928571 9:-0.22034 10:0.229887 11:0.340002 12:-0.768888 13:-0.92 15:-1 16:-1 17:-0.864662 18:-0.805826 19:0.827274 20:-1 22:-0.928571 23:-0.606557 24:-0.78022 25:0.0505045 26:0.187501 27:-0.647058 29:-1 30:0.153852 31:0.157894 32:0.438203 33:-0.899371 34:-0.684211 36:-0.714286 37:0.142858 38:0.108911 39:0.0545428 40:-0.808219 41:-0.52381 43:-0.399999 44:-0.589738 45:0.772724 46:-0.91111 47:-0.582089 48:-0.499999 50:-1 51:-0.499999 52:0.808823 53:-0.275865 54:-0.984375 55:-0.846154 57:-0.399999 58:-0.619044 59:0.404253 60:0.125002 61:-0.891892 62:-0.375001 64:-0.565217 65:0.207542 66:0.0101 67:0.298247 68:-0.857142 69:-0.499999 71:-0.851852 72:-0.186437 73:0.594596 74:-0.245902 75:-0.951613 76:-0.684211 78:-0.833334 79:-0.275863 80:0.246153 81:0.0769197 82:-0.560975 83:-0.733333 85:-1 86:-0.400001 87:0.4717 88:0.301205 89:-0.842365 90:-0.625001 92:-0.904762 93:-0.6 94:0.238805 95:0.230769 96:-0.420455 97:-0.411766 99:-0.529411 100:-0.225805 101:0.147929 102:0.294119 103:-0.710281 104:-0.64706 106:-0.947369 107:-0.423077 108:0.536587 109:-0.445781 110:-0.9 111:-1 113:-0.6 114:-0.0909083 115:0.446327 116:-0.0606031 117:-0.905759 118:-0.375001 120:-0.894737 121:-0.157898 122:0.326921 123:-0.320756 124:-0.814433 125:-0.529411 127:-0.8 128:0.056598 129:0.851853 130:-0.492958 131:-0.920398 132:-0.625001 134:-0.666667 135:-0.272726 136:0.543477 137:-0.216218 138:-0.95098 139:-0.6 141:-0.846154 142:-0.0943394 143:0.421051 144:-0.220779 145:-0.78 146:-0.806452 148:-0.272727 149:0.0204121 150:0.780222 151:-1 152:-0.652174 153:-0.666667 155:-0.416669 156:0.173909 157:0.0956524 158:-0.233336 159:-0.847826 160:-0.485716 162:-0.454545 163:0.12 164:0.810345 165:-0.774195 166:-0.847222 167:-0.578947 169:-0.548388 170:0.137253 171:0.121212 172:-0.343751 173:-0.669726 174:-0.565217 
0.9869168922523199 1:-0.935484 2:-0.730769 3:0.468531 4:0.243902 5:-0.861111 6:-1 8:-0.642856 9:0.22034 10:-0.0689651 11:0.380003 12:-0.76 13:-0.44 15:-0.533332 16:-0.0666712 17:0.548873 18:0.14563 19:-0.890909 20:-0.266665 22:-0.785714 23:0.0819701 24:0.373627 25:-0.0707091 26:-0.875 27:-0.82353 29:-0.750001 30:-0.499999 31:0.671053 32:-0.41573 33:-0.710691 34:-0.894737 36:-0.238094 37:-0.809524 38:0.782178 39:-0.890906 40:-0.589041 41:-0.619047 43:-0.700001 44:-0.179487 45:0.340908 46:0.11111 47:-0.791045 48:-0.75 50:-0.8 51:-0.107145 52:0.249998 53:0.41379 54:-0.921875 55:-0.692308 57:-0.199999 58:-0.428577 59:0.17021 60:-0.0833392 61:-0.594595 62:-0.499999 64:-0.565217 65:-0.0566074 66:-0.232323 67:0.649119 68:-0.685714 69:-0.125 71:-0.925926 72:-0.118647 73:0.445947 74:-0.0163947 75:-0.854839 76:-1 78:-0.333335 79:-0.310345 80:0.646151 81:-0.230768 82:-0.841463 83:-0.733333 85:-0.8 86:-0.100001 87:0.6478 88:-0.108436 89:-0.931034 90:-0.499999 92:-0.619047 93:0.0181823 94:0.671641 95:-0.269233 96:-0.829546 97:-0.411766 99:-0.882353 100:-0.161288 101:0.467455 102:0.270587 103:-0.925234 104:-0.882353 106:-0.894737 107:-0.615385 108:0.317075 109:-0.18072 110:-0.74 111:-0.714286 113:-0.76 114:-0.381817 115:0.638419 116:-0.272724 117:-0.884817 118:-0.625001 120:-0.36842 121:-0.192982 122:0.153844 123:-0.207551 124:-0.793815 125:-0.411766 127:-0.3 128:0.39622 129:0.333333 130:0.0140831 131:-0.840796 132:-0.375001 134:-0.750001 135:-0.01818 136:0.445651 137:-0.135133 138:-0.911765 139:-1 141:-0.948718 142:-0.509434 143:0.157893 144:0.194804 145:-0.460002 146:-0.741936 148:-0.727273 149:-0.265302 150:-0.318679 151:1 152:-0.478261 153:-0.777778 155:-0.666667 156:3.42391e-06 157:0.147829 158:0.133331 159:-0.869566 160:-0.828572 162:-0.454545 163:0.479999 164:0.362067 165:-0.322577 166:-0.819444 167:-0.473684 169:-0.870968 170:-0.0980435 171:0.106062 172:0.0625009 173:-0.724771 174:-0.391303 
0.1647927581035262 1:-0.935484 2:-0.115379 3:0.188813 4:0.0731713 5:-0.763889 6:-0.619047 8:-0.714284 9:0.22034 10:-0.0459763 11:0.600004 12:-0.84 13:-0.679999 15:-0.266665 16:0.100001 17:0.127819 18:0.514564 19:-0.845454 20:-0.599998 22:-0.714284 23:-0.245903 24:0.164835 25:0.49495 26:-0.875 27:-0.82353 29:-0.750001 30:-0.499999 31:0.342106 32:-0.0112356 33:-0.698113 34:-0.263158 36:-0.333333 37:-0.523806 38:0.247524 39:-0.0181853 40:-0.671233 41:-0.52381 43:-0.199999 44:-0.692303 45:-2.55682e-06 46:0.37778 47:-0.61194 48:0.249999 50:-0.8 51:-0.392856 52:0.632353 53:-0.172411 54:-0.96875 55:-0.384615 57:-0.1 58:-0.428577 59:-0.234043 60:0.666662 61:-0.486488 62:-1 64:-0.478259 65:-0.169812 66:0.373736 67:-0.22807 68:-0.714285 69:-0.375001 71:-0.62963 72:-0.423729 73:-0.0405395 74:0.868851 75:-0.725806 76:-0.36842 78:-0.500001 79:0.517244 80:0.169231 81:-0.038462 82:-0.865854 83:0.0666675 85:-0.700001 86:0.199999 87:0.496857 88:-0.0843364 89:-0.921182 90:-0.499999 92:-0.238094 93:0.381815 94:0.28358 95:0.0384629 96:-0.795455 97:-0.294117 99:-0.764706 100:0.0967716 101:0.0414197 102:0.670589 103:-0.906542 104:0.0588229 106:-0.631579 107:-3.85096e-06 108:-0.365853 109:0.445784 110:-0.6 111:-0.52381 113:-0.76 114:0.272733 115:0.141242 116:0.121211 117:-0.769634 118:-0.375001 120:-0.684211 121:-0.122805 122:0.326921 123:-0.207551 124:-0.85567 125:-1 127:-0.8 128:0.056598 129:0.444444 130:0.521125 131:-0.960199 132:-0.499999 134:-0.916667 135:0.01818 136:-0.0543477 137:0.675677 138:-0.843137 139:-1.125e-06 141:-0.692307 142:-0.0566074 143:-0.131578 144:0.0649356 145:-0.34 146:-0.483871 148:-0.545455 149:-0.183668 150:-0.274723 151:0.543857 152:-0.391304 153:-0.333333 155:-0.583335 156:0.0434773 157:-0.147825 158:0.400001 159:-0.782609 160:-0.657143 162:-0.727273 163:-0.200003 164:0.258618 165:0.580644 166:-0.833333 167:-0.578947 169:-0.741936 170:-0.647059 171:0.196969 172:0.156249 173:-0.59633 174:-0.739131 
0.2985811760299676 1:-0.935484 2:0.192309 3:-0.0909079 4:0.512195 5:-0.875 6:-0.428571 8:-0.857142 9:0.05085 10:0.218391 11:0.560003 12:-0.946667 13:-0.84 15:-0.933333 16:-0.266667 17:-0.0225558 18:0.572815 19:-0.545455 20:-0.933333 22:-1 23:0.0491791 24:-0.120878 25:0.131314 26:-0.508928 27:-0.941176 29:-0.916667 30:-0.192303 31:-0.0526322 32:0.775278 33:-0.836478 34:-0.263158 36:-0.714286 37:0.0476185 38:0.168316 39:0.0181828 40:-0.835616 41:-0.428571 43:-0.3 44:-0.179487 45:0.204543 46:-0.02222 47:-0.731343 48:-0.375001 50:-0.9 51:2.8125e-06 52:0.411764 53:0.137933 54:-0.984375 55:-0.846154 57:-0.8 58:-0.285713 59:0.361699 60:0.0416673 61:-0.783784 62:-0.75 64:-0.565217 65:0.207542 66:0.313132 67:-0.298247 68:-0.8 69:-0.499999 71:-1 72:0.0508504 73:0.486486 74:-0.147544 75:-0.935484 76:-0.789474 78:-0.16667 79:0.137933 80:0.369228 81:-0.115386 82:-0.878049 83:-0.333334 85:-0.8 86:-0.0333337 87:0.685535 88:-0.180723 89:-0.960591 90:-0.375001 92:-0.52381 93:0.309087 94:0.358206 95:0.153845 96:-0.818182 97:-0.411766 99:-0.764706 100:-0.0645168 101:0.360946 102:0.176468 103:-0.869159 104:-0.529411 106:-1 107:-0.346154 108:0.451219 109:-0.397588 110:-0.9 111:-0.619047 113:-0.84 114:0.200005 115:0.38983 116:-0.09091 117:-0.884817 118:-0.499999 120:-0.578947 121:-0.473685 122:0.403845 123:-0.358488 124:-0.793815 125:-0.294117 127:-0.700001 128:-0.018866 129:0.864197 130:-0.380281 131:-0.940298 132:-0.875 134:-1 135:0.272733 136:0.26087 137:0.135135 138:-0.921569 139:-0.700001 141:-0.897436 142:-0.169812 143:0.68421 144:-0.532465 145:-0.88 146:-0.806452 148:-0.363637 149:0.102046 150:0.186814 151:0.0526303 152:-0.739131 153:-0.777778 155:-0.666667 156:0.173909 157:0.113046 158:-0.166669 159:-0.869566 160:-0.428574 162:-0.272727 163:0.479999 164:0.206895 165:0.129034 166:-0.902778 167:-0.578947 169:-0.548388 170:0.137253 171:-1.70454e-06 172:-0.406252 173:-0.651375 174:0.217394 
0.5046569361341169 1:-0.741936 2:0.538464 3:-0.300699 4:0.463414 5:-0.763889 6:-0.714286 8:-0.571427 9:0.322032 10:0.287357 11:0.160002 12:-0.946667 13:-0.679999 15:-0.533332 16:0.400001 17:0.323308 18:0.300971 19:-0.909091 20:-0.599998 22:-0.785714 23:0.0491791 24:0.428572 25:0.0303045 26:-0.9375 27:-0.941176 29:-0.666667 30:3.46154e-06 31:0.0394727 32:0.370784 33:-0.811321 34:-0.157893 36:-0.714286 37:-0.285713 38:0.742573 39:-0.490906 40:-0.917808 41:-0.904762 43:-0.700001 44:-0.384618 45:0.431819 46:-0.28889 47:-0.671642 48:-0.125 50:-0.9 51:0.0357136 52:0.32353 53:0.103446 54:-0.890625 55:-0.846154 57:-0.8 58:-0.761905 59:0.361699 60:0.125002 61:-0.756757 62:0.125 64:-0.739131 65:0.207542 66:0.232323 67:0.192978 68:-0.942857 69:-0.875 71:-0.407407 72:0.186438 73:0.0810821 74:0.278687 75:-0.870968 76:-0.684211 78:-0.666667 79:0.275858 80:0.476924 81:-0.19231 82:-0.902439 83:-0.466666 85:-0.399999 86:0.166669 87:0.849057 88:-0.614458 89:-0.990148 90:-0.625001 92:-0.428571 93:0.199999 94:0.731343 95:-0.346157 96:-0.920454 97:-0.529411 99:-0.64706 100:0.354839 101:0.313611 102:-0.0117641 103:-0.878505 104:-0.64706 106:-0.947369 107:0.0769202 108:0.317075 109:-0.397588 110:-0.88 111:-0.809524 113:-0.84 114:-0.236363 115:0.807911 116:-0.666666 117:-0.905759 118:-1 120:-1 121:-0.263158 122:0.53846 123:-0.283016 124:-0.938144 125:-0.764706 127:-0.9 128:0.056598 129:0.950617 130:-0.521125 131:-0.950249 132:-1 134:-1 135:-0.163637 136:0.543477 137:-0.162163 138:-0.941176 139:-0.8 141:-0.589742 142:0.396228 143:-0.171054 144:0.246753 145:-0.64 146:-0.67742 148:-0.0909102 149:0.142858 150:0.0989012 151:-0.228075 152:-0.507246 153:-0.777778 155:-0.416669 156:-0.0869541 157:-0.0260863 158:0.166669 159:-0.76087 160:-0.657143 162:-0.454545 163:0.239997 164:0.534483 165:-0.580644 166:-0.805556 167:-0.157893 169:-0.806452 170:-0.137255 171:0.287879 172:-0.0625009 173:-0.798165 174:-0.739131 
0.4548825803037605 1:-1 2:0.346157 3:-0.132868 4:0.682926 5:-0.944444 6:-0.619047 8:-1 9:-0.22034 10:0.298851 11:0.32 12:-0.813333 13:-0.84 15:-1 16:-0.966667 17:-0.969925 18:-0.747573 19:0.854546 20:-1 22:-1 23:-0.803278 24:-0.824176 25:-0.333332 26:0.482142 27:-0.82353 29:-1 30:-0.115387 31:0.355263 32:0.2809 33:-0.937107 34:-0.473684 36:-0.52381 37:-0.238099 38:0.168316 39:0.309087 40:-0.890411 41:-0.619047 43:-0.6 44:-0.692303 45:0.863635 46:-0.82222 47:-0.641791 48:-0.499999 50:-1 51:-0.321428 52:0.750002 53:-0.413797 54:-0.9375 55:-0.846154 57:-0.9 58:-0.523805 59:0.48936 60:0.0416673 61:-0.783784 62:-0.75 64:-0.739131 65:-0.0188669 66:0.252527 67:0.0877182 68:-0.857142 69:-0.249999 71:-1 72:0.118648 73:0.445947 74:-0.0491783 75:-0.951613 76:-0.894737 78:-0.833334 79:-0.24138 80:0.153845 81:0.307692 82:-0.62195 83:-0.199999 85:-0.9 86:-0.166669 87:0.421385 88:0.228912 89:-0.871921 90:-0.375001 92:-0.809524 93:-0.345455 94:0.179103 95:-0.307691 96:-0.284092 97:-0.64706 99:-0.64706 100:-0.161288 101:0.147929 102:0.341179 103:-0.728973 104:-0.764706 106:-1 107:-0.19231 108:0.426831 109:-0.78313 110:-0.62 111:-0.619047 113:-0.679999 114:0.45455 115:0.333334 116:-0.181817 117:-0.895288 118:-0.499999 120:-0.894737 121:-0.122805 122:0.384616 123:-0.207551 124:-0.917526 125:-0.764706 127:-0.9 128:0.056598 129:0.901236 130:-0.661973 131:-0.890547 132:-0.625001 134:-0.500001 135:-0.236363 136:0.326088 137:0.0270256 138:-0.931372 139:-1.125e-06 141:-1 142:-0.169812 143:0.394735 144:-0.272728 145:-0.62 146:-0.741936 148:-0.454545 149:-0.510203 150:0.956043 151:-0.614034 152:-0.797101 153:-0.555555 155:-0.333335 156:-0.304353 157:0.373913 158:-0.333333 159:-0.826087 160:-0.714287 162:-0.454545 163:0.12 164:0.844828 165:-0.580644 166:-0.902778 167:-1 169:-0.806452 170:-0.0588229 171:0.196969 172:0.0625009 173:-0.798165 174:-0.739131 
0.07321102935260301 1:0.0967731 2:0.230776 3:-0.454546 4:0.292683 5:-0.666667 6:-0.142857 8:-0.428569 9:-0.22034 10:0.494254 11:-0.119997 12:-0.875556 13:-0.519999 15:0.200003 16:0.633333 17:-0.0375953 18:0.242716 19:-0.836364 20:-0.533332 22:-0.714284 23:0.147545 24:0.406593 25:-0.131314 26:-0.910714 27:-0.764705 29:-0.250002 30:0.307691 31:-0.131578 32:0.168537 33:-0.672956 34:-0.36842 36:-0.238094 37:0.47619 38:-0.702969 39:0.454543 40:-0.534247 41:0.238096 43:0.3 44:-0.0256443 45:-0.204548 46:-0.06666 47:-0.462686 48:-0.249999 50:-1.125e-06 51:0.464291 52:-0.294118 53:0.310345 54:-0.78125 55:0.384615 57:-0.399999 58:0.428565 59:-0.234043 60:0.374996 61:-0.837838 62:-0.375001 64:0.478265 65:0.320755 66:-0.656564 67:0.0877182 68:-0.142854 69:-0.625001 71:0.25926 72:0.355935 73:-0.229728 74:-0.114753 75:-0.596775 76:-0.263158 78:0.499995 79:0.344824 80:-0.107692 81:0.192302 82:-0.792683 83:-0.0666675 85:-0.399999 86:0.166669 87:0.245284 88:-0.0120491 89:-0.871921 90:0.75 92:-0.0476197 93:0.454543 94:0.522386 95:-0.307691 96:-0.909091 97:-0.411766 99:0.0588229 100:0.451611 101:-0.0177513 102:0.176468 103:-0.803738 104:-0.294117 106:0.473678 107:0.423074 108:-0.743903 109:-0.0602394 110:-0.219999 111:-0.428571 113:0.0400014 114:0.781823 115:-0.0621475 116:0.181818 117:-0.842932 118:-0.499999 120:0.157896 121:0.824563 122:-0.73077 123:-0.0943385 124:-0.71134 125:0.176469 127:0.6 128:0.39622 129:0.28395 130:-0.183099 131:-0.830846 132:-0.249999 134:0.166663 135:0.600007 136:-0.195653 137:0.108111 138:-0.754901 139:-0.399999 141:0.538461 142:0.283015 143:-0.68421 144:-0.142859 145:-0.100002 146:-0.161291 148:0.363637 149:0.142858 150:-0.494506 151:0.298244 152:-0.507246 155:0.249997 156:0.434781 157:-0.460869 158:-0.100001 159:-0.630435 160:-0.257145 162:-0.545455 163:0.479999 164:0.293101 165:-0.19355 166:-0.777778 167:-0.684211 169:0.354836 170:0.411762 171:-0.651516 172:-0.187496 173:-0.431193 174:0.478265 
0.6079814112609492 1:-0.935484 2:-0.0384634 3:0.160841 4:0.195121 5:-0.875 6:-0.333333 8:-0.714284 9:0.457628 10:-0.149425 11:0.36 12:-0.768888 13:-0.2 15:-0.599998 16:-0.100001 17:-0.293233 18:0.61165 19:-0.6 20:-0.133331 22:-0.499998 23:-0.114754 24:-0.45055 25:1 26:-0.705357 27:-0.529411 29:-0.666667 30:0.192309 31:-0.0263161 32:0.460673 33:-0.849057 34:-0.263158 36:-0.809524 37:-0.0952349 38:0.0495067 39:0.454543 40:-0.945205 41:-0.238094 43:-0.6 44:-0.384618 45:0.659089 46:-0.68889 47:-0.641791 48:-0.499999 50:-0.9 51:-0.035716 52:0.426471 53:-0.0344866 54:-0.9375 55:-0.538463 57:-0.3 58:-0.238098 59:-0.0212792 60:0.166664 61:-0.72973 62:0.125 64:-0.391303 65:0.584905 66:-0.292927 67:0.263155 68:-0.771428 69:-0.375001 71:-0.851852 72:-0.0508496 73:0.675678 74:-0.540984 75:-0.951613 76:-0.789474 78:-0.500001 79:0.103446 80:0.292306 81:0.192302 82:-0.878049 83:-0.0666675 85:-0.9 86:-0.0333337 87:0.232704 88:0.204818 89:-0.802956 90:0.249999 92:-0.619047 93:0.0545423 94:0.402985 95:0.423074 96:-0.806818 97:-0.764706 99:-1 100:0.193543 101:0.183433 102:0.435292 103:-0.897196 104:-0.411766 106:-1 107:0.269235 108:0.0243906 109:-0.0843388 110:-0.78 111:-0.619047 113:-0.679999 114:0.418182 115:0.344632 116:-0.0303031 117:-0.905759 118:-1 120:-1 121:-0.0526291 122:0.423078 123:-0.283016 124:-0.917526 125:-0.882353 127:-0.700001 128:0.39622 129:0.666667 130:-0.267604 131:-0.940298 132:-0.75 134:-0.333335 135:0.563638 136:-0.0652161 137:0.270269 138:-0.892157 139:-0.1 141:-0.794871 142:0.132078 143:0.236842 144:-0.168831 145:-0.72 146:-0.67742 148:-0.272727 149:0.224492 150:0.274728 151:-0.192983 152:-0.768116 153:-0.777778 155:-3.74999e-06 156:0.260866 157:-0.33913 158:0.0333337 159:-0.717391 160:-0.257145 162:-0.0909102 163:0.239997 164:0.293101 165:-0.258067 166:-0.777778 167:-0.36842 169:-0.35484 170:0.0980417 171:0.136362 172:-0.28125 173:-0.779816 174:-0.478259 
0.1051093088586912 1:-0.935484 2:-0.115379 3:0.104896 4:-0.170734 5:-0.48611 6:-1 8:-0.785714 9:0.118648 10:0.344828 11:0.340002 12:-0.973333 13:-0.84 15:-0.266665 16:0.299996 17:0.142858 18:0.203885 19:-0.80909 20:-0.266665 22:-0.857142 23:-0.114754 24:0.637362 25:-0.171718 26:-0.973214 27:-0.882353 29:-0.666667 30:-0.461538 31:0.236842 32:0.101123 33:-0.647798 34:-0.578947 36:-0.809524 37:-0.380953 38:0.247524 39:0.199999 40:-0.643836 41:-1 43:-0.6 44:-0.179487 45:0.249998 46:-0.33333 47:-0.582089 48:1.40625e-06 50:-0.9 51:-0.0714267 52:0.470588 53:3.87931e-07 54:-0.96875 55:-0.692308 57:-0.6 58:0.428565 59:-0.170215 60:0.125002 61:-0.702703 62:-0.375001 64:-0.478259 65:-0.0943394 66:-0.232323 67:0.0175421 68:2.25e-06 69:-0.875 71:-0.777778 72:0.355935 73:0.135137 74:0.147538 75:-0.870968 76:-0.684211 78:-3.74999e-06 79:0.103446 80:0.369228 81:-0.115386 82:-0.890244 83:-0.333334 85:-0.8 86:0.133331 87:0.459119 88:-0.0602425 89:-0.862069 90:-0.625001 92:-0.619047 93:0.163639 94:0.432836 95:0.34615 96:-0.863636 97:-0.529411 99:-0.764706 100:0.290322 101:0.325444 102:0.0588224 103:-0.925234 104:-0.176471 106:-0.736843 107:0.115387 108:-0.243903 109:0.325303 110:-0.72 111:-0.52381 113:-0.359999 114:0.345453 115:-0.00564839 116:0.303031 117:-0.821989 118:0.249999 120:-0.473684 121:0.473682 122:-0.288463 123:0.0943385 124:-0.876288 125:-0.294117 127:-0.3 128:-0.018866 129:0.407408 130:0.323943 131:-0.920398 132:-0.125 134:-0.750001 135:0.309093 136:0.130436 137:0.18919 138:-0.862745 139:-0.700001 141:-0.897436 142:-0.509434 143:0.13158 144:-0.532465 145:0.199999 146:-1 148:-0.636363 149:0.632652 150:-0.20879 151:0.0526303 152:-0.652174 153:-0.222222 155:-0.416669 156:0.173909 157:-0.147825 158:0.266666 159:-0.913043 160:-0.37143 162:-0.0909102 163:0.12 164:0.103446 165:0.225805 166:-0.777778 167:-0.473684 169:-0.935484 170:0.294118 171:0.227272 172:-0.187496 173:-0.816514 174:-0.739131 
0.03146105628708325 1:-0.0322591 2:0.500006 3:-0.636365 4:0.195121 5:-0.541667 6:0.142857 8:-0.357141 9:0.457628 10:0.0114944 11:0.120002 12:-0.831111 13:-0.2 15:-0.533332 16:0.433331 17:0.157894 18:0.281551 19:-0.872727 20:-0.133331 22:-0.642856 23:-0.114754 24:0.45055 25:0.0303045 26:-0.9375 27:-0.882353 29:0.499995 30:0.384616 31:-0.526316 32:0.505617 33:-0.597483 34:-0.578947 36:0.52381 37:0.333336 38:-0.683169 39:0.309087 40:-0.534247 41:0.0476197 43:0.399999 44:0.0769213 45:-0.477274 46:-0.06666 47:-0.402986 48:0.625001 50:-0.199999 51:0.464291 53:-0.413797 54:-0.703125 55:0.0769223 57:-1.125e-06 58:0.380951 59:-0.255322 60:0.166664 61:-0.702703 62:-0.625001 64:0.304351 65:0.283015 66:-0.373736 67:-0.22807 68:-0.314285 69:-0.125 71:-0.185185 72:0.728818 73:-0.418916 74:0.213113 75:-0.709677 76:0.368422 78:-3.74999e-06 79:0.41379 80:-2.22045e-16 81:0.230768 82:-0.865854 83:0.199999 85:-0.1 86:0.499998 87:0.232704 88:-0.13253 89:-0.852217 90:-0.375001 92:-0.238094 93:0.454543 94:0.522386 95:-0.153843 96:-0.909091 97:-0.64706 99:-0.411766 100:0.516127 101:0.0650887 102:0.200001 103:-0.859813 104:-0.294117 106:-0.210526 107:0.653846 108:-0.451219 109:-0.301207 110:-0.460002 111:0.0476197 113:-0.119999 114:0.0545483 115:0.265536 116:-0.0606031 117:-0.853403 118:-0.249999 120:0.789476 121:0.473682 122:-0.615384 123:-0.132079 124:-0.71134 125:0.0588229 127:-0.3 128:0.509433 129:0.456792 130:-0.295776 131:-0.830846 132:-0.75 134:0.416663 135:0.745455 136:-0.358694 137:0.108111 138:-0.705882 139:-0.1 141:-0.230767 142:0.584905 143:-0.355264 144:0.0389583 145:-0.560001 146:-0.290324 148:0.272727 149:0.102046 150:-0.186814 151:-0.228075 152:-0.42029 155:-0.416669 156:0.130435 157:0.147829 158:-0.366663 159:-0.739131 160:-0.657143 162:0.272727 163:0.239997 164:0.293101 165:-0.580644 166:-0.694443 167:-0.36842 169:0.419353 170:0.568627 171:-0.90909 172:0.0625009 173:-0.357798 174:0.478265 
0.1171147108425569 1:-0.870968 2:-0.153845 3:0.11888 4:0.0731713 5:-0.652776 6:-0.904762 8:-0.571427 9:0.55932 10:-0.0114944 11:0.36 12:-0.848889 13:-0.84 15:-1 16:-0.833334 17:-0.819549 18:-0.320387 19:0.500001 20:-0.8 22:-1 23:-0.868852 24:-0.89011 25:-0.0707091 26:0.446428 27:-0.882353 29:-0.583335 30:-0.423076 31:-0.0921049 32:0.460673 33:-0.559748 34:-0.578947 36:-0.619047 37:-0.14286 38:0.0693067 39:0.0545428 40:-0.589041 41:-0.619047 43:-0.399999 44:-0.128198 45:0.181818 46:-0.37777 47:-0.522388 48:-0.125 50:-0.6 51:-0.142856 52:0.294118 53:0.137933 54:-0.859375 55:-0.692308 57:-0.1 58:0.047619 59:-0.361704 60:0.291661 61:-0.648649 62:0.375001 64:-0.21739 65:0.622637 66:-0.353536 67:0.22807 68:-0.714285 69:-0.499999 71:-0.703703 72:0.186438 73:0.324325 74:-0.377051 75:-0.774194 76:-0.684211 78:-0.250002 79:0.620689 80:0.153845 81:-0.115386 82:-0.890244 83:-0.0666675 85:-0.700001 86:0.199999 87:0.157234 88:0.373492 89:-0.881773 90:1.40625e-06 92:-0.333333 93:0.272727 94:-0.19403 95:0.692304 96:-0.59091 97:-0.176471 99:-0.529411 100:-0.0645168 101:-0.0650892 102:0.388233 103:-0.654206 104:-0.294117 106:-0.947369 107:-3.85096e-06 108:0.5 109:-0.759036 110:-0.84 111:-0.809524 113:-0.519999 114:0.418182 115:0.299436 116:-0.151517 117:-0.874345 118:-0.625001 120:-0.473684 121:0.228068 122:-0.153848 123:-0.0943385 124:-0.773196 125:-0.294117 127:-0.1 128:0.773583 129:0.123458 130:0.211265 131:-0.880597 132:-0.125 134:-0.833334 135:0.381822 136:0.336957 137:-0.324322 138:-0.862745 139:-0.8 141:-0.589742 142:-0.0188669 143:-0.013157 144:-0.116882 145:-0.380001 146:-0.67742 148:-0.0909102 149:0.102046 150:0.0549446 151:-0.0877225 152:-0.652174 153:-0.333333 155:-0.333335 156:0.0434773 157:0.0434798 158:-0.0333337 159:-0.739131 160:-0.828572 162:0.727271 163:0.640001 164:-0.155172 165:-0.129034 166:-0.763889 167:-0.157893 169:0.225804 170:0.450983 171:-0.439392 172:-0.28125 173:-0.522935 174:0.0434799 
0.1564676091789853 1:-0.225808 2:0.0384608 3:-0.174825 4:0.195121 5:-0.777777 6:0.0476197 8:-0.285712 9:0.288138 10:0.0114944 11:0.220001 12:-0.831111 13:-0.279999 15:0.133337 16:-0.0333337 17:0.548873 18:0.00970776 19:-0.881818 20:-0.599998 22:-0.714284 23:0.0491791 24:0.45055 25:-0.0707091 26:-0.928571 27:-0.882353 29:0.499995 30:0.0384612 31:-0.276315 32:0.0112341 33:-0.584906 34:0.578949 36:0.142857 37:0.142858 38:-0.326733 39:0.127271 40:-0.50685 41:-0.52381 43:-1.125e-06 44:0.179487 45:-0.295458 46:0.06667 47:-0.492537 48:-0.125 50:0.1 51:0.71429 52:-0.294118 53:0.0344797 54:-0.8125 55:0.692307 57:-0.1 58:0.190472 59:-0.0851074 60:0.249999 61:-0.783784 62:-0.875 64:0.0434799 65:0.207542 66:-0.414141 67:-0.0175421 68:-0.342853 69:0.125 71:0.111112 72:0.38983 73:-0.243243 74:0.278687 75:-0.758064 76:-0.263158 78:-0.16667 79:0.965513 80:-0.353845 81:0.34615 82:-0.804878 83:0.333331 85:0.500001 86:0.633333 87:-0.0188686 88:-0.0602425 89:-0.802956 90:-0.125 92:-0.0476197 93:0.781816 94:0.179103 95:-0.115385 96:-0.806818 97:-0.411766 99:0.411763 100:0.516127 101:-0.2071 102:0.411765 103:-0.82243 104:0.0588229 106:-0.0526322 107:0.692304 108:-0.560975 109:-0.132527 110:-0.399999 111:-0.428571 113:0.120001 114:0.818183 115:-0.163842 116:0.151518 117:-0.790576 118:-0.125 120:0.368422 121:0.192984 122:-0.307692 123:-0.207551 124:-0.814433 125:0.411763 127:0.199999 128:0.69811 129:0.185186 130:0.154927 131:-0.870647 132:-0.75 134:-0.083336 135:0.345453 136:0.0543469 137:-0.51351 138:-0.715687 139:0.199999 141:-0.128203 142:0.396228 143:-0.276315 144:-0.116882 145:-0.460002 146:-0.419356 148:0.454545 149:-0.0204094 150:0.0109879 151:-0.438597 152:-0.449275 153:-0.11111 155:0.0833304 156:0.565213 157:-0.669563 158:0.0666637 159:-0.543479 160:-0.142859 162:-0.363637 163:0.239997 164:0.534483 165:-0.516127 166:-0.777778 167:-0.684211 169:0.419353 170:0.450983 171:-0.606059 172:-0.0937478 173:-0.394495 174:-0.391303 
0.07008973865678667 1:-0.096776 2:0.653846 3:-0.552448 4:0.292683 5:-0.625001 6:-0.52381 8:-0.428569 9:-0.152543 10:0.448276 11:-0.0400005 12:-0.92 13:-0.279999 15:0.133337 16:0.566666 17:0.0225558 18:-0.00970776 19:-0.736364 20:-0.466665 22:-0.428569 23:0.180328 24:0.241758 25:0.0101 26:-0.866071 27:-0.882353 29:-0.416669 30:0.423082 31:-0.131578 32:0.213481 33:-0.672956 34:-0.684211 36:0.0476197 37:-0.0952349 38:-0.168316 39:-0.163633 40:-0.452056 41:-0.142857 43:0.199999 44:0.0256443 45:-0.0227276 46:-0.11111 47:-0.731343 48:1.40625e-06 50:-0.3 51:0.71429 52:-0.235294 53:0.206892 54:-0.765625 55:-0.538463 57:-1.125e-06 58:0.238097 59:-0.148936 60:0.208336 61:-0.756757 62:-0.75 64:0.478265 65:0.245283 66:-0.555555 67:-0.0877182 68:-0.171429 69:-0.249999 71:0.7037 72:0.152543 73:-0.283783 74:0.147538 75:-0.629033 76:-0.473684 78:0.0833304 79:0.586202 80:-0.0769223 81:0.384616 82:-0.853659 83:-0.600001 85:-0.700001 86:0.566666 87:0.232704 88:0.0843375 89:-0.921182 90:-0.125 92:-0.0476197 93:0.309087 94:0.44776 95:-0.0384611 96:-0.909091 97:-0.176471 99:-0.0588229 100:0.483865 101:0.0769245 102:0.0352954 103:-0.850467 104:0.0588229 106:0.473678 107:0.230768 108:-0.658537 109:-0.277107 110:-0.240002 111:0.333333 113:0.520001 114:0.49091 115:-0.118644 116:0.151518 117:-0.821989 118:0.249999 120:-0.0526311 121:0.614034 122:-0.576922 123:-0.169811 124:-0.690721 125:0.294117 127:0.1 128:0.735842 129:0.172839 130:0.0704217 131:-0.850746 132:-0.499999 134:-0.333335 135:0.45455 136:-0.0434792 137:-0.0270231 138:-0.774509 139:-0.1 141:0.282052 142:0.471701 143:-0.723683 144:-0.142859 145:-0.0200009 146:-0.225808 148:0.545455 149:0.18368 150:-0.406593 151:0.0175461 152:-0.478261 155:0.166663 156:0.217392 157:-0.165215 158:-0.466668 159:-0.673914 160:-0.142859 162:-0.181818 163:0.159996 164:0.327584 165:-0.19355 166:-0.763889 167:-0.578947 169:1 170:-0.215688 171:-0.545456 172:-0.0937478 173:-0.412846 174:0.0434799 
0.4664880606888342 1:-0.741936 2:0.153851 3:0.00699389 4:0.243902 5:-0.847222 6:-0.428571 8:-1 9:-0.79661 10:-0.701148 11:-0.239999 12:0.342222 13:-0.679999 15:-1 16:-1 17:-1 18:-1 19:1 20:-1 22:-1 23:-1 24:-1 25:-1 26:1 27:-1 29:-0.916667 30:-0.307693 31:-0.368419 32:0.528092 33:-0.320756 34:-0.578947 36:-0.0476197 37:-0.190474 38:-0.227724 39:0.454543 40:-0.726027 41:-0.238094 43:-0.3 44:-0.487184 45:-0.272728 46:0.24445 47:0.0149229 48:-0.875 50:-1 51:-0.499999 52:-0.308823 53:0.344824 54:-0.15625 55:-0.0769223 57:-0.3 58:-0.238098 59:-0.574468 60:0.249999 61:0.0810826 62:-0.625001 64:-0.565217 65:0.0943377 66:-0.111109 67:0.333331 68:-0.685714 69:-0.249999 71:-0.925926 72:-0.0847445 73:-0.081079 74:0.114754 75:-0.387096 76:-0.473684 78:-0.750001 79:-0.275863 80:-0.400001 81:0.0769197 82:-0.0853667 83:-0.466666 85:-0.9 86:-0.400001 87:-0.408804 88:0.445779 89:-0.221675 90:-0.625001 92:-0.714286 93:-0.200002 94:-0.119404 95:0.192311 96:-0.261365 97:-0.64706 99:-0.764706 100:-0.35484 101:-0.147929 102:0.152941 103:-0.439253 104:0.294117 106:-0.842106 107:-0.115386 108:0.0975623 109:-0.0602394 110:-0.78 111:-0.619047 113:-0.92 114:-0.127268 115:0.401131 116:-0.272724 117:-0.727749 118:-0.499999 120:-0.684211 121:-0.192982 122:0.211539 123:-0.132079 124:-0.793815 125:-0.64706 127:-0.500001 128:-0.0943385 129:0.530864 130:0.12676 131:-0.870647 132:-0.625001 134:-0.666667 135:0.45455 136:0.0978257 137:0.0270256 138:-0.862745 139:-0.3 141:-0.794871 142:-0.0566074 143:0.276314 144:-0.168831 145:-0.68 146:-0.67742 148:-0.363637 149:0.265305 150:-0.362636 151:0.298244 152:-0.42029 153:-0.444445 155:-0.333335 156:0.260866 157:-0.252174 158:0.166669 159:-0.782609 160:-0.37143 162:-0.636363 163:0.359993 164:-0.086206 165:0.258067 166:-0.708334 167:0.0526311 169:-0.548388 170:-0.333333 171:0.0606051 172:0.312504 173:-0.853211 174:-0.130434 
0.01003740113188028 1:-0.935484 2:0.192309 3:-0.0349663 4:0.560976 5:-0.916667 6:-0.714286 8:-0.785714 9:-0.084745 10:0.275862 11:0.480002 12:-0.946667 13:-0.679999 15:-1 16:-0.8 17:-0.729323 18:-0.417477 19:0.509091 20:-1 22:-0.928571 23:-0.442622 24:-0.43956 25:0.232323 26:-0.178572 27:-0.882353 29:-0.916667 30:0.192309 31:-0.0131566 32:0.797753 33:-0.949686 34:-0.789474 36:-0.238094 37:0.0476185 38:-0.366338 39:0.709088 40:-0.753425 41:-0.428571 43:-0.399999 44:0.435895 45:-0.227273 46:0.02223 47:-0.522388 48:-0.375001 50:-0.700001 51:-0.0714267 52:0.352943 53:0.103446 54:-0.9375 55:-0.538463 57:0.3 58:-0.333338 59:-0.255322 60:0.500002 61:-0.621622 62:-0.499999 64:-0.478259 65:0.283015 66:0.131314 67:-0.0877182 68:-0.714285 69:-0.875 71:-1 72:0.22034 73:0.337837 74:0.0491798 75:-0.935484 76:-0.789474 78:-0.750001 79:0.0689663 80:-0.0923088 81:0.115386 82:-0.463416 83:-0.466666 85:-0.9 86:0.333333 87:0.0817617 88:0.71084 89:-0.940887 90:-0.499999 92:-0.238094 93:-0.236364 94:0.119401 95:0.269226 96:-0.511363 97:-0.64706 99:-0.882353 100:0.0967716 101:-0.0414203 102:0.458825 103:-0.691589 104:-0.64706 106:-0.947369 107:-0.115386 108:0.268294 109:-0.277107 110:-0.86 111:-0.52381 113:-0.679999 114:0.200005 115:0.310735 116:-0.0606031 117:-0.863874 118:-0.249999 120:-0.894737 121:-0.0877212 122:0.288463 123:-0.358488 124:-0.773196 125:-0.64706 127:-0.6 128:0.283016 129:0.641975 130:-0.239438 131:-0.900498 132:-0.875 134:-0.500001 135:0.127277 136:0.391304 137:-0.378376 138:-0.911765 139:-0.3 141:-0.846154 142:-0.320757 143:0.789474 144:-0.636363 145:-0.86 146:-0.935484 149:0.224492 150:-0.0989012 151:-0.0175461 152:-0.652174 153:-0.222222 155:-0.083336 156:0.30435 157:-0.252174 158:-0.100001 159:-0.826087 160:-0.0285736 162:-0.272727 163:0.479999 164:0.396551 165:-0.354839 166:-0.847222 167:-0.578947 169:-0.225808 170:0.0588211 171:-0.106062 172:-0.312497 173:-0.522935 174:-0.304345 
0.3243009045544265 1:-0.741936 2:-0.0384634 3:-0.272727 4:0.341464 5:-0.555554 6:-0.428571 8:-1 9:-1 10:-0.977011 11:-0.82 12:0.902222 13:-1 15:-1 16:-1 17:-1 18:-1 19:1 20:-1 22:-1 23:-1 24:-1 25:-1 26:1 27:-1 29:-1 30:-0.76923 31:-0.81579 32:-0.123594 33:0.63522 34:-0.578947 36:0.0476197 37:-0.285713 38:-0.0693067 39:0.163639 40:-0.589041 41:-0.619047 43:-0.399999 44:-0.692303 45:-1 46:0.15556 47:1 48:-0.125 50:-0.9 51:-0.964285 52:-0.808826 53:-0.172411 54:0.874998 55:-0.846154 57:-0.6 58:-0.380952 59:-0.872339 60:-0.291671 61:1 62:-0.75 64:-0.913043 65:-0.433963 66:-0.797977 67:0.192978 68:0.885719 69:-0.125 71:-0.703703 72:-0.355932 73:-0.418916 74:0.311478 75:1.81452e-06 76:-0.473684 78:-0.916667 79:-0.206899 80:-0.692307 81:-0.038462 82:0.19512 83:-0.600001 85:-0.9 86:-0.8 87:-0.685534 88:-0.180723 89:0.369459 90:-0.625001 92:-0.809524 93:-0.563636 94:-0.537313 95:0.576922 96:0.0454533 97:-0.411766 99:-0.882353 100:-0.612904 101:-0.621303 102:0.294119 103:0.0373832 104:-0.64706 106:-0.631579 107:0.34615 108:-0.182928 109:-0.0843388 110:-0.68 111:-0.333333 113:-0.76 114:0.163637 115:0.288136 116:-0.181817 117:-0.748691 118:-0.625001 120:-0.578947 121:-0.122805 122:-0.384616 123:-0.207551 124:-0.257731 125:-0.176471 127:-0.8 128:0.056598 129:0.395061 130:0.0985879 131:-0.761193 132:-0.625001 134:-0.750001 135:-0.527272 136:-0.108695 137:-0.0270231 138:-0.372549 139:-0.399999 141:-0.794871 142:-0.433963 143:0.552632 144:-0.480523 145:-0.64 146:-0.741936 148:-0.454545 149:-0.0612217 150:0.230771 151:-0.36842 152:-0.333331 153:-0.666667 155:-0.250002 156:-0.173912 157:-0.547824 158:0.633333 159:-0.543479 160:-0.314288 162:-0.545455 163:0.0399991 164:-0.465517 165:-0.0322548 166:-0.0416654 167:-1 169:-0.35484 170:0.0196094 171:0.106062 172:-0.249996 173:-0.706422 174:-0.565217 
0.02171273343790424 1:-0.096776 2:0.461539 3:-0.398601 4:0.14634 5:-0.61111 6:-0.619047 8:-0.214283 9:-0.084745 10:0.321839 11:-0.019998 12:-0.831111 13:-0.679999 15:3.00001e-06 16:0.73333 17:0.112783 18:-0.14563 19:-0.736364 20:-0.599998 22:-0.142855 23:0.0491791 24:0.197801 25:0.111109 26:-0.883929 27:-0.82353 29:0.0833304 30:0.0384612 31:-0.131578 32:0.370784 33:-0.710691 34:-0.684211 36:-0.238094 37:0.238097 38:-0.326733 39:0.490911 40:-0.753425 41:-0.428571 43:0.399999 44:0.230775 45:-0.136368 46:-0.11111 47:-0.641791 48:-0.499999 50:-0.3 51:0.464291 52:-0.0735287 53:0.206892 54:-0.84375 55:-0.384615 57:-0.1 58:0.190472 59:-0.0851074 60:0.125002 61:-0.810811 62:-0.375001 64:0.565221 65:-0.0188669 66:-0.414141 67:0.122802 68:-0.314285 69:-0.499999 71:-0.25926 72:0.423733 73:-0.0270274 74:-0.213118 75:-0.725806 76:-0.157893 78:-3.74999e-06 79:0.344824 80:0.0153831 81:0.0769197 82:-0.817073 83:0.333331 85:-0.3 86:0.466668 87:0.283019 88:-0.0843364 89:-0.891626 90:-0.249999 92:-0.142857 93:0.345455 94:0.44776 95:0.115387 96:-0.909091 97:-0.64706 99:-0.0588229 100:0.548382 101:-0.00591551 102:0.152941 103:-0.831776 104:-0.176471 106:0.105262 107:0.384616 108:-0.560975 109:-0.108433 110:-0.420002 111:0.0476197 113:0.520001 114:0.127277 115:-0.00564839 116:0.121211 117:-0.790576 118:1.40625e-06 120:-0.263158 121:0.789471 122:-0.615384 123:-0.396228 124:-0.628866 125:0.529411 127:-1.125e-06 128:0.622638 129:0.271605 130:-0.267604 131:-0.830846 132:0.249999 134:0.416663 135:0.309093 136:-0.0760871 137:-0.108108 138:-0.735295 139:-0.399999 141:0.128208 142:0.358487 143:-0.618422 144:0.194804 145:-0.280002 146:-0.35484 148:0.545455 149:0.38776 150:-0.472525 151:-0.192983 152:-0.42029 153:0.222222 155:0.333329 156:0.217392 157:-0.321736 158:-0.133331 159:-0.652174 160:-0.37143 162:0.181818 163:-5.84999e-06 164:0.379311 165:-0.161288 166:-0.777778 167:-0.894737 169:-0.0322591 170:0.33333 171:-0.681819 173:-0.357798 174:0.478265 
0.1845545773858928 1:-0.419356 2:1 3:-0.664337 4:0.463414 5:-0.638889 6:-0.714286 8:-0.142855 9:0.05085 10:0.298851 11:-0.0400005 12:-0.848889 13:-0.679999 15:0.133337 16:0.433331 17:0.157894 18:0.0873786 19:-0.8 20:-0.666666 22:-0.642856 23:0.0819701 24:0.307692 25:-0.0505045 26:-0.892857 27:-0.529411 29:-0.416669 30:0.692312 31:-0.31579 32:0.213481 33:-0.647798 34:-0.157893 36:-0.0476197 37:4.28571e-06 38:-0.425742 39:0.381815 40:-0.561644 41:-0.0476197 43:0.3 44:0.0256443 45:-0.136368 46:-0.06666 47:-0.582089 48:-0.249999 50:0.3 51:0.178573 52:-0.17647 53:0.551723 54:-0.859375 55:-0.384615 57:-0.1 58:0.380951 59:-0.382979 60:0.45833 61:-0.72973 62:-0.499999 64:0.0434799 65:0.283015 66:-0.51515 67:0.298247 68:-0.428572 69:-0.249999 71:0.407407 72:0.22034 73:-0.202701 74:-0.0491783 75:-0.645161 76:-0.157893 78:0.416663 79:0.551723 80:-0.0615392 81:-0.19231 82:-0.768293 83:-0.0666675 85:-0.6 86:0.666663 87:0.220127 88:-0.0120491 89:-0.901478 90:-0.249999 92:-0.0476197 93:0.527271 94:0.268657 95:0.269226 96:-0.897727 97:-0.529411 99:0.529411 101:0.183433 102:-0.152942 103:-0.813084 104:0.647057 106:0.421052 107:0.230768 108:-0.7561 109:-0.0843388 110:-0.319998 111:0.809524 113:0.0400014 114:0.709095 115:-0.0395484 116:-0.0606031 117:-0.790576 118:-0.125 120:-0.263158 121:0.68421 122:-0.538464 123:0.132071 124:-0.814433 125:-0.176471 127:0.1 128:0.886787 129:0.185186 130:-0.239438 131:-0.800995 132:-0.375001 134:0.333329 135:0.49091 136:-0.173913 137:1.21622e-06 138:-0.754901 139:-0.1 141:0.589749 142:0.283015 143:-0.789475 144:0.090907 145:-0.12 146:-0.225808 149:0.18368 150:-0.120877 151:-0.0877225 152:-0.507246 153:-0.333333 155:0.166663 156:0.434781 157:-0.269564 158:-0.166669 159:-0.673914 160:-0.600001 162:-0.545455 163:0.679997 164:0.206895 165:-0.161288 166:-0.763889 167:-0.894737 169:0.0967731 170:0.450983 171:-0.545456 172:-0.156249 173:-0.357798 174:-0.304345 
0.7849542180309154 1:-1 2:0.115385 3:0.132868 4:0.14634 5:-0.875 6:-0.238094 8:-0.928571 9:0.525425 10:0.16092 11:0.32 12:-0.902222 13:-0.92 15:-0.599998 16:0.433331 17:-0.0676675 18:0.475728 19:-0.8 20:-0.266665 22:-0.642856 23:0.278687 24:-0.0659336 25:0.49495 26:-0.857143 27:-0.705882 29:-0.666667 30:0.153852 31:0.0131566 32:0.528092 33:-0.874214 34:-0.578947 36:-0.52381 37:-0.0952349 38:-0.108911 39:0.454543 40:-0.808219 41:-0.238094 43:-0.500001 44:-0.230764 45:0.0454526 46:0.28889 47:-0.61194 48:-0.499999 50:-0.8 51:-0.392856 52:0.705882 53:-0.172411 54:-0.984375 55:-1 57:-0.3 58:-0.238098 59:0.234043 60:-0.0416673 61:-0.72973 62:-0.75 64:-0.043476 65:-0.169812 66:-0.0303045 67:0.263155 68:-0.714285 69:-0.249999 71:-1 72:-0.322033 73:0.608108 74:-0.147544 75:-0.919355 76:-0.684211 78:-0.333335 79:0.482756 80:0.200001 81:0.038462 82:-0.902439 83:-0.199999 85:-0.399999 86:0.333333 87:0.421385 88:0.0361442 89:-0.990148 90:-0.375001 92:-0.238094 93:0.163639 94:0.567164 95:-0.307691 96:-0.852273 97:-0.176471 99:-0.882353 100:0.387094 101:0.360946 102:0.129414 103:-0.943925 104:-0.882353 106:-0.789474 107:-0.115386 108:0.134147 109:-0.373494 110:-0.7 111:-0.142857 113:-0.76 114:0.381822 115:0.468926 116:-0.272724 117:-0.937173 118:-0.75 120:-0.578947 121:-0.228074 122:0.384616 123:-0.358488 124:-0.896907 125:-0.411766 127:-0.8 128:0.169811 129:0.703705 130:-0.183099 131:-0.920398 132:-0.875 134:-0.500001 135:0.0909083 136:0.249999 137:0.0270256 138:-0.892157 139:-0.6 141:-0.948718 142:-0.509434 143:0.0526318 144:-0.87013 145:0.559999 146:-0.870968 148:-0.545455 149:-0.102043 150:0.428574 151:0.0526303 152:-0.855072 153:-0.777778 155:-0.250002 156:0.260866 157:-0.321736 158:0.100001 159:-0.739131 160:-0.200003 162:-0.454545 163:0.159996 164:0.637929 165:-0.451611 166:-0.847222 167:-0.684211 169:-0.612903 170:0.490194 171:-0.348486 172:-0.437499 173:-0.174313 174:-0.652173 
0.1544691500578538 1:-0.935484 2:-0.576922 3:0.412589 4:0.26829 5:-0.902778 6:-0.809524 8:-0.571427 9:-0.22034 10:-0.057472 11:0.520003 12:-0.733334 13:-0.359999 15:-0.733332 16:0.133331 17:-0.18797 18:0.398058 19:-0.59091 20:-0.266665 22:-0.714284 23:-0.508196 24:0.274726 25:0.353536 26:-0.830357 27:-0.82353 29:-1 30:-0.653846 31:0.657894 32:-0.146069 33:-0.786163 34:-0.684211 36:0.142857 37:-0.380953 38:-0.18812 39:0.636359 40:-0.753425 41:-0.619047 43:-0.500001 44:-0.384618 45:-2.55682e-06 46:0.46667 47:-0.731343 48:0.125 50:-0.9 51:-0.357142 52:0.32353 53:0.551723 54:-0.921875 55:-0.846154 57:-0.6 58:-0.380952 59:0.297871 60:-0.208336 61:-0.594595 62:-0.499999 64:-0.739131 65:0.207542 66:-0.191918 67:0.403507 68:-0.628571 69:-0.375001 71:-0.703703 72:-0.322033 73:0.108109 74:0.409836 75:-0.677419 76:-0.578947 78:-0.666667 79:-0.275863 80:0.599999 81:0.384616 82:-0.951219 83:-0.866667 85:-1.125e-06 86:-0.0666712 87:0.54717 88:-0.25301 89:-0.871921 90:-0.625001 92:-0.238094 93:0.0545423 94:0.507462 95:0.153845 96:-0.829546 97:-1 99:-0.64706 100:-0.0645168 101:0.195267 102:0.458825 103:-0.869159 104:-0.411766 106:-0.894737 107:0.307692 108:-0.451219 109:0.493977 110:-0.58 111:-0.428571 113:-0.76 114:-0.490908 115:0.841808 116:-0.69697 117:-0.863874 118:-1 120:-0.789474 121:0.0175472 122:0.288463 123:-0.0943385 124:-0.938144 125:-1 127:-0.6 128:0.0943385 129:0.271605 130:0.380281 131:-0.791045 132:-0.625001 134:-0.500001 135:0.01818 136:0.184783 137:0.18919 138:-0.882353 139:-0.500001 141:-0.74359 142:-0.320757 143:-0.144738 144:0.454542 145:-0.320002 146:-0.935484 148:-0.363637 149:-0.306123 150:0.0329687 151:0.36842 152:-0.594203 153:-0.444445 155:-0.666667 156:0.0434773 157:-0.356519 158:0.666663 159:-0.717391 160:-0.542858 162:-0.636363 163:0.159996 164:0.206895 165:0.322577 166:-0.805556 167:-0.684211 169:-0.870968 170:-0.843137 171:1 172:-0.687503 173:-0.926605 174:-0.826087 
0.05171895623014452 1:-0.612903 2:-0.153845 3:0.202798 4:-0.0731718 5:-0.75 6:-0.619047 8:-0.357141 9:0.254235 10:-0.321839 11:0.440001 12:-0.76 13:0.680001 15:-0.133331 16:0.266666 17:0.157894 18:0.0679587 19:-0.727272 20:-0.533332 22:-0.571427 23:-0.0163955 24:0.10989 25:0.292927 26:-0.848214 27:-0.647058 29:-0.833334 30:-0.846153 31:0.736842 32:-0.258427 33:-0.773585 34:-0.578947 36:0.238096 37:0.0476185 38:-0.20792 39:0.090911 40:-0.69863 41:-0.238094 43:-0.500001 44:0.179487 45:-0.113638 46:0.33334 47:-0.641791 48:-0.625001 50:-0.199999 51:-0.107145 52:-0.0294122 53:0.551723 54:-0.859375 55:0.0769223 57:-0.6 58:-0.380952 59:0.17021 60:0.291661 61:-0.72973 62:-0.625001 64:0.0434799 65:-0.13208 66:0.333332 67:-0.333331 68:-0.771428 69:-0.375001 71:-0.481482 72:0.0847454 73:-0.283783 74:0.540985 75:-0.645161 76:0.263158 78:-0.583335 79:0.241378 80:0.153845 81:0.499998 82:-0.865854 83:-0.466666 85:-0.500001 86:0.499998 87:0.194969 88:-0.0120491 89:-0.842365 90:-0.249999 92:-0.238094 93:0.163639 94:0.358206 95:0.307693 96:-0.840909 97:-0.529411 99:-0.411766 100:0.0645168 101:0.0532555 102:0.458825 103:-0.859813 104:0.176469 106:-0.894737 107:-0.384615 108:0.207319 109:-0.18072 110:-0.76 111:-0.333333 113:-0.84 114:-0.30909 115:0.740114 116:-0.515151 117:-0.874345 118:-1 120:-0.684211 121:-0.0877212 122:0.288463 123:-0.207551 124:-0.876288 125:-0.764706 127:-0.9 128:0.169811 129:0.617283 130:-0.0704217 131:-0.890547 132:-0.75 134:-1 135:-0.199998 136:0.391304 137:0.108111 138:-0.882353 139:-0.9 141:-0.589742 142:-0.169812 143:-0.0657892 144:0.298702 145:-0.52 146:-0.741936 148:-0.363637 149:0.102046 150:-0.296704 151:0.473681 152:-0.565217 153:-0.333333 155:-0.500001 156:0.434781 157:-0.182608 158:-0.0666637 159:-0.739131 160:-0.428574 162:-0.0909102 163:-0.200003 164:0.258618 166:-0.777778 167:0.157896 169:-0.806452 170:0.0588211 171:0.0909085 172:0.187503 173:-0.761468 174:-0.913043 
0.4836759954127113 1:-0.548388 2:0.0384608 3:-0.202798 4:0.121952 5:-0.625001 6:-0.0476197 8:-0.0714249 9:-0.0169475 10:0.206898 11:0.0400005 12:-0.813333 13:-0.6 15:-0.199998 16:0.73333 17:0.00751974 18:0.0485432 19:-0.79091 20:-0.199998 22:0.142861 23:0.442627 24:-0.175825 25:0.272727 26:-0.839286 27:-0.529411 29:-0.16667 30:0.115385 31:0.0921049 32:0.101123 33:-0.798742 34:-0.36842 36:-0.238094 37:0.190472 38:-0.0495067 39:0.0545428 40:-0.69863 41:-0.714286 43:-0.199999 44:0.333341 45:-0.272728 46:-0.02222 47:-0.462686 48:-0.249999 50:-0.9 51:0.250002 52:0.294118 53:-0.137932 54:-0.859375 55:-0.692308 57:-0.199999 58:0.523804 59:-0.404258 60:-0.0416673 61:-0.540541 62:1.40625e-06 64:0.0434799 65:-0.0188669 66:-0.151514 67:-0.0175421 68:-0.599999 69:0.375001 71:-0.703703 72:0.423733 73:0.202704 74:-0.213118 75:-0.870968 76:-0.36842 78:-0.333335 79:0.41379 80:0.415384 81:-0.346158 82:-0.914634 83:-0.333334 85:-0.6 86:0.299996 87:0.396227 88:-0.0602425 89:-0.921182 90:-0.125 92:-0.238094 93:0.454543 94:0.44776 95:0.0384629 96:-0.920454 97:-0.529411 99:-0.411766 100:0.387094 101:0.207102 102:0.24706 103:-0.943925 104:-0.411766 106:-0.789474 107:0.230768 108:0.158537 109:-0.542168 110:-0.66 111:-0.714286 113:-1 114:0.636367 115:0.265536 116:-0.272724 117:-0.821989 118:-0.375001 120:-0.36842 121:0.192984 122:-0.134615 123:-0.207551 124:-0.690721 125:-0.529411 127:-0.500001 128:0.509433 129:0.469136 130:-0.295776 131:-0.860697 132:-0.249999 134:-0.500001 135:0.418182 136:0.184783 137:0.0270256 138:-0.901961 139:-0.8 141:-0.589742 142:0.43396 143:-0.342104 144:0.35065 145:-0.48 146:-0.67742 148:0.272727 149:0.38776 150:-0.0989012 151:-0.403512 152:-0.42029 153:-0.666667 155:-0.083336 156:0.608696 157:-0.33913 158:0.0666637 159:-0.826087 160:-0.428574 162:-0.272727 163:0.759998 164:0.137929 165:-0.0645168 166:-0.847222 167:-0.684211 169:0.0322562 170:0.137253 171:-0.196969 172:-0.531247 173:-0.467891 174:0.0434799 
0.1832183971020928 1:-0.741936 2:-0.230769 3:0.188813 4:-0.219515 5:-0.555554 6:-0.904762 8:-0.428569 9:0.38983 10:1.2931e-06 11:0.380003 12:-0.866667 13:-0.6 15:-0.866666 16:-0.7 17:-0.819549 18:-0.262136 19:0.418183 20:-0.8 22:-0.928571 23:-0.934426 24:-0.824176 25:-0.191918 26:0.473215 27:-1 29:-0.750001 30:-0.423076 31:-0.0921049 32:0.370784 33:-0.534591 34:-0.157893 36:-0.809524 37:0.333336 38:-0.0693067 39:-0.127273 40:-0.424656 41:-0.809524 43:-0.500001 44:-0.179487 45:0.181818 46:-0.02222 47:-0.61194 48:-0.499999 50:-0.6 51:-0.357142 52:0.455883 53:-0.0689659 54:-0.859375 55:-0.538463 57:-1.125e-06 58:0.142858 59:-0.340425 60:0.333333 61:-0.702703 62:1.40625e-06 64:0.130438 65:0.358487 66:-0.191918 67:0.0175421 68:-0.599999 69:-0.875 71:-0.481482 72:0.186438 73:0.270271 74:-0.442626 75:-0.741935 76:-0.578947 78:-0.250002 79:0.482756 80:0.153845 81:-0.038462 82:-0.865854 83:-0.0666675 85:-0.700001 86:0.0333337 87:0.232704 88:0.421685 89:-0.901478 90:-0.125 92:-0.238094 93:0.272727 94:-0.164179 95:0.538465 96:-0.636363 97:0.411763 99:-0.0588229 100:-0.032262 101:-0.171598 102:0.294119 103:-0.570093 104:-0.411766 106:-0.894737 107:-0.230769 108:0.512197 109:-0.759036 110:-0.84 111:-0.428571 113:-0.359999 114:0.345453 115:0.265536 116:-0.09091 117:-0.874345 118:-0.499999 120:-0.578947 121:0.298245 122:-0.19231 123:-0.169811 124:-0.752577 125:-0.0588229 127:0.3 128:0.547165 129:0.111111 130:0.211265 131:-0.860697 132:1.40625e-06 134:-0.750001 135:0.309093 136:0.369565 137:-0.351352 138:-0.852941 139:-1 141:-0.589742 142:0.0943377 143:-0.157894 144:-0.0909105 145:-0.359998 146:-0.290324 148:-0.181818 149:0.510206 150:-0.0989012 151:-0.122807 152:-0.623188 153:-0.555555 155:-0.583335 156:0.130435 157:-0.0260863 158:-3.75e-06 159:-0.739131 160:-0.600001 162:0.636363 163:0.679997 164:-0.206899 165:-0.19355 166:-0.722222 167:0.0526311 169:0.161288 170:0.450983 171:-0.424242 172:-0.187496 173:-0.633028 174:0.304351 
0.4151452356628514 1:-0.419356 2:0.192309 3:-0.0909079 4:-0.0975596 5:-0.652776 6:-0.333333 8:-0.285712 9:-0.355932 10:0.37931 11:-0.379998 12:-0.617778 13:-0.84 15:-0.866666 16:-0.9 17:-0.533834 18:-0.126214 19:0.236364 20:-0.8 22:-0.928571 23:-0.508196 24:0.0219771 25:0.232323 26:-0.553571 27:-0.764705 29:-0.750001 30:0.307691 31:0.0921049 32:0.258426 33:-0.836478 34:-0.578947 36:-0.714286 37:0.523804 38:-0.0297022 39:0.090911 40:-0.835616 41:-0.619047 43:-0.6 44:-0.333329 45:0.295453 46:-0.11111 47:-0.552238 48:-0.625001 50:-0.8 51:-0.249996 52:0.264706 53:0.0344797 54:-0.71875 55:-0.538463 57:-0.8 58:-0.380952 59:0.340425 60:-0.0833392 61:-0.648649 62:-0.625001 64:-0.043476 65:0.16981 66:-0.0101 67:-0.192986 68:-0.685714 69:1.40625e-06 71:-1 72:-0.728814 73:-0.364865 74:-0.409835 75:0.580647 76:-0.789474 78:-0.916667 79:-0.586208 80:-0.569232 81:-0.115386 82:0.268292 83:-0.733333 85:-1 86:-0.866667 87:-0.735849 88:-0.493977 89:0.59606 90:-1 92:-0.714286 93:-0.709091 94:-0.283584 95:0.0769205 96:0.0454533 97:-0.529411 99:-0.882353 100:-0.806452 101:-0.396449 102:-0.317648 103:0.13084 104:-0.294117 106:-0.789474 107:0.0769202 108:-0.134147 109:-0.253013 110:-0.359999 111:-0.619047 113:-0.76 114:0.127277 115:0.322033 116:-0.181817 117:-0.769634 118:-0.625001 120:-0.36842 121:-0.192982 122:2.22045e-16 123:-0.132079 124:-0.71134 125:-0.176471 127:-0.399999 128:0.132071 129:0.246914 130:0.29577 131:-0.771144 132:-0.625001 134:-0.750001 135:-0.527272 136:-0.0543477 137:-0.351352 138:-0.284313 139:-0.6 141:-0.794871 142:0.132078 143:0.0526318 144:0.142856 145:-0.68 146:-0.67742 148:-0.454545 149:0.469394 150:-0.0109879 151:-0.0877225 152:-0.681159 153:-0.444445 155:-0.666667 156:-0.3913 157:-0.269564 158:0.73333 159:-0.695653 160:-0.428574 162:-0.181818 163:0.359993 164:0.155172 165:-0.0645168 166:-0.791667 167:-0.263158 169:-0.741936 170:-0.176467 171:0.590909 172:-0.531247 173:-0.926605 174:-0.565217 
