svm_type c_svc
kernel_type rbf
gamma 0.125
nr_class 2
total_sv 1020
rho 0.138632
label 1 -1
probA -4.50931
probB 0.143986
nr_sv 557 463
SV
0.4612934945049158 1:0.0909082 2:0.34615 3:-0.116664 4:-0.205481 5:-0.56579 6:-0.500001 8:0.333329 9:0.38776 10:-0.398376 11:-0.39394 12:-0.114285 13:-0.666667 15:-0.777778 16:0.209298 17:0.0880019 18:-0.0724597 19:-0.671642 20:-0.684211 22:-0.461541 23:0.269234 24:-0.348836 25:0.0684926 26:-0.431579 27:-0.176471 29:-0.384617 30:0.692312 31:-0.234043 32:-0.0752676 33:-0.679144 34:1.40625e-06 36:0.130438 37:0.423075 38:0.0645155 39:-0.451616 40:-0.705881 41:-0.222222 43:-0.0526311 44:0.77273 45:-0.590365 46:0.0714254 47:-0.473683 48:-0.555555 50:-0.0526311 51:0.302331 52:-0.319146 53:0.206351 54:-0.375001 55:-0.3 57:0.363637 58:-2.50001e-06 59:-0.311115 60:-0.0357147 61:-0.347827 62:0.285715 64:-0.2 65:0.160003 66:0.0687026 67:-0.364705 68:-0.70068 69:-0.36842 71:0.545455 72:0.423082 73:-0.289857 74:0.0666637 75:-0.732395 76:0.1 78:0.478265 79:0.380959 80:-0.767444 81:-0.0877146 82:0.249997 83:0.384615 85:0.789473 86:0.162792 87:-0.180722 88:-0.55932 89:-0.428571 90:-0.23077 92:1 93:0.333331 94:-1 95:0.499998 96:0.0869578 97:0.0769223 99:-0.043476 100:0.346151 101:-0.576926 102:0.0114957 103:-0.692308 104:-0.157893 106:0.200002 107:0.698117 108:-0.546874 109:0.238096 110:-0.630952 111:-0.399999 113:-0.6 114:0.500002 115:-0.196081 116:-0.217393 117:-0.272727 118:-0.384615 120:-0.043476 121:0.416668 122:-0.493335 123:0.125002 124:-0.363639 125:0.0476197 127:-0.238094 128:0.24444 129:-0.352378 130:-0.0512828 131:-0.500001 132:-0.600001 134:0.0909082 135:0.396227 136:-0.366666 137:0.116278 138:-0.650001 139:-0.238094 141:0.545455 142:0.285714 143:-0.290781 144:0.0442474 145:-0.559634 146:-0.384617 148:0.391307 149:0.280001 150:-0.480914 151:0.146663 152:-0.51282 153:-0.64706 155:-0.583335 156:0.363637 157:-0.414141 158:0.500002 159:-0.500001 160:-0.684211 162:0.199999 163:0.0800023 164:-0.389312 165:0.0975623 166:-0.392858 167:-0.692308 169:0.199999 170:0.163637 171:0.192053 172:0.038462 173:-0.781818 174:-0.157893 
0.1931141188072596 1:-0.818182 2:-0.346155 3:0.166667 4:0.61644 5:-0.802632 6:-0.6 8:-0.16667 9:-0.265302 10:-0.479676 11:0.121213 12:0.142858 13:-0.555555 15:-0.555555 16:0.302322 17:-0.536 18:0.217392 19:-0.0149235 20:-0.473684 22:-0.461541 23:0.230767 24:-0.550387 25:0.232878 26:-0.178949 27:-0.64706 29:-0.923077 30:-0.269231 31:0.234043 32:0.526881 33:-0.935829 34:-0.625001 36:-0.826087 37:-0.115385 38:0.0645155 39:0.612905 40:-0.808824 41:-0.333333 43:-0.473684 44:-0.0909123 45:0.0602376 46:-0.464283 47:0.105269 48:-0.555555 50:-0.684211 51:0.302331 52:-0.212764 53:0.269843 54:-0.375001 55:-0.399999 57:-0.363637 58:-0.0555526 59:-0.111115 60:0.142863 61:-0.391304 62:-0.285715 64:-0.44 65:-0.320003 66:0.312977 67:-0.270591 68:-0.727891 69:-0.684211 71:-0.545455 72:0.0384612 73:-1.63044e-06 74:0.100001 75:-0.619718 76:-0.6 78:-0.652173 79:-0.380956 80:0.0697657 81:0.122807 82:-0.187502 83:-0.538463 85:-0.68421 86:-0.581392 87:-0.108434 88:0.355935 89:-0.285714 90:-0.692308 92:-0.272727 93:0.155551 94:-0.216494 95:0.100001 96:-0.173912 97:-0.23077 99:-0.652173 100:-0.0769265 101:-0.0192332 102:-0.287356 103:-0.582419 104:-0.473684 106:-0.76 107:-0.433961 108:-0.4375 109:0.309528 110:-0.238094 111:-0.500001 113:-0.8 114:-0.208327 115:-0.196081 116:0.275363 117:-0.0454543 118:-0.846154 120:-0.478259 121:-0.0833303 122:0.039999 123:-0.125002 124:0.272721 125:-0.333333 127:-0.714286 128:-0.288889 129:-0.295236 130:0.0769213 131:-0.214284 132:-0.466666 134:-0.909091 135:-0.471698 136:-0.450002 137:-0.558142 138:0.262501 139:-0.714286 141:-1 142:-0.75 143:-0.375885 144:-0.0796461 145:0.0366966 146:-0.846154 148:-0.652173 149:-0.16 150:-0.664122 151:0.546665 152:-0.0769253 153:-0.294117 155:-0.416669 156:0.227277 157:-0.393941 158:-4.01786e-06 159:0.249993 160:-0.473684 162:-0.399999 163:-0.44 164:-0.557251 165:0.439025 166:-0.142862 167:0.692307 169:-1 170:-1 171:-0.854305 172:-0.903846 173:0.854546 174:-1 
0.06411418340802574 1:-0.545455 2:-0.423078 3:-0.0666657 4:0.150684 5:-0.43421 6:-0.399999 8:-0.833334 9:-0.0204094 10:-0.00813109 12:-0.542857 13:-0.444445 15:-0.407407 16:0.488371 17:-0.471999 18:0.0434771 19:-0.19403 20:-0.263158 22:-0.461541 23:0.230767 24:-0.44186 25:0.315068 26:-0.452629 27:-0.294117 29:-0.769232 30:0.269234 31:0.191488 32:0.0752695 33:-0.882353 34:-0.249999 36:-0.739131 37:0.0384633 38:-0.0645147 39:3.62904e-06 40:-0.558824 41:0.222222 43:-0.473684 44:-0.318183 45:0.71084 46:-0.82143 47:-0.578946 48:-0.444445 50:-0.263158 51:0.0697747 52:-4.44089e-16 53:-0.142856 54:-0.0625023 55:-0.500001 57:-0.181818 58:0.166673 59:0.288885 60:-0.392854 61:-0.695652 62:-0.571429 64:-0.44 65:0.0399973 66:0.251908 67:-0.247058 68:-0.836735 69:-0.473684 71:-0.636363 72:-0.153845 73:-0.231885 74:0.299996 75:-0.492957 76:0.1 78:0.217394 79:0.047616 80:-0.232561 81:-0.122807 82:-0.187502 83:-0.384615 85:-0.157895 86:0.0697677 87:-0.156627 88:-0.11864 89:-0.571429 90:-0.23077 92:-0.545455 93:0.022221 94:-0.0927858 95:0.366663 96:-0.565217 97:-0.0769223 99:-0.391303 100:-0.346156 101:0.480769 102:-0.494252 103:-0.912088 104:-0.263158 106:-0.44 107:-0.245281 108:-0.15625 109:0.166669 110:-0.488096 111:-0.500001 113:-0.500001 114:0.0416668 115:0.0784322 116:-0.304348 117:-0.318182 118:-0.384615 120:-0.130434 121:0.541674 122:-0.360003 123:-0.0833298 124:-0.272732 125:-0.238094 127:-0.333333 128:-0.111109 129:0.0285707 130:-0.153848 131:-0.714286 132:-0.733333 134:-0.545455 135:0.509432 136:-0.233335 137:-0.16279 138:-0.537501 139:-0.333333 141:-0.272727 142:-0.535714 143:0.0212761 144:0.02655 145:-0.458716 146:-0.384617 148:-0.652173 149:0.280001 150:-0.0534349 151:-0.253332 152:-0.564102 153:-0.529411 155:-0.416669 156:0.0909063 157:-0.292927 158:0.428573 159:-0.6875 160:-0.36842 162:-0.399999 163:-0.0799996 164:0.0839714 165:-0.2439 166:-0.678572 167:-0.538463 169:-0.500001 170:0.0545483 171:-0.0728479 172:0.326925 173:-0.69091 174:0.368422 
0.1950350924758325 1:-0.454545 2:-3.46154e-06 3:0.0999994 4:0.0958891 5:-0.710527 6:-0.3 8:-0.750001 9:0.0204121 10:-0.0569103 11:0.0606067 12:-0.485714 13:-0.777778 15:-0.62963 16:-0.302321 17:0.424 18:-0.536233 19:-0.58209 20:-0.578947 22:-0.846154 23:3.46154e-06 24:0.0697692 25:-0.123288 26:-0.51579 27:-0.64706 29:-3.46153e-06 30:0.153844 31:-0.00709292 32:0.118281 33:-0.818182 34:-0.375001 36:-0.478259 37:-0.30769 38:0.467741 39:-0.419354 40:-0.764706 41:0.222222 43:-0.684211 44:-0.136362 45:0.542166 46:-0.357143 47:-0.842104 48:-0.777778 50:-0.473684 51:0.116282 52:-0.0212745 53:-0.0158707 54:-0.312502 55:-0.3 57:-0.363637 58:0.222223 59:0.2 60:-0.321424 61:-0.608696 62:-0.428571 64:-0.359999 65:-0.240002 66:0.435116 67:-0.529416 68:-0.768706 69:-0.36842 71:-0.363637 72:-0.0384629 73:0.275363 74:-0.233336 75:-0.788733 76:-0.3 78:-0.130434 79:0.333334 80:-0.465117 81:0.157899 82:-0.250001 83:-0.23077 85:-0.473683 86:-0.069774 87:-0.373495 88:0.355935 89:-0.619047 90:0.0769223 92:-0.272727 93:0.422221 94:-0.381445 95:0.366663 96:-0.434781 97:-0.23077 99:-0.565217 100:-2.59615e-06 101:0.307692 102:-0.333333 103:-0.912088 104:-0.789474 106:-0.119999 107:-0.207548 108:-0.234374 109:0.261908 110:-0.571429 111:-0.199999 113:-0.500001 114:0.0833388 115:0.0980381 116:-0.217393 117:-0.59091 118:-0.23077 120:0.130438 121:0.0416668 122:-0.039999 123:-0.249999 124:-0.0909139 125:-0.333333 127:-0.428571 128:0.15555 129:-0.199999 130:-0.153848 131:-0.535714 132:-0.466666 134:-0.454545 135:0.0188642 136:-0.133333 137:-0.0697657 138:-0.475001 139:-0.619047 141:-0.636363 142:0.0714254 143:0.361702 144:0.115045 145:-0.844036 146:-0.384617 148:-0.565217 149:-0.520001 150:0.358778 151:-0.253332 152:-0.717949 153:-0.764706 155:-0.833334 156:0.0454562 157:-0.171718 158:0.0714254 159:-0.437502 160:0.263158 162:-0.500001 163:1.35e-06 164:-0.0534332 165:-0.0243878 166:-0.75 167:-0.384615 169:-0.3 170:-0.127268 171:0.231787 172:0.0769241 173:-0.681818 174:-0.473684 
0.5703716423796006 1:-0.545455 2:-0.153843 3:0.4 4:-0.0684964 5:-0.789473 6:-0.399999 8:-0.583335 9:0.0204121 10:0.252031 11:-0.333333 12:-0.771428 13:-0.555555 15:-0.703703 16:0.302322 17:0.00799919 18:-0.15942 19:-0.641792 20:-0.263158 22:-0.0769272 23:0.0384612 24:-0.0852716 25:0.123288 26:-0.726316 27:-0.64706 29:-0.384617 30:0.46154 31:-0.290781 32:0.0967727 33:-0.679144 34:0.249999 36:-0.565217 37:-0.269233 38:0.51613 39:-0.387099 40:-0.779412 41:-0.11111 43:-0.0526311 44:-0.318183 45:0.156624 46:-4.01786e-06 47:-0.631579 48:-0.777778 50:-0.36842 51:-0.0232499 52:-0.17021 53:0.111108 54:-0.0625023 55:-0.199999 57:-0.363637 58:0.222223 59:0.13333 60:-0.285714 61:-0.52174 62:-0.428571 64:-0.44 65:-0.400001 66:0.206107 67:-0.31765 68:-0.632653 69:-0.263158 71:-0.545455 72:3.46154e-06 73:0.101447 74:0.266666 75:-0.816901 76:-0.3 78:-0.478259 79:0.333334 80:0.0930192 81:-0.403504 82:-0.312502 83:-0.692308 85:-0.263157 86:0.116275 87:-0.421689 88:0.288138 89:-0.571429 90:-0.384615 93:0.377781 94:-0.340207 95:-4.125e-06 96:-0.130433 97:-0.23077 99:-0.565217 100:-0.115384 101:0.250001 102:-0.379311 103:-0.78022 104:-0.578947 106:-0.519999 107:0.283021 108:-0.250001 109:0.285715 110:-0.690475 111:-1.125e-06 113:-0.1 114:0.166673 115:-0.490195 116:0.275363 117:-0.272727 118:-0.23077 120:-0.130434 121:-0.416669 122:0.466665 123:0.0416673 124:-0.818182 125:-0.714286 127:-0.142857 128:-0.0222195 129:-0.390473 130:-0.0769213 131:-0.357143 132:-0.0666675 134:-0.545455 135:0.0188642 136:0.333332 137:-0.255815 138:-0.7875 139:-0.0476197 141:-0.363637 142:0.428573 143:-0.234043 144:-0.0442474 145:-0.46789 146:-0.615386 148:-0.130434 149:0.2 150:-0.557252 151:0.413333 152:-0.487179 153:-0.411766 155:-0.333335 156:-0.136365 157:-0.191918 158:0.321424 159:-0.437502 160:-0.578947 162:0.1 163:-0.120005 164:-0.297711 165:-0.073169 166:-0.214283 167:-0.384615 169:-0.500001 170:-0.236363 171:-0.470198 172:0.519231 173:-0.345455 174:-0.684211 
0.6618490748022737 1:-0.181818 2:0.269226 3:0.116668 4:-0.232876 5:-0.763157 6:0.199999 8:-0.250002 9:0.18368 10:-0.203252 11:0.0303067 12:-0.542857 13:-0.555555 15:-0.25926 16:0.534888 17:-0.583999 18:0.130438 19:-0.223884 20:-0.0526311 22:-0.384617 23:0.192309 24:-0.317831 25:0.260273 26:-0.536842 27:-0.529411 29:-0.153849 30:0.230768 31:0.191488 32:-0.0107531 33:-0.903743 34:-0.375001 36:-0.21739 37:0.346151 38:0.209677 39:-0.193548 40:-0.852941 41:-0.333333 43:-0.263158 44:-0.045452 45:-0.15663 46:-0.250003 47:-0.105262 48:-0.11111 50:0.0526311 51:-0.255817 52:-0.297871 53:0.301586 54:0.187497 55:-0.500001 57:-0.181818 58:0.666674 59:-0.46667 60:-0.107136 61:-0.0869568 62:-0.142856 64:-0.119999 65:0.800002 66:-0.0992367 67:-0.411764 68:-0.795918 69:-0.0526311 71:0.181818 72:0.346158 73:-0.333334 74:0.299996 75:-0.746479 76:0.399999 78:-0.652173 79:0.666667 80:-0.325586 81:-0.0877146 82:-0.250001 83:-0.23077 85:-0.157895 86:0.0232503 87:-0.132528 88:-0.152543 89:-0.47619 90:-0.384615 92:-0.454545 93:0.422221 94:-0.298969 95:0.400001 96:-0.565217 97:-0.23077 99:-0.304345 100:0.423075 101:-0.173077 102:-0.402297 103:-0.626374 104:-0.684211 106:-0.44 107:0.396226 108:-0.15625 109:2.41072e-06 110:-0.642858 111:-0.199999 113:-0.399999 114:0.208336 115:-0.254903 116:0.0434762 117:-0.318182 118:-0.384615 120:-0.130434 121:-0.500003 122:0.76 123:-0.374996 124:-0.818182 125:-0.619047 127:-0.0476197 128:-0.466669 129:0.447619 130:-0.717948 131:-0.535714 132:-0.733333 135:0.283023 136:-0.200001 137:0.0465122 138:-0.637499 139:-0.619047 141:-0.363637 142:-0.214286 143:0.035459 144:0.0796461 145:-0.623854 146:0.0769186 148:-0.304345 149:0.159995 150:-0.404579 151:0.306665 152:-0.564102 153:-0.411766 155:-0.416669 156:0.363637 157:-0.535355 158:0.464283 159:-0.500001 160:-0.157893 162:-0.199999 163:0.319996 164:-0.419847 165:0.0487812 166:-0.464287 167:-0.0769223 169:-0.1 170:-0.163637 171:-0.152319 172:0.153848 173:-0.472727 174:-0.36842 
0.2169048942999886 1:-0.454545 2:0.461541 3:0.266668 4:-0.287671 5:-0.789473 6:-0.500001 8:-0.333335 9:0.102046 10:-0.0406518 11:-0.0606067 12:-0.542857 13:-1 15:-0.555555 16:0.0232592 17:0.0880019 18:-0.217392 19:-0.552239 20:-0.473684 22:-0.692308 23:-0.153845 24:0.333333 25:-0.150682 26:-0.789474 27:-0.764706 29:-0.153849 30:-0.346153 31:-0.035462 32:0.290321 33:-0.700535 34:-0.625001 36:-0.304345 37:-0.076927 38:0.451613 39:-0.548388 40:-0.764706 41:-0.11111 43:-0.473684 44:-0.136362 45:0.0602376 46:-0.0714254 47:-0.473683 48:-0.444445 50:-0.473684 51:-0.0697674 52:0.553193 53:-0.46032 54:-0.625001 55:-0.700001 57:-0.727273 58:0.277786 59:-0.111115 60:0.178574 61:-0.391304 62:-0.714286 64:-0.2 65:0.239995 66:0.0229023 67:-0.129412 68:-0.795918 69:-0.578947 71:-0.272727 72:0.230767 73:0.0724647 74:0.0333337 75:-0.830986 76:-0.199999 78:-0.043476 79:0.380959 80:-0.581395 81:0.192983 82:-1.6875e-06 83:-0.538463 85:-0.368421 86:0.209299 87:0.012047 88:-0.288138 89:-0.761904 90:-0.0769223 92:-0.818182 93:-0.0666689 94:0.69072 95:-0.433331 96:-0.782608 97:-0.692308 99:-0.130434 100:0.115379 101:-0.346154 102:-0.379311 103:-0.560438 104:0.473684 106:-0.2 107:0.433967 108:-0.281251 109:-0.214284 110:-0.511906 111:-1.125e-06 113:-0.500001 114:0.708334 115:-0.450979 116:0.0144936 117:-0.272727 118:-0.538463 120:-0.565217 121:0.208336 122:0.386667 123:-0.500002 124:-0.363639 125:-0.619047 127:-0.333333 128:0.24444 129:-0.180949 130:-0.410257 131:-0.464286 132:0.0666675 134:-0.363637 135:0.0943368 136:-0.0166669 137:0.186049 138:-0.7875 139:-0.238094 141:-0.181818 142:0.142855 143:-0.432624 144:0.274337 145:-0.541285 146:0.153842 148:-0.391303 149:-0.16 150:-0.0839695 151:-0.333336 152:-0.256412 153:-0.411766 155:-0.666667 156:-0.272725 157:0.393941 158:-0.178574 159:-0.875 160:-0.684211 162:-0.700001 163:-0.72 164:0.0992371 165:0.0243933 166:-0.428572 167:-0.538463 169:-0.3 170:0.01818 171:0.0993383 172:0.576922 173:-0.863636 174:-0.473684 
0.1131416207501863 1:-0.636363 2:-3.46154e-06 3:0.133333 4:0.260275 5:-0.776316 6:-0.399999 8:-0.500001 9:0.306126 10:-0.317072 11:0.21212 12:-0.628571 13:-0.11111 15:-0.333333 16:-0.0232582 17:-0.456001 18:-0.0434771 19:-0.0447779 20:0.473684 22:-0.769232 23:-0.230769 24:-0.00775291 25:0.287674 26:-0.663158 27:-0.411766 29:-0.384617 30:4.32693e-06 31:0.0354592 32:0.139784 33:-0.775401 34:-0.249999 36:-0.478259 37:-0.153851 38:0.193549 39:-0.161293 40:-0.60294 41:-0.444445 43:-0.36842 44:-0.136362 45:0.084337 46:-4.01786e-06 47:-0.526315 48:-0.777778 50:-0.473684 51:0.0697747 52:0.0425537 53:0.0158721 54:-0.250001 55:-0.700001 57:-0.454545 58:0.666674 59:-0.28889 60:-0.0714254 61:-0.26087 62:-0.428571 64:-0.519999 65:0.119998 66:0.114503 67:-0.0588257 68:-0.809524 69:-0.684211 71:-0.636363 72:0.115385 73:0.231882 74:-0.266666 75:-0.704226 76:-0.6 78:-0.304345 79:0.28572 80:-0.581395 81:0.157899 82:0.0624975 83:0.23077 85:-0.368421 86:-0.116281 87:-0.228915 88:0.254235 89:-0.809524 90:0.23077 92:-0.0909102 93:-0.022219 94:-0.113402 95:0.299996 96:-0.434781 97:-0.692308 99:-0.565217 100:0.115379 101:0.211539 102:-0.517238 103:-0.758242 104:-0.473684 106:-0.44 107:0.0943436 108:0.125 109:0.0476221 110:-0.738095 111:-0.6 113:-1.125e-06 114:0.249998 115:-0.431373 116:-0.246376 117:0.090908 118:0.384615 120:-0.565217 121:-0.0416677 122:0.253329 123:-0.0416673 124:-0.363639 125:-0.619047 127:-0.714286 128:-0.0222195 129:0.104762 130:-0.461539 131:-0.500001 132:-0.199999 134:-0.545455 135:0.358487 136:0.0333319 137:0.0465122 138:-0.762501 139:-0.619047 141:-0.272727 142:-0.107144 143:0.290778 144:-0.0442474 145:-0.66055 146:-0.769232 148:-0.304345 149:0.0800027 150:-0.282443 151:0.0666653 152:-0.487179 153:-0.411766 155:-0.500001 156:0.0909063 157:-0.0707091 158:-0.214284 159:-0.312502 160:-0.157893 162:-0.700001 163:-0.199997 164:0.251907 165:-0.512194 166:-0.392858 167:-0.846154 169:-1.125e-06 170:0.163637 171:0.205297 172:-0.0576909 173:-0.7 174:-0.473684 
1.628836733882213 1:-0.363637 2:0.153845 3:0.200001 4:-0.0137013 5:-0.802632 6:-0.3 8:-0.833334 9:-0.42857 10:0.479672 11:-0.272727 12:-0.771428 13:-0.777778 15:-0.407407 16:0.302322 17:-0.343998 18:-0.130431 19:-0.223884 20:0.0526311 22:-0.769232 23:-0.153845 24:0.255815 25:-0.123288 26:-0.726316 27:-0.529411 29:-0.692308 30:0.19231 31:0.148936 32:0.161292 33:-0.860963 34:-0.499999 36:-0.652173 37:-0.153851 38:0.177418 39:0.354837 40:-0.794118 41:-0.444445 43:-0.36842 44:-0.272722 45:0.084337 46:0.250003 47:-0.789473 48:-0.666667 50:-0.473684 51:-0.116274 52:0.361704 53:-0.238099 54:-0.437502 55:-0.700001 57:-0.727273 58:0.166673 59:0.04444 60:0.178574 61:-0.739131 62:-0.285715 64:-0.679999 65:-0.160001 66:0.175572 67:-0.0352933 68:-0.823129 69:-0.157893 71:-0.545455 72:-0.192303 73:0.130433 74:0.433331 75:-0.84507 76:-0.3 78:-0.391303 79:-0.285717 80:0.534883 81:-0.508773 82:-0.500001 83:-0.846154 85:-0.473683 86:-0.0232566 87:0.0361465 88:-0.355935 89:-0.47619 90:0.0769223 92:-0.363637 93:-0.155559 94:0.134019 95:0.0666633 96:-0.608695 97:0.0769223 99:-0.652173 100:-0.230774 101:0.519231 102:-0.425283 103:-0.934066 104:-0.684211 106:-0.679999 107:-0.245281 108:0.187501 109:0.261908 110:-0.785715 111:-0.3 113:-0.500001 114:-0.0416677 115:-0.0196103 116:-0.0724608 117:-0.409091 118:-0.23077 120:-0.652173 121:-0.0833303 122:0.466665 123:-0.333333 124:-0.363639 125:-0.52381 127:-0.619047 128:-0.0222195 129:-0.0857121 130:-0.153848 131:-0.571429 132:-0.333334 134:-0.636363 135:0.132077 136:0.0333319 137:0.16279 138:-0.749999 139:-0.52381 141:-0.545455 142:-0.250001 143:0.304964 144:0.327433 145:-0.788991 146:-0.846154 148:-0.826087 149:-0.480001 150:0.358778 151:-0.0933365 152:-0.820512 153:-0.764706 155:-0.833334 156:-0.272725 157:0.252527 158:-0.107144 159:-0.6875 160:-0.263158 162:-0.500001 163:-0.120005 164:0.175572 165:-0.2439 166:-0.785715 167:-0.692308 169:-0.199999 170:-0.127268 171:0.152319 172:0.365387 173:-0.79091 174:-0.263158 
0.108074127915669 1:-0.363637 2:0.307693 3:0.183336 4:-0.0410958 5:-0.828948 6:-0.3 8:-3.74999e-06 9:-0.183668 10:-0.0569103 11:-0.18182 12:-0.457142 13:-0.444445 15:-0.333333 16:-0.16279 17:0.280001 18:-0.362318 19:-0.701493 20:-0.578947 22:-0.384617 23:0.230767 24:-0.271317 25:0.424659 26:-0.705263 27:-0.764706 29:-0.153849 30:0.19231 31:0.0638283 32:0.182795 33:-0.903743 34:-0.249999 36:-0.652173 37:0.192303 38:0.51613 39:-0.354837 40:-0.882353 41:-0.666667 43:0.157896 44:0.136368 45:-0.325304 46:-4.01786e-06 47:-0.578946 50:-0.263158 51:-0.116274 52:0.127661 53:-0.111113 54:-0.312502 55:-0.399999 57:-0.272727 58:0.222223 59:-0.06667 60:-0.285714 61:-0.304348 64:-0.6 65:0.399997 66:0.374047 67:-0.435296 68:-0.918367 69:-0.578947 71:-0.363637 72:-0.115387 73:0.478261 74:-0.199999 75:-0.929578 76:-0.6 78:-0.043476 79:0.333334 80:-0.255815 81:-0.36842 82:-0.0625023 83:0.0769223 85:-0.473683 86:-0.162788 87:-0.132528 88:0.05085 89:-0.619047 90:0.23077 93:0.422221 94:-0.237115 95:-0.0666641 96:-0.391303 97:0.0769223 99:-0.652173 100:0.0384637 101:0.115382 102:-0.402297 103:-0.736264 104:-0.263158 106:-0.679999 107:0.0566029 108:0.328126 109:-0.0476173 110:-0.797618 111:-0.6 113:-0.1 114:4.21876e-06 115:0.274508 116:-0.623189 117:-0.318182 118:-0.692308 120:-0.21739 121:0.125001 122:0.359997 123:-0.624999 124:-0.0909139 125:-0.714286 127:0.142857 128:0.0666705 129:-0.00952071 130:-0.461539 131:-0.642858 132:-0.333334 134:-0.454545 135:0.245282 136:0.0999994 137:0.0232587 138:-0.762501 139:-0.714286 141:-0.727273 142:-0.285715 143:0.404255 144:0.00884868 145:-0.752294 146:-0.0769272 148:-0.652173 149:0.119999 150:-0.343509 151:0.306665 152:-0.51282 153:-0.529411 155:-0.333335 156:0.409098 157:-0.717173 158:0.464283 159:-3.51561e-06 160:-0.263158 162:-0.199999 163:0.239995 164:-0.343512 166:-0.571429 167:0.23077 169:-0.399999 170:-0.636363 171:0.245034 172:0.26923 173:-0.654546 174:-0.36842 
0.3375391872738283 1:-0.181818 2:0.115387 3:-0.616667 4:-0.123285 5:-0.144738 6:-0.1 8:-0.500001 9:-0.42857 10:-0.203252 11:-0.575753 12:0.600001 13:-0.777778 15:-0.777778 16:0.116284 17:0.263999 18:-0.0434771 19:-0.910448 20:-0.894737 22:-0.0769272 23:0.115385 24:-0.100774 25:-0.150682 26:-0.621052 27:-0.176471 29:-0.538463 30:-0.153846 31:-0.234043 32:0.311829 33:-0.582887 34:-0.375001 36:0.217394 37:-0.0384607 38:-0.0967732 39:-0.161293 40:-0.544119 41:-0.11111 43:0.263158 44:-2.04545e-06 45:0.0120443 46:-0.392854 47:-0.421052 48:-0.444445 50:-0.473684 51:-0.0697674 52:0.191489 53:-0.238099 54:-0.125002 55:-0.500001 58:-0.166665 59:-0.111115 60:0.0714335 61:-0.391304 62:-0.285715 64:-0.2 65:0.440002 66:0.114503 67:-0.411764 68:-0.863945 69:0.0526311 71:-0.272727 72:0.307691 73:-0.231885 74:0.166669 75:-0.591548 76:-0.399999 78:0.217394 79:0.190481 80:-0.139537 81:-0.36842 82:-0.125002 83:-0.538463 85:-0.473683 86:0.488372 87:-0.204821 88:-0.457628 89:-0.47619 90:0.384615 92:0.272727 93:-0.022219 94:-0.134023 95:0.133331 96:-0.565217 97:0.0769223 99:-0.043476 100:0.192303 101:-0.403849 102:-0.149423 103:-0.626374 104:-0.263158 106:-0.0399996 107:-0.0188699 108:-0.562501 109:0.523814 110:-0.535716 111:-0.1 113:-0.1 114:0.333333 115:-0.17647 116:-0.304348 117:-0.227273 118:-0.384615 120:0.130438 121:0.249998 122:-0.360003 123:-0.0833298 124:-0.181822 125:0.0476197 127:-0.428571 128:0.0666705 129:-0.352378 130:-0.0256385 131:-0.357143 132:-0.466666 134:-0.0909102 135:0.433959 136:-0.266668 137:0.0930245 138:-0.724999 139:-0.0476197 141:-0.727273 142:-0.428572 143:-0.191491 144:0.39823 145:-0.559634 146:0.153842 148:0.478265 149:-0.440001 150:-0.435113 151:-0.0133326 152:-0.128202 153:-0.0588229 155:-0.250002 156:0.227277 157:-0.232323 158:-0.285714 159:-0.0625027 160:-0.157893 162:-0.3 163:-0.400001 164:-0.083968 166:-0.500001 167:-0.0769223 169:-0.199999 170:0.49091 171:0.125829 172:0.288463 173:-0.881818 174:-0.36842 
1.616223687013309 1:-0.0909102 2:0.307693 3:-0.0333319 4:0.0136994 5:-0.697368 6:-0.500001 8:-0.583335 9:0.224492 10:0.0569103 11:-0.42424 12:-0.428572 13:-0.777778 15:-0.481482 16:-0.0232582 17:0.168001 18:-0.217392 19:-0.641792 20:-0.684211 22:-0.230773 23:0.269234 24:-0.472868 25:0.0136973 26:-0.178949 27:-0.764706 29:-0.230773 30:-0.038462 31:0.163119 32:-0.204301 33:-0.711231 34:-0.249999 36:-0.21739 37:-0.192309 38:0.0483881 39:0.129031 40:-0.691177 43:-0.157893 44:-0.136362 45:-0.0361437 46:-0.0357147 47:-0.526315 48:-0.333333 50:-0.473684 51:0.116282 52:0.361704 53:-0.269842 54:-0.500001 55:-1 57:-0.0909102 58:-0.111103 59:-0.333335 60:0.107144 61:0.0869603 62:-0.571429 64:0.200002 65:-0.279998 66:-0.0687019 67:-0.176472 68:-0.537415 69:-0.894737 71:-0.727273 72:-0.384615 73:0.289854 74:0.299996 75:-0.802817 76:-0.6 78:-0.565217 79:-0.61905 80:0.395346 81:-0.36842 82:0.0624975 83:-0.538463 85:-0.368421 86:-0.395354 87:-0.0602405 88:-0.0169475 89:-0.190476 90:-0.692308 92:-0.545455 93:-0.0666689 94:-0.443299 95:0.766668 96:-0.304346 97:0.0769223 99:-0.739131 100:-0.884616 101:0.749999 102:-0.402297 103:-0.824176 104:-0.684211 106:-0.44 107:-0.433961 108:0.468751 109:-0.214284 110:-0.690475 111:-0.700001 113:-0.399999 114:-0.541666 115:-0.17647 116:0.420289 117:-0.454545 118:0.23077 120:-0.478259 121:-0.291662 122:0.52 123:-0.45833 124:-0.0909139 125:-0.428571 127:-0.619047 128:0.15555 129:-0.238095 130:-0.282052 131:-0.214284 132:-0.466666 134:-0.818182 135:-0.207547 136:0.616667 137:-0.139537 138:-0.85 139:-0.809524 141:-1 142:-0.357143 143:-0.0780143 144:0.557522 145:-0.614678 146:-0.615386 148:-0.478259 149:1.8e-06 150:-0.0534349 151:-0.14667 152:-0.51282 153:-0.64706 155:-0.500001 156:0.136367 157:-0.272727 158:0.0714254 159:-0.250002 160:-0.157893 162:-0.700001 163:-0.120005 164:0.236642 165:-0.36585 166:-0.75 167:-0.384615 169:-0.8 170:0.01818 171:0.298015 172:0.211539 173:-0.8 174:-0.263158 
0.2482122336553254 1:-0.818182 2:0.153845 3:0.500001 4:-0.178081 5:-0.842105 6:-0.700001 8:-0.666667 9:-0.0612217 10:-0.154472 11:0.0909066 12:-0.457142 13:-0.222222 15:-0.703703 16:0.348839 17:-0.0879983 18:-0.42029 19:-0.19403 20:-0.36842 22:-0.538463 23:-0.153845 24:0.193798 25:-0.260273 26:-0.557895 27:-0.764706 29:-0.384617 30:0.115386 31:0.120567 32:0.0537614 33:-0.796791 34:-0.625001 36:-0.304345 37:0.0769209 38:0.403224 39:-0.22581 40:-0.882353 41:-0.444445 43:-0.263158 44:-0.181822 45:-0.15663 46:0.0357147 47:-0.157894 48:-0.555555 50:0.578949 51:0.395356 52:-0.48936 53:-0.301585 54:0.68749 55:-0.399999 57:-0.727273 58:0.722224 59:-0.28889 60:0.142863 61:-0.478261 62:-0.285715 64:-0.44 65:0.199999 66:0.0839683 67:-0.152939 68:-0.809524 69:-0.36842 71:-0.272727 72:-0.192303 73:0.101447 74:0.333333 75:-0.802817 76:-0.399999 78:-0.130434 79:0.380959 80:-0.534888 81:-0.0175461 82:0.0624975 83:0.0769223 85:0.263158 86:-0.069774 87:-0.759038 88:0.118648 89:-0.0952377 90:0.846152 92:-0.363637 93:-0.111109 94:-0.0721647 95:0.133331 96:-0.260868 97:-0.0769223 99:-0.565217 100:-0.269232 101:0.0576909 102:-0.218387 103:-0.736264 104:-0.0526311 106:-0.76 107:0.169816 108:-0.109376 109:0.285715 110:-0.738095 111:0.1 113:-0.500001 114:0.0416668 115:-0.313725 116:0.15942 117:-0.136363 118:-0.384615 120:-0.304345 121:4.21876e-06 122:-0.120003 123:0.375005 124:-0.363639 125:-0.619047 127:-0.142857 128:-0.155559 129:-0.142858 130:-0.128204 131:-0.571429 132:-0.333334 134:-0.636363 135:-0.283019 136:0.200001 137:0.0232587 138:-0.700001 139:-0.238094 141:-0.181818 142:-0.214286 143:0.319147 144:0.168141 145:-0.816514 146:-0.384617 148:-0.652173 149:0.119999 150:-0.633587 151:0.439997 152:-0.333333 153:0.294117 155:-0.666667 156:-0.181815 157:-0.171718 158:0.214284 159:-0.0625027 160:-0.473684 162:-0.6 163:0.199999 164:-0.496182 165:-0.0243878 166:0.0714262 167:-0.0769223 169:-0.3 170:0.272733 171:0.0728479 172:0.346154 173:-0.80909 174:-0.36842 
1.093833269609908 1:-0.636363 2:0.115387 3:-0.216666 4:0.205479 5:-0.539474 6:-0.199999 8:-0.333335 9:0.551028 10:-0.560976 11:0.18182 12:-0.599999 13:0.666667 15:-0.481482 16:0.720927 17:-0.0719999 18:-0.42029 19:-0.492538 20:-0.578947 22:-0.692308 23:0.46154 24:-0.0542634 25:-0.178083 26:-0.663158 27:-0.294117 29:-0.307695 30:0.692312 31:-0.134752 32:0.139784 33:-0.828876 34:-0.499999 36:-0.304345 37:-0.423078 38:0.14516 39:0.0322585 40:-0.573528 41:-0.444445 43:-0.0526311 44:-0.0909123 45:-0.253011 46:-0.0357147 47:-0.421052 48:0.222222 50:-0.157893 51:0.348838 52:-0.297871 53:0.142858 54:-0.375001 55:-0.199999 57:-0.181818 58:-0.0555526 59:-2.22045e-16 60:-0.214284 61:-0.391304 62:0.142859 64:-0.76 65:0.160003 66:0.496182 67:-0.458824 68:-0.918367 69:-0.473684 71:-0.727273 72:-0.153845 73:0.391303 74:0.133331 75:-0.887324 76:-0.8 78:-0.478259 79:-0.238092 80:0.372093 81:-0.228067 82:-0.5625 83:-0.846154 85:-0.473683 86:-0.302329 87:-0.108434 88:0.152543 89:-0.47619 90:-0.384615 92:-0.454545 93:-0.022219 94:0.0927812 95:0.233336 96:-0.565217 97:-0.846154 99:-0.826087 100:-0.115384 101:0.26923 102:-0.241378 103:-0.846154 104:-0.684211 106:-0.679999 107:-0.773584 108:0.0624993 109:-0.190476 110:-0.285714 111:-0.399999 113:-0.8 114:0.583337 115:-0.117648 116:-0.0724608 117:-0.636364 118:-0.538463 120:-0.739131 121:4.21876e-06 122:0.493329 123:-0.125002 124:-0.818182 125:-0.714286 127:-0.809524 128:0.24444 129:-0.219045 130:-0.179487 131:-0.500001 132:-0.0666675 134:-0.636363 135:-0.245283 136:-0.283333 137:-0.255815 138:-0.162499 139:-0.52381 141:-0.909091 142:-0.821429 143:-0.31915 144:0.221241 145:-0.155963 146:-0.769232 148:-0.565217 149:-0.0799991 150:-0.00763453 151:0.119999 152:-0.717949 153:-0.882353 155:-0.666667 156:-0.0909043 157:-0.353536 158:0.500002 159:-0.250002 160:-0.263158 162:-0.500001 163:-0.240002 164:-0.0534332 165:-0.219512 166:-0.285713 167:-0.23077 169:-1 170:-1 171:-0.801324 172:-0.884615 173:0.809092 174:-1 
0.685223467294701 1:-0.363637 2:0.307693 3:0.183336 4:-0.315072 5:-0.644736 6:-0.700001 8:-0.416669 9:0.0612245 10:-0.154472 11:0.18182 12:-0.628571 13:-0.555555 15:-0.555555 16:0.255815 17:-0.407998 18:0.304346 19:-0.313434 20:-0.473684 22:-0.0769272 23:0.307691 24:-0.922481 25:0.506849 26:-0.326316 27:1 29:-0.153849 30:0.269234 31:-0.035462 32:0.0967727 33:-0.818182 34:-0.125 36:-0.478259 37:0.307693 38:0.419355 39:-0.451616 40:-0.823529 41:-0.666667 43:-0.36842 44:0.0909082 45:-0.13253 46:0.0357147 47:-0.473683 48:-0.555555 50:-0.578947 51:0.0232572 52:-4.44089e-16 53:0.174601 54:-0.375001 55:-0.6 57:-0.363637 58:0.222223 59:-0.28889 60:0.321432 61:-0.478261 62:-0.285715 64:-0.119999 65:0.479998 66:-0.083971 67:-0.0352933 68:-0.85034 69:-0.578947 71:-0.454545 72:0.307691 73:0.159419 74:-3.75e-06 75:-0.901408 76:-0.199999 78:0.130438 79:1.60715e-06 80:-0.209302 81:-0.298244 82:0.312497 83:-0.692308 85:0.157894 86:0.302323 87:-0.493976 88:-0.11864 89:-0.285714 90:-0.23077 93:0.111111 94:-0.237115 95:-4.125e-06 96:-0.173912 97:0.0769223 99:-0.391303 100:0.0769213 101:-0.173077 102:-0.103446 103:-0.802198 104:-0.157893 106:-0.44 107:0.471699 108:-0.093749 109:2.41072e-06 110:-0.714285 111:-0.199999 113:-0.199999 114:0.0833388 115:-0.058822 116:-0.217393 117:-0.318182 118:-0.384615 120:-0.478259 121:-0.208327 122:-0.0666691 123:0.500002 124:-0.363639 125:-0.428571 127:-0.142857 128:0.0222205 129:-0.561902 130:0.128204 131:-0.285715 132:-0.333334 134:-0.0909102 135:0.0943368 136:-0.216666 137:0.186049 138:-0.612499 139:-0.714286 141:-0.181818 142:-0.178574 143:0.163119 144:0.150443 145:-0.706423 146:-0.461541 148:-0.652173 149:0.319997 150:-0.23664 151:0.119999 152:-0.641025 153:-0.529411 155:-0.416669 156:-0.0454542 157:-0.313132 158:0.607142 159:-0.625001 160:-0.578947 162:-0.199999 163:0.319996 164:-0.633587 165:0.268294 166:-0.321431 167:0.0769223 169:-0.3 170:-0.01818 171:-0.0860916 172:0.346154 173:-0.636364 174:-0.263158 
1.109207805367664 2:0.192311 3:0.200001 4:-0.0958909 5:-0.881579 6:0.1 8:0.0833304 9:0.38776 10:-0.463414 11:-0.151513 12:-0.371428 13:0.222222 15:-0.185185 16:0.534888 17:-0.392 18:-0.0724597 19:-0.402986 20:-0.0526311 22:-0.307695 23:0.73077 24:-0.488371 25:-0.0136973 26:-0.431579 27:-0.411766 29:-0.384617 30:0.961542 31:-0.191491 32:0.139784 33:-0.860963 34:-0.375001 36:0.0434799 37:0.346151 38:-0.145163 39:3.62904e-06 40:-0.735293 41:0.222222 43:0.157896 44:0.454549 45:-0.566265 46:0.0714254 47:-0.36842 48:-0.333333 50:-0.157893 51:0.255814 52:-0.106382 53:-0.111113 54:-0.187502 55:-0.399999 57:-0.363637 58:0.777787 59:-0.06667 60:-0.392854 61:-0.434783 62:-0.428571 64:0.200002 65:0.319996 66:-0.206107 67:-0.0117662 68:-0.782313 69:-0.36842 71:-0.454545 72:0.46154 73:0.101447 74:-0.333333 75:-0.746479 76:-0.3 78:0.0434799 79:0.428574 80:-0.790698 81:0.122807 82:-1.6875e-06 83:0.846152 85:-0.473683 86:-0.069774 87:0.253014 88:-0.491522 89:-0.619047 90:-0.0769223 92:-0.181818 93:0.155551 94:-0.360824 95:0.633333 96:-0.608695 97:-0.23077 99:-0.21739 100:0.307693 101:2.22045e-16 102:-0.655171 103:-0.560438 104:-0.578947 106:-0.279999 107:0.396226 108:0.15625 109:0.0476221 110:-0.857143 111:-0.8 113:0.399999 114:0.0416668 115:-0.137254 116:-0.420291 117:-0.136363 118:-0.0769223 120:-0.478259 121:0.125001 122:0.039999 123:-0.45833 124:0.272721 125:-0.0476197 127:-0.428571 128:0.46667 129:-0.142858 130:-0.307691 131:-0.678572 132:-0.466666 134:-0.272727 135:0.584905 136:-0.150002 137:-1.11022e-16 138:-0.8 139:0.0476197 141:-0.454545 142:0.357143 143:0.432624 144:0.0796461 145:-0.917431 146:-0.769232 148:-0.478259 149:1 150:-0.557252 151:0.146663 152:-0.564102 153:-0.764706 155:-0.583335 156:0.363637 157:-0.191918 158:0.0357147 159:-0.437502 160:-0.578947 162:-0.399999 163:0.399997 164:-0.236642 165:-0.292681 166:-0.357144 167:-0.23077 169:-0.199999 170:-0.127268 171:0.642384 172:-0.038462 173:-0.9 174:-0.684211 
0.5588096676894621 1:-0.0909102 2:0.461541 3:-0.0833307 4:-0.0684964 5:-0.736843 6:-1.125e-06 8:-0.583335 9:-0.346937 10:-0.479676 11:0.63636 12:-0.171429 13:-0.444445 15:-0.185185 16:-0.16279 17:-0.807998 18:0.565216 19:0.283581 20:-0.473684 22:-0.615386 23:-0.0769207 24:-0.410852 25:0.506849 26:-0.389473 27:-0.529411 29:-0.307695 30:-0.0769197 31:-0.21986 32:-0.204301 33:-0.37968 34:-0.499999 36:-0.478259 37:-0.153851 38:0.290321 39:0.0645134 40:-0.779412 41:-0.555555 43:-0.157893 44:-0.136362 45:-0.493978 46:0.571431 47:-0.315788 48:-0.555555 50:-0.157893 51:0.813961 52:-0.510635 53:0.0793649 54:0.0624975 55:-0.700001 57:-0.272727 58:-0.166665 59:-0.48889 60:0.464291 61:-0.0869568 64:-0.679999 65:0.199999 66:-0.0381672 67:0.0588257 68:-0.823129 69:-0.0526311 71:-0.727273 72:-0.0384629 73:0.275363 74:0.100001 75:-0.802817 76:-0.8 78:-0.130434 79:0.190481 80:-0.395351 81:-0.0877146 82:-1.6875e-06 83:0.23077 85:-0.157895 86:-0.395354 87:-0.012047 88:-0.05085 89:-0.47619 90:-0.23077 93:-0.244449 94:-0.340207 95:0.43333 96:-0.043476 97:-0.384615 99:-0.826087 100:-0.192308 101:-0.0961529 102:-0.333333 103:-0.252746 104:-0.894737 106:-0.92 107:-0.245281 108:-0.0625022 109:2.41072e-06 110:-0.392857 111:-0.6 113:-0.199999 114:-0.374998 115:-0.313725 116:0.275363 117:-0.318182 118:0.692307 120:-0.478259 121:-0.416669 122:0.173331 123:0.125002 124:-0.181822 125:-0.142857 127:-0.428571 128:-0.511111 129:-0.371428 130:0.0512828 131:0.0714258 132:-0.600001 134:-0.909091 135:-0.358491 136:-0.450002 137:-0.651161 138:0.3 139:-0.904762 141:-0.909091 142:-0.785714 143:-0.489362 144:-0.451326 145:0.321101 146:-1 148:-0.826087 149:-0.279997 150:-0.297709 151:0.253331 152:-0.28205 153:-0.294117 155:-0.583335 156:-0.227275 157:-0.0909091 158:0.178574 159:-0.312502 160:-0.36842 162:-0.6 163:-0.64 164:-0.297711 165:0.63415 166:-0.392858 167:-1 169:-1 170:-0.854545 171:-0.205297 172:-0.46154 173:0.163636 174:-1 
0.001294164868091534 1:-0.909091 2:-0.230767 3:0.21667 4:0.61644 5:-0.828948 6:-0.9 8:-0.833334 9:-0.142856 10:-0.170731 11:0.515153 12:-0.514285 13:-1 15:-0.777778 16:-0.16279 17:-0.327999 18:0.0144945 19:0.194031 20:-0.473684 22:-0.769232 23:-0.615384 24:-0.0697657 25:0.534249 26:-0.51579 27:-0.64706 29:-0.769232 30:-0.192308 31:-0.148935 32:0.440858 33:-0.636363 34:-0.75 36:-0.739131 37:-0.500001 38:0.338711 39:0.516133 40:-0.823529 41:-0.777778 43:-0.684211 44:-0.590913 45:0.0120443 46:0.357143 47:-0.473683 48:-0.222222 50:-0.473684 51:-0.209299 52:-0.127656 53:0.142858 54:0.187497 55:-0.399999 57:-0.636363 58:-0.277778 59:0.22222 60:0.0357147 61:-0.52174 62:-0.571429 64:-0.76 65:-0.44 66:-0.129771 67:0.152939 68:-0.551019 69:-0.157893 71:-0.636363 72:-0.384615 73:0.260868 74:0.366663 75:-0.760564 76:-1 78:0.478265 79:-0.238092 80:-0.720932 81:0.333336 82:0.249997 83:0.23077 85:-0.578948 86:-0.162788 87:-0.108434 88:0.05085 89:-0.333333 90:-0.692308 92:-0.545455 93:0.0666609 94:-0.567012 95:0.799998 96:-0.130433 97:-0.23077 99:-0.913043 100:-0.461539 101:0.0769241 102:0.0344819 103:-0.626374 104:-0.894737 106:-0.84 107:-0.132075 108:0.109373 109:0.142856 110:-0.630952 111:-0.700001 113:-0.9 114:-0.416666 115:-0.0784322 116:0.420289 117:-0.454545 118:-0.23077 120:-0.565217 121:-0.416669 122:0.359997 123:0.0833392 124:-0.0909139 125:-0.714286 127:-0.0476197 128:-0.244449 129:-0.409523 130:0.153848 131:-0.392858 132:-0.466666 134:-0.454545 135:-0.0188679 136:-0.0833344 137:0.0697657 138:-0.562501 139:-0.714286 141:-1 142:-0.678572 143:-0.304964 144:-0.203539 145:0.0550454 146:-1 148:-0.391303 149:-0.359998 150:-0.587787 151:0.599999 152:-0.333333 153:0.294117 155:-0.416669 156:-0.0909043 157:-0.434345 158:0.392854 159:-0.125002 160:-0.0526311 162:-0.6 163:-0.120005 164:-0.480916 165:0.146343 166:0.107145 167:-0.23077 169:-1 170:-0.781818 171:-0.298012 172:-0.173077 173:0.0636359 174:-0.894737 
0.5091794686248641 1:-0.454545 2:0.34615 3:0.150002 4:-0.260276 5:-0.671052 6:-0.500001 8:-0.333335 9:0.18368 10:0.13821 11:-0.363633 12:-0.771428 13:-0.444445 15:-0.25926 16:0.162791 17:0.0240012 18:-0.449272 19:-0.492538 20:-0.157893 22:-0.384617 23:0.115385 24:-0.0542634 25:-0.0684926 26:-0.621052 27:-0.411766 29:-0.538463 30:0.269234 31:0.404255 32:-0.376347 33:-0.828876 34:-0.499999 36:-0.21739 37:0.269227 38:-1.45161e-06 39:-0.0322585 40:-0.691177 41:-0.444445 43:-0.36842 44:-0.545453 45:0.662646 46:-0.464283 47:-0.631579 48:-0.777778 50:-0.473684 51:-0.0697674 52:0.68085 53:-0.682542 54:-0.6875 55:-0.500001 57:-0.545455 58:-0.166665 59:0.666665 60:-0.964281 61:-0.391304 62:-0.285715 64:-0.44 65:0.119998 66:-0.0534363 67:0.0117662 68:-0.755102 69:-0.36842 71:-0.181818 72:0.538464 73:-0.420292 74:0.0333337 75:-0.535213 76:0.199999 78:-0.304345 79:0.190481 80:0.0465122 81:-0.157891 82:-0.625001 83:-0.538463 85:-0.0526327 86:0.116275 87:-0.0602405 88:-0.288138 89:-0.809524 90:0.384615 92:-0.818182 93:0.111111 94:0.567012 95:-0.333334 96:-0.782608 97:-0.846154 99:-0.391303 100:-0.269232 101:0.134615 102:-0.333333 103:-0.692308 104:-0.36842 106:0.0400014 107:0.283021 108:-0.531251 109:0.142856 110:-0.5 111:0.1 113:-0.1 114:0.125001 115:-0.058822 116:-0.130432 117:-0.545454 118:-0.384615 120:-0.478259 121:0.166673 122:0.0933331 123:-0.374996 124:-0.0909139 125:-0.142857 127:-0.238094 128:0.46667 129:-0.333332 130:-0.179487 131:-0.571429 132:-0.466666 134:-0.454545 135:0.169809 136:-0.300002 137:0.302327 138:-0.762501 139:0.619049 141:-0.0909102 142:0.357143 143:-0.347519 144:0.39823 145:-0.715596 146:0.0769186 148:0.130438 149:-0.240001 150:-0.251909 151:-0.14667 152:-0.230768 153:-0.529411 155:-0.583335 156:-0.409086 157:0.454545 158:-0.500002 159:-0.625001 160:-0.263158 162:-0.399999 163:-0.160001 164:0.0381676 165:-0.195119 166:-0.571429 167:-0.538463 169:-0.700001 170:-0.527272 171:0.00662335 172:0.769232 173:-0.781818 174:0.263158 
0.9836120336480377 1:-0.818182 2:-0.192309 3:0.0166669 4:0.671229 5:-0.789473 6:-0.399999 8:-0.666667 9:0.0612245 10:-0.333335 11:0.0909066 12:-0.257141 13:-0.11111 15:-0.777778 16:-0.255814 17:-0.343998 18:0.333336 19:-0.19403 20:0.0526311 22:-0.846154 23:-0.0384629 24:-0.100774 25:0.205484 26:-0.536842 27:-0.529411 29:-0.923077 30:-0.461538 31:0.191488 32:0.35484 33:-0.732619 34:-1 36:-0.565217 37:-0.461539 38:0.306452 39:-0.0967756 40:-0.661764 43:-0.263158 44:-1 45:0.156624 46:0.464283 47:-0.473683 48:-0.666667 50:-0.578947 51:-0.255817 52:0.0851074 53:0.238093 54:-0.187502 55:-0.9 57:-0.818182 58:-0.500004 59:-0.08889 60:0.392862 61:-0.173913 62:-0.285715 64:-0.76 65:-0.279998 66:0.282442 67:-0.0352933 68:-0.782313 69:-0.789474 71:-0.818182 72:-0.384615 73:0.159419 74:0.866665 75:-0.901408 76:-0.6 78:-0.391303 79:-0.238092 80:-0.534888 81:0.403512 82:0.437501 83:-0.23077 85:-0.894737 86:-0.209305 87:-0.493976 88:0.627117 89:-0.190476 90:-0.692308 92:-0.363637 93:-0.155559 94:-0.0721647 95:0.333333 96:-0.347824 97:-0.538463 99:-0.739131 100:-0.115384 101:-0.326925 102:-0.0114905 103:-0.538462 104:-0.0526311 106:-0.92 107:-0.35849 108:-0.093749 109:0.142856 110:-0.380953 111:-0.8 113:-0.399999 114:-0.249999 115:-0.235292 116:0.0724653 117:0.136368 118:-0.538463 120:-0.478259 121:-0.0416677 122:0.0933331 123:0.125002 124:-0.545457 125:-0.333333 127:-0.714286 128:-0.644445 129:0.123812 130:-0.153848 131:-0.285715 132:-0.866667 134:-0.727273 135:-0.0943405 136:-0.150002 137:0.32558 138:-0.625 139:-0.428571 141:-0.909091 142:-0.714285 143:-0.617021 144:-0.451326 145:0.366972 146:-0.846154 148:-0.652173 149:-0.64 150:0.00763453 151:0.226667 152:-0.487179 153:-0.764706 155:-0.916667 156:-0.318185 157:-0.0101 158:0.321424 159:-0.312502 160:-0.578947 162:-0.700001 163:-0.64 164:0.0992371 166:-0.428572 167:-0.692308 169:-1 170:-0.599999 171:-0.139072 172:-0.134615 173:-0.10909 174:-0.894737 
0.5492492561508425 1:0.454545 2:0.423074 3:-0.333332 4:-0.342466 5:-0.500001 6:0.199999 8:0.333329 9:0.265305 10:-0.528455 11:-0.18182 12:-0.08571 13:-0.333333 15:-0.333333 16:0.209298 17:-0.536 18:-0.130431 19:0.283581 20:-0.36842 22:-0.461541 23:0.46154 24:-0.286823 25:-0.0410918 26:-0.536842 27:-0.176471 29:0.0769186 30:0.499998 31:-0.304964 32:0.204299 33:-0.775401 34:1.40625e-06 36:0.0434799 37:0.61538 38:-0.33871 39:-0.0967756 40:-0.558824 41:-0.222222 43:0.157896 44:0.454549 45:-0.518072 46:-0.285714 47:0.105269 48:-0.444445 50:-0.0526311 51:0.395356 52:0.0638329 53:-0.42857 54:-0.250001 55:-0.500001 57:0.181818 58:0.333336 59:-0.333335 60:4.01786e-06 61:-0.434783 64:-0.0399996 65:0.28 66:-0.00763248 67:-0.247058 68:-0.741495 69:-0.578947 71:0.454545 72:0.307691 73:-0.347826 74:0.0333337 75:-0.633804 76:0.3 78:-0.304345 79:0.761907 80:-0.0465122 81:-0.543857 82:-0.375001 83:-0.692308 85:0.157894 86:0.906976 87:-0.807231 88:-0.22034 89:-0.333333 90:0.384615 92:0.0909082 93:0.0666609 94:-0.216494 95:0.100001 96:-0.260868 97:-0.23077 99:0.0434799 100:0.769228 101:-0.653846 102:-0.310342 103:-0.604395 104:0.0526311 106:0.360002 107:0.320753 108:-0.421876 109:2.41072e-06 110:-0.547619 111:-0.1 113:0.199999 114:-0.0416677 115:-0.17647 116:-0.246376 117:-0.136363 118:-0.0769223 120:0.130438 121:0.249998 122:-0.52 123:0.0416673 124:0.272721 125:-0.142857 127:-0.142857 128:0.33333 129:-0.199999 130:-0.333335 131:-0.464286 132:-0.733333 134:0.363637 135:0.433959 136:-0.350001 137:0.0697657 138:-0.724999 139:0.0476197 141:-0.181818 142:0.107144 143:-0.262412 144:0.345134 145:-0.623854 146:-0.307695 148:0.565221 149:0.0399978 150:-0.618318 151:-0.0400025 152:-0.102564 153:-0.176471 155:-0.500001 156:-0.0909043 157:0.0505045 158:-0.0714335 159:-0.437502 160:-0.578947 162:0.3 163:0.319996 164:-0.541986 165:0.0731745 166:-0.428572 167:0.0769223 169:0.1 170:0.345453 171:0.112582 172:0.288463 173:-0.872727 174:-0.263158 
1.124850596491229 1:0.363637 2:0.269226 3:0.200001 4:-0.150686 5:-0.828948 6:-0.700001 8:-0.750001 9:0.224492 10:0.170731 11:-0.303027 12:-0.828571 13:-0.222222 15:-0.333333 16:0.0232592 17:-0.199998 18:0.333336 19:-0.641792 20:-0.578947 22:-0.384617 23:-0.0769207 24:-0.0852716 25:0.260273 26:-0.705263 27:-0.529411 29:-0.307695 30:0.307692 31:0.248226 32:-0.139787 33:-0.882353 34:-0.375001 36:-0.130434 37:-0.115385 38:0.499999 39:-0.516133 40:-0.750001 41:-0.777778 43:0.0526311 44:-0.227272 45:0.084337 46:-0.214284 47:-0.315788 48:-0.777778 50:-0.684211 51:-0.0232499 52:0.446811 53:-0.111113 54:-0.875001 55:-0.8 57:0.272727 58:0.277786 59:-0.15556 60:-0.214284 61:-0.434783 62:-0.285715 64:-0.359999 65:0.0399973 66:0.358777 67:-0.31765 68:-0.891156 69:-0.578947 71:-0.363637 72:0.615388 73:-0.0579701 74:0.466668 75:-0.929578 76:-0.8 78:-0.130434 79:0.428574 80:-0.0930245 81:-0.298244 82:-0.437502 83:-0.538463 85:0.0526318 86:0.0697677 87:-0.08434 88:-0.288138 89:-0.666667 90:0.0769223 92:-0.0909102 93:0.377781 94:-0.175256 95:0.100001 96:-0.47826 97:-0.538463 99:0.0434799 100:0.0769213 101:-0.211539 102:-0.126437 103:-0.824176 104:-0.263158 106:0.120001 107:0.396226 108:-0.296875 109:0.119049 110:-0.738095 111:0.3 113:-0.3 114:0.249998 115:0.196076 116:-0.507245 117:-0.545454 118:-0.538463 120:-0.130434 121:0.29167 122:-0.333333 123:-0.0833298 124:-4.09089e-06 125:-0.0476197 127:-0.333333 128:-0.199999 129:0.333336 130:-0.615388 131:-0.607143 132:-0.600001 135:0.20755 136:0.133333 137:-0.186044 138:-0.8 139:-0.142857 141:-0.181818 142:-0.107144 143:-0.248226 144:0.451326 145:-0.733945 146:0.538456 148:-0.391303 149:0.239996 150:-0.0229002 151:-0.199998 152:-0.717949 153:-0.529411 155:-0.333335 156:0.227277 157:-0.252527 158:-0.250003 159:0.0624971 160:-0.263158 162:0.199999 163:0.599995 164:-0.526717 165:-0.317075 166:-3.21428e-06 167:-0.384615 169:0.3 170:0.236365 171:0.178809 172:-0.0576909 173:-0.754546 174:-0.157893 
0.2398803031480677 1:-0.363637 2:-0.384616 3:0.233335 4:-0.178081 5:-0.500001 6:-0.8 8:-0.750001 9:-0.632652 10:0.691055 11:-0.666667 12:-0.714285 13:-0.555555 15:-0.925926 16:-0.441863 17:0.407998 18:-0.304346 19:-0.58209 20:-0.578947 22:-0.461541 23:-0.115387 24:-0.178296 25:0.150689 26:-0.431579 27:-0.64706 29:-0.153849 30:0.423074 31:-0.290781 32:0.0107502 33:-0.593584 34:-0.499999 36:-0.913043 37:-0.269233 38:0.629033 39:-0.387099 40:-0.764706 41:-0.555555 43:-0.578947 44:-0.409093 45:0.204818 46:0.0714254 47:-0.526315 48:-0.666667 50:-0.473684 51:-0.395348 52:0.106382 53:0.428572 54:-0.5625 55:-0.8 57:-0.545455 58:-0.222216 59:0.488885 60:-0.392854 61:-0.565217 62:-0.714286 64:-0.679999 65:-0.320003 66:0.526717 67:-0.388237 68:-0.809524 69:-0.684211 71:-0.545455 72:0.115385 73:0.144928 74:0.0333337 75:-0.746479 76:-0.700001 78:-0.304345 79:0.142855 80:-0.302327 81:0.0526303 82:0.0624975 83:-0.692308 85:-0.68421 86:0.0697677 87:-0.204821 88:0.0169475 89:-0.523809 90:0.0769223 92:-0.0909102 93:0.0666609 94:-0.298969 95:0.499998 96:-0.391303 97:-0.692308 99:-0.304345 100:-0.0769265 101:0.346154 102:-0.448275 103:-0.868132 104:-0.789474 106:-0.519999 107:-0.509433 108:0.109373 109:-0.38095 110:-0.29762 111:-0.700001 113:-0.500001 114:4.21876e-06 115:-0.156864 116:-0.0724608 117:-0.227273 118:0.0769223 120:-0.304345 121:-0.249999 122:0.226665 123:-0.249999 124:0.181814 125:-0.428571 127:-0.238094 128:0.0666705 129:-0.333332 130:-0.256408 131:-0.107144 132:-0.600001 134:-0.0909102 135:0.0943368 136:-0.0333319 137:-0.139537 138:-0.612499 139:-0.428571 141:-0.545455 142:-0.285715 143:0.0496452 144:-0.39823 145:-0.321101 146:-0.153849 148:-0.913043 149:-0.320002 150:0.206108 151:-0.0666665 152:-0.641025 153:-0.882353 155:-0.666667 156:0.227277 157:-0.232323 158:0.285714 159:-0.375001 160:-0.789474 162:-0.500001 163:-0.279998 164:0.0839714 165:-0.170731 166:-0.500001 167:-0.846154 169:-0.399999 170:-0.236363 171:0.0728479 172:0.288463 173:-0.636364 174:-0.473684 
0.8820626996935952 1:-0.818182 2:0.307693 3:-0.216666 4:0.397259 5:-0.763157 6:0.500001 8:-0.583335 9:-0.102043 10:0.463414 11:-0.454547 12:-0.885714 13:-0.777778 15:-0.25926 16:0.767444 17:-0.199998 18:-0.391301 19:-0.402986 20:-0.578947 22:-0.153849 23:0.653846 24:-0.255815 25:-0.260273 26:-0.494735 27:-0.764706 29:0.230764 30:0.269234 31:-0.0212759 32:0.0752695 33:-0.850267 34:-0.375001 36:-0.652173 37:-0.423078 38:-0.0161289 39:0.387099 40:-0.588236 43:-0.578947 44:-0.409093 45:0.421685 46:-0.250003 47:-0.526315 48:-0.666667 50:-0.36842 51:-0.162792 52:0.255322 53:-0.0793635 54:-0.375001 55:-0.8 58:0.11111 59:-0.2 60:0.0357147 61:-0.434783 62:-0.142856 64:-0.84 65:-0.240002 66:0.67939 67:-0.482356 68:-0.877551 69:-0.789474 71:-0.545455 72:-0.423076 73:-0.449275 74:0.833328 75:-0.352114 76:-0.399999 78:-0.565217 79:1.60715e-06 80:0.534883 81:-0.894739 82:-0.375001 83:-0.0769223 85:-0.473683 86:0.302323 87:-0.08434 88:-0.322032 89:-0.523809 90:-0.23077 92:-0.545455 93:0.244441 94:0.134019 95:-4.125e-06 96:-0.695652 97:-0.384615 99:-0.739131 100:0.115379 101:0.038462 102:-0.264364 103:-0.78022 104:-0.36842 106:-0.84 107:-0.509433 108:-0.796874 109:0.547621 110:-0.011905 111:-0.8 113:-1 114:0.208336 115:-0.0784322 116:-0.217393 117:-0.136363 118:-0.0769223 120:-0.391303 121:0.333333 122:-0.0666691 123:-0.374996 124:0.181814 125:-0.333333 127:-0.238094 128:0.46667 129:-0.238095 130:-0.384618 131:-0.428572 132:-0.600001 134:-0.636363 135:0.20755 136:0.149998 137:-0.279068 138:-0.612499 139:-0.619047 141:-0.727273 142:-0.607143 143:0.290778 144:0.115045 145:-0.559634 146:-0.846154 148:-0.391303 149:-0.279997 150:-0.0229002 151:-0.226668 152:-0.307695 153:-0.764706 155:-0.833334 156:-0.409086 157:0.474745 158:-0.428573 159:-0.437502 160:-0.578947 162:-0.6 163:-0.160001 164:0.389312 165:-0.658537 166:-0.607143 167:-0.692308 169:-0.199999 170:0.0909083 171:0.377483 172:-0.038462 173:-0.8 174:-0.36842 
0.3108058647496976 1:-0.636363 2:0.34615 3:0.0833344 4:0.0958891 5:-0.723684 6:-0.8 8:-0.583335 9:0.102046 10:-0.300814 11:0.272727 12:-0.428572 13:-0.555555 15:-0.555555 16:0.0232592 17:0.0880019 18:-0.217392 19:-0.462687 20:-0.789474 22:-0.692308 23:-0.0384629 24:-0.286823 25:0.479454 26:-0.578947 27:-0.294117 29:-0.692308 30:-0.038462 31:0.361703 32:0.0537614 33:-0.860963 34:-1 36:-0.826087 37:-0.30769 38:0.129032 39:0.548388 40:-0.735293 41:-0.555555 43:-0.578947 44:-0.363633 45:0.253011 46:-0.178574 47:-0.526315 48:-0.222222 50:-0.578947 51:-0.209299 52:0.255322 53:-0.0158707 54:-0.5625 55:-0.399999 57:-0.727273 58:0.166673 59:0.155555 60:-0.321424 61:-0.217392 62:-0.714286 64:-0.359999 65:0.0800023 66:0.129772 67:-0.270591 68:-0.768706 69:-0.263158 71:-0.727273 72:-0.307693 73:-0.086956 74:0.766668 75:-0.661973 76:-0.6 78:-0.739131 79:0.523813 80:-0.0930245 81:-0.0175461 82:-0.5625 83:-0.692308 85:-0.68421 86:-0.302329 87:-0.734944 88:0.627117 89:-0.0476212 90:0.384615 92:-0.909091 93:-0.288889 94:0.0515436 95:0.566665 96:-0.521738 97:-0.538463 99:-0.304345 100:0.0384637 101:-0.0769241 102:-0.264364 103:-0.67033 104:-0.578947 106:-0.92 107:-0.698113 108:-0.0312518 109:-0.214284 110:-0.142858 111:-0.8 113:-0.8 114:0.249998 115:-0.470589 116:0.391307 117:-0.227273 118:-0.384615 120:-0.739131 121:-0.125002 122:0.306663 123:-0.166664 124:-0.181822 125:-0.333333 127:-0.333333 128:-0.333329 129:-0.599997 130:0.153848 131:0.0714258 132:-0.199999 134:-0.454545 135:-0.433962 136:-0.55 137:-0.16279 138:-0.0499989 139:0.0476197 141:-1 142:-0.892857 143:-0.617021 144:-0.716814 145:0.577983 146:-1 148:-0.565217 149:-0.680001 150:0.0381692 151:0.119999 152:-0.461538 153:-0.64706 155:-0.333335 156:-0.272725 157:-0.0909091 158:0.107144 159:-0.125002 160:-0.684211 162:-0.500001 163:0.239995 164:-0.175572 165:-0.146338 166:-0.392858 167:-0.846154 169:-0.6 170:-0.527272 171:-0.231787 172:0.442307 173:-0.418181 174:-0.36842 
0.8284867635410647 1:-0.727273 2:-0.384616 3:0.7 4:-0.0410958 5:-0.881579 6:-0.8 8:-0.500001 9:-0.0612217 10:-0.154472 11:0.242427 12:-0.457142 13:-1 15:-0.851852 16:0.0232592 17:-0.199998 18:0.0724662 19:-0.223884 20:-0.36842 22:-0.923077 23:-0.499999 24:-0.00775291 25:0.589045 26:-0.621052 27:-0.882353 29:-0.846154 30:-0.346153 31:0.319147 32:0.419355 33:-0.903743 34:-1 36:-0.739131 37:-3.02884e-06 38:0.338711 39:-0.0322585 40:-0.779412 41:-0.666667 43:-0.36842 44:-0.318183 45:-0.325304 46:0.392854 47:-0.157894 48:-0.444445 50:-0.684211 51:-0.302324 52:0.0851074 53:0.238093 54:-0.250001 55:-0.6 57:-0.818182 58:-0.444441 59:0.155555 60:0.178574 61:-0.391304 62:-0.428571 64:-0.84 65:-0.160001 66:0.221373 67:0.0588257 68:-0.85034 69:-0.473684 71:-0.636363 72:-0.269227 73:0.434783 74:0.0666637 75:-0.887324 76:-0.700001 78:-0.304345 79:-0.0952379 80:-0.0930245 81:0.122807 82:-0.437502 83:-0.384615 85:-0.789474 86:-0.069774 87:-0.301208 88:-0.05085 89:-0.0476212 90:0.0769223 92:-0.545455 93:-0.288889 94:0.175256 95:0.299996 96:-0.608695 97:-0.538463 99:-0.565217 100:-0.346156 101:2.22045e-16 102:-0.264364 103:-0.582419 104:-0.0526311 106:-0.679999 107:-0.169807 108:-0.0468752 109:0.214288 110:-0.583333 111:-0.500001 113:-0.700001 114:0.500002 115:-0.725492 116:0.681159 117:-0.318182 118:-0.692308 120:-0.826087 121:-0.125002 122:0.466665 123:-0.0833298 124:-0.727275 125:-0.428571 127:-0.809524 128:-0.644445 129:-0.314286 130:0.487178 131:-0.428572 132:-0.466666 134:-0.727273 135:-0.396226 136:0.283333 137:-0.302327 138:-0.4875 139:-0.619047 141:-0.909091 142:-0.642858 143:0.957445 144:-0.292034 145:-0.752294 146:-0.846154 148:-0.652173 149:-0.200005 150:-0.282443 151:0.173333 152:-0.461538 153:0.294117 155:-0.583335 156:0.0454562 157:-0.636364 158:0.678572 159:0.187497 160:-0.473684 162:-0.500001 163:-0.36 164:-0.0534332 165:0.243906 166:-0.714287 167:-0.846154 169:-0.700001 170:-0.127268 171:0.57616 172:-0.0576909 173:-0.8 174:-0.684211 
1.104518444472727 1:-0.636363 2:0.269226 3:0.21667 4:0.0958891 5:-0.842105 6:-0.500001 8:-0.750001 9:0.306126 10:0.365852 11:-0.696967 12:-0.742857 13:-0.666667 15:-0.481482 16:0.348839 17:0.104 18:-0.449272 19:-0.641792 20:-0.263158 22:-0.923077 23:-0.0384629 24:0.348839 25:-0.178083 26:-0.810526 27:-0.64706 29:-0.461541 30:0.384616 31:-0.0638312 32:0.0752695 33:-0.796791 34:0.125 36:0.130438 37:0.384617 38:-1.45161e-06 39:-0.193548 40:-0.735293 41:-0.333333 43:-0.0526311 44:0.0909082 45:-0.228917 46:0.0357147 47:-0.421052 48:-0.555555 50:0.157896 51:0.581394 52:-0.446807 53:-0.0476207 54:-1.6875e-06 55:-0.3 57:-0.454545 58:0.166673 59:0.31111 60:-0.321424 61:-0.652174 62:-0.714286 64:-0.519999 65:-0.0400036 66:0.450382 67:-0.505883 68:-0.836735 69:-0.36842 71:-0.727273 72:0.269234 73:0.492752 74:-0.433331 75:-0.915493 76:-0.700001 78:0.217394 79:0.333334 80:-0.651166 81:0.26316 82:-0.312502 83:0.0769223 85:-0.68421 86:0.162792 87:-0.228915 88:-0.084745 89:-0.380952 90:-0.0769223 92:-0.181818 93:0.6 94:-0.0515482 95:-0.0666641 96:-0.695652 97:-0.538463 99:-0.739131 100:-0.192308 101:-0.038462 102:-0.379311 103:-0.362635 104:-0.578947 106:-0.679999 107:-0.433961 108:0.750001 109:-0.142857 110:-0.904762 111:-0.700001 113:-0.199999 114:-0.0833303 115:0.470589 116:-0.5942 117:-0.681818 118:-0.692308 120:-0.391303 121:0.333333 122:0.226665 123:-0.916665 124:0.545447 125:-0.52381 127:-0.428571 128:0.0222205 129:0.161908 130:-0.384618 131:-0.714286 132:-0.733333 134:-0.818182 135:-0.320755 136:0.183332 137:-0.279068 138:-0.450001 139:-0.52381 141:-0.818182 142:-0.0714254 143:1 144:-0.292034 145:-0.926605 146:-0.923077 148:-0.391303 149:0.559999 150:-0.389313 151:-0.0933365 152:-0.435899 153:-0.411766 155:-0.333335 156:0.454548 157:-0.232323 158:-0.142855 159:-0.375001 160:-0.473684 162:0.399999 163:0.199999 164:-0.358777 165:-0.317075 166:-0.321431 167:0.538459 169:0.199999 170:0.163637 171:0.350993 172:-0.038462 173:-0.863636 174:-0.0526311 
0.04767962961975265 1:0.545455 2:0.153845 3:-0.0666657 4:-0.0958909 5:-0.657895 6:-0.500001 8:-0.083336 9:0.102046 10:-0.00813109 11:-0.545453 12:-0.371428 13:-0.444445 15:-0.62963 16:0.441864 17:-0.00799919 18:-0.391301 19:-0.402986 20:-0.578947 22:-0.461541 23:0.307691 24:-0.0232552 25:-0.452053 26:-0.452629 27:-0.411766 29:0.230764 30:0.307692 31:-0.375888 32:0.0967727 33:-0.614974 34:-0.249999 36:0.0434799 37:0.538456 38:-0.0645147 39:-0.516133 40:-0.60294 41:-0.11111 43:0.0526311 44:0.454549 45:-0.518072 46:-0.107144 47:-0.157894 48:-0.333333 50:-0.473684 51:0.48838 52:-0.0212745 53:-0.111113 54:-0.500001 55:-0.500001 57:-0.363637 58:-2.50001e-06 59:0.42222 60:-0.749993 61:-0.304348 62:-0.571429 64:0.360002 65:-0.0400036 66:-0.0534363 67:-0.247058 68:-0.673468 69:-0.473684 71:0.363637 72:0.307691 73:-0.333334 74:-0.0666712 75:-0.492957 76:-0.399999 78:0.391307 79:0.380959 80:-0.511629 81:-0.333336 82:0.124997 83:0.23077 85:0.157894 86:0.302323 87:-0.0361465 88:-0.525425 89:-0.523809 90:-0.538463 92:-0.363637 93:0.55555 94:-0.175256 95:-0.166669 96:-0.304346 97:-0.0769223 99:0.217394 100:0.346151 101:-0.365387 102:-0.333333 103:-0.78022 104:0.368422 106:0.280001 107:0.471699 108:-0.453127 109:0.142856 110:-0.642858 111:-1.125e-06 113:0.3 114:0.666671 115:-0.509805 116:-0.246376 117:-0.272727 118:0.23077 120:-0.21739 121:0.249998 122:-0.0666691 123:-0.416668 124:-0.0909139 125:0.0476197 127:0.809524 128:0.33333 129:-0.638093 130:-0.128204 131:-0.392858 132:-0.333334 134:0.272727 135:0.622645 136:-0.283333 137:0.16279 138:-0.825 139:-0.333333 142:0.357143 143:-0.148936 144:0.02655 145:-0.577981 146:-0.615386 148:0.130438 149:0.159995 150:-0.450382 151:0.0933293 152:-0.410254 153:-0.411766 155:-0.583335 156:0.363637 157:-0.131314 158:-0.250003 159:-0.250002 160:-0.36842 162:0.3 163:0.759997 164:-0.694656 165:-0.0975623 166:-0.107143 167:-0.384615 169:0.199999 170:0.854552 171:-0.0728479 172:0.134615 173:-0.8 174:-0.36842 
0.6287206799798337 1:-0.181818 2:0.0384629 3:0.233335 4:-0.369861 5:-0.618422 6:-0.500001 8:-0.750001 9:-0.265302 10:0.479672 11:-0.60606 12:-0.657142 13:-0.555555 15:-0.555555 16:0.302322 17:-0.263999 18:0.15942 19:-0.462687 20:-0.473684 22:-0.846154 23:-0.230769 24:0.581395 25:-0.479454 26:-0.831579 27:-0.529411 29:-0.384617 30:-0.0769197 31:0.276595 32:-0.225805 33:-0.721925 34:-0.625001 36:-0.739131 37:0.153845 38:0.32258 39:0.0645134 40:-0.911765 41:-0.333333 43:-0.36842 44:-0.045452 45:-0.0120497 46:-0.214284 47:-0.263156 48:-0.444445 50:-0.36842 51:0.0232572 52:-0.148936 53:0.206351 54:-0.375001 55:-0.199999 57:-0.636363 58:-0.0555526 59:0.22222 60:-0.214284 61:-0.52174 62:-0.142856 64:-0.519999 65:0.0800023 66:0.0687026 67:-0.0588257 68:-0.836735 69:-0.0526311 71:-0.181818 72:3.46154e-06 73:0.275363 74:-0.133331 75:-0.84507 76:-0.500001 78:-0.391303 79:0.0952411 80:0.0697657 81:-0.333336 82:-0.187502 83:-0.538463 85:-0.68421 86:-0.116281 87:0.0361465 88:0.0169475 89:-0.714285 90:-0.23077 92:-0.272727 93:0.333331 94:0.0103106 95:0.100001 96:-0.695652 97:-0.692308 99:-0.391303 100:0.0769213 101:0.0192289 102:-0.586207 103:-0.538462 104:-0.263158 106:-0.519999 107:0.245289 108:-0.0625022 109:0.119049 110:-0.702382 111:-0.3 113:-0.199999 114:0.0416668 115:0.196076 116:-0.507245 117:-0.454545 118:-0.23077 120:-0.478259 121:0.29167 122:0.359997 123:-0.500002 124:-0.545457 125:-0.619047 127:-0.333333 128:-0.511111 129:0.333336 130:-0.410257 131:-0.607143 132:-0.733333 135:0.396227 136:-0.366666 137:-0.0697657 138:-0.524999 139:-0.333333 141:-0.272727 142:-0.0714254 143:-0.106383 144:0.132742 145:-0.559634 146:-0.307695 148:-0.565217 149:-0.240001 150:0.0229002 151:-0.0133326 152:-0.615385 153:-0.529411 155:-0.500001 156:-0.181815 157:-0.292927 158:0.0714254 159:-0.0625027 160:0.368422 162:-0.199999 163:1.35e-06 164:-0.160307 165:0.0243933 166:-0.642858 167:-0.538463 169:-0.3 170:-0.345453 171:-0.125829 172:0.19231 173:-0.509091 174:0.368422 
1.483402591205842 1:-0.727273 2:-0.153843 3:0.583333 4:-0.534246 5:-0.631579 6:-0.8 8:-0.916667 9:-0.510203 10:0.089431 11:0.21212 12:-0.571428 13:-0.333333 15:-0.703703 16:-0.348838 17:-0.280001 18:0.15942 19:0.0746264 20:-0.578947 22:-0.769232 23:-0.230769 24:-0.147288 25:0.534249 26:-0.578947 27:-0.882353 29:-0.769232 30:0.19231 31:0.304964 32:0.118281 33:-0.935829 34:-0.625001 36:-0.739131 37:-0.115385 38:0.306452 39:0.0322585 40:-0.779412 41:-0.333333 43:-0.578947 44:-0.454543 45:-0.0602431 46:0.392854 47:-0.421052 48:-0.555555 50:-0.578947 51:-0.395348 52:-0.255317 53:0.206351 54:0.812491 55:-0.500001 57:-0.363637 58:-0.277778 59:0.02222 60:0.107144 61:-0.304348 62:-0.714286 64:-0.6 65:-0.240002 66:0.236642 67:-0.199999 68:-0.727891 69:-0.473684 71:-0.818182 72:-0.230769 73:-0.086956 74:-0.333333 75:-0.197184 76:-0.700001 78:-0.21739 79:-0.476185 80:-0.16279 81:0.157899 82:0.0624975 83:-0.23077 85:-0.894737 86:-0.488378 87:-0.108434 88:0.525425 89:-0.761904 90:0.0769223 92:-0.363637 93:-0.155559 94:0.319586 95:0.100001 96:-0.73913 97:-1 99:-0.652173 100:0.153845 101:-0.134615 102:-0.310342 103:-0.494505 104:-0.789474 106:-0.76 107:-0.396225 108:-0.46875 109:-0.285716 110:0.0952378 111:-0.700001 113:-0.6 114:-0.291662 115:-0.0392161 116:0.0434762 117:-0.0454543 118:-0.846154 120:-0.565217 121:-0.249999 122:0.226665 123:0.125002 124:-0.272732 125:-0.52381 127:-0.52381 128:-0.377779 129:0.123812 130:-0.333335 131:-0.321429 132:-0.866667 134:-0.454545 135:-0.0943405 136:0.25 137:-0.0465122 138:-0.762501 139:-0.428571 141:-0.818182 142:-0.464286 143:0.0212761 144:-0.0619447 145:-0.33945 146:-0.692308 148:-0.478259 149:-0.64 150:0.0381692 151:-0.14667 152:-0.307695 153:-0.411766 155:-0.833334 156:-0.0454542 157:0.232323 158:-0.285714 159:-0.625001 160:-0.263158 162:-0.399999 163:-0.0799996 164:0.0229019 165:-0.463413 166:-0.142862 167:-0.846154 169:-0.6 170:0.127277 171:0.258278 172:-0.0192289 173:-0.672728 174:-0.684211 
0.6732545716547688 1:0.363637 2:0.384617 3:-0.166667 4:-0.150686 5:-0.605263 6:-0.500001 8:-0.083336 9:0.428572 10:-0.219514 11:-0.21212 12:-0.571428 13:-0.333333 15:-0.25926 16:0.627902 17:-0.216 18:-0.246375 19:-0.462687 20:-0.473684 22:0.38461 23:0.192309 24:-0.519379 25:0.150689 26:-0.431579 27:-0.294117 29:-0.0769272 30:0.538464 31:-0.0212759 32:-0.0537643 33:-0.871658 34:0.249999 36:0.130438 37:-0.0384607 38:-0.0806458 39:-0.0322585 40:-0.64706 41:0.222222 43:0.157896 44:0.318179 45:-0.301204 46:-0.142855 47:-0.421052 48:-0.444445 50:-0.684211 51:0.209306 52:0.51064 53:-0.46032 54:-0.6875 55:-0.8 57:-0.272727 58:-0.222216 59:0.377775 60:-0.464283 61:-0.478261 62:-0.428571 64:-0.0399996 65:-0.320003 66:0.312977 67:-0.341177 68:-0.782313 69:-0.473684 71:-0.0909102 72:0.500006 73:-0.275363 74:0.0666637 75:-0.676056 76:0.1 78:-0.391303 79:0.0952411 80:0.279068 81:-0.228067 82:-0.750001 83:-1 85:-0.157895 86:-0.116281 87:-0.0602405 88:-0.186437 89:-0.523809 90:-0.0769223 92:-0.272727 93:-0.0666689 94:0.381445 95:-0.0666641 96:-0.913043 97:-0.538463 99:-0.21739 100:0.346151 101:-0.288463 102:-0.195401 103:-0.692308 104:-0.578947 106:0.0400014 107:0.320753 108:-0.578125 109:0.404762 110:-0.559523 111:-0.3 113:-0.399999 114:0.208336 115:-0.0392161 116:-0.130432 117:-0.681818 118:0.0769223 120:-0.21739 121:0.208336 122:-0.226671 123:-0.0833298 124:-0.181822 125:0.0476197 127:-0.428571 128:-0.333329 129:0.180953 130:-0.435901 131:-0.500001 132:-0.333334 134:0.181818 135:0.0943368 136:-0.133333 137:0.0930245 138:-0.6875 139:-0.52381 141:-0.363637 142:0.214284 143:-0.205674 144:0.327433 145:-0.614678 146:-0.692308 148:-0.130434 149:0.479998 150:-0.557252 151:0.146663 152:-0.435899 153:-0.294117 155:-0.333335 156:0.272727 157:-0.292927 158:0.0357147 159:-0.312502 160:-0.36842 162:-0.1 163:0.239995 164:-0.404581 165:-0.0243878 166:-0.321431 167:-0.23077 169:0.1 170:0.163637 171:0.0993383 172:0.153848 173:-0.745454 174:-0.36842 
0.4408916772194695 1:-0.0909102 2:0.538465 3:-0.116664 4:0.0410939 5:-0.723684 6:-0.500001 8:0.416663 9:0.38776 10:-0.349593 11:-0.303027 12:-0.399997 13:-0.333333 15:-0.407407 16:0.162791 17:-0.119999 18:-0.42029 19:-0.28358 20:0.157896 22:-0.615386 23:0.192309 24:-0.0542634 25:0.232878 26:-0.789474 27:-0.64706 29:-0.538463 30:0.153844 31:-0.177305 32:0.268818 33:-0.700535 34:-0.249999 36:-0.565217 37:-0.153851 38:0.51613 39:-0.322582 40:-0.838235 41:-0.222222 43:-0.36842 44:-0.227272 45:0.204818 46:-0.142855 47:-0.68421 48:-0.333333 50:-0.36842 51:0.255814 52:-0.148936 53:0.0158721 54:-0.187502 55:-0.399999 57:-0.727273 58:-0.500004 59:0.488885 60:-0.142855 61:-0.565217 62:-0.714286 64:-0.44 65:-0.0799996 66:0.00763317 67:-0.31765 68:-0.578231 69:-0.157893 71:-0.454545 72:0.0384612 73:0.362317 74:-0.199999 75:-0.873239 76:-0.500001 78:-0.21739 79:0.190481 80:0.0930192 81:-0.333336 82:-0.625001 83:-0.23077 85:-0.578948 86:-0.162788 87:0.108434 88:-0.11864 89:-0.619047 90:-0.384615 92:-0.545455 93:0.466661 94:0.113402 95:-0.166669 96:-0.652173 97:-0.384615 99:-0.739131 100:-0.269232 101:-0.230772 102:-0.149423 103:-0.296703 104:-0.684211 106:-0.519999 107:0.207549 108:-0.281251 109:0.333335 110:-0.595239 111:-0.6 113:-0.399999 114:0.166673 115:-0.215686 116:0.15942 117:-0.409091 118:-0.846154 120:-0.652173 121:0.208336 122:0.119997 123:-0.291661 124:-4.09089e-06 125:-0.428571 127:-0.333333 128:-0.111109 129:-0.0666664 130:-0.282052 131:-0.500001 132:-0.199999 134:-0.0909102 135:-0.0943405 136:-0.433333 137:0.0232587 138:-0.387499 139:-0.0476197 141:-0.545455 142:-0.428572 143:0.418438 144:0.0619487 145:-0.724772 146:-0.461541 148:-0.304345 149:-0.0400032 150:-0.0229002 151:-0.333336 152:-0.461538 153:-0.411766 155:-0.583335 156:-0.409086 157:0.191918 158:0.0357147 159:-0.625001 160:-0.473684 162:-0.8 163:-0.0799996 164:-0.0687023 166:-0.607143 167:-0.23077 169:-0.700001 170:0.0545483 171:0.0596041 172:0.46154 173:-0.709092 174:-1 
1.303003221203964 1:-0.727273 2:-0.153843 3:0.350001 4:-0.0410958 5:-0.684211 6:-0.8 8:-1 9:-0.551019 10:0.528455 11:-0.303027 12:-0.714285 13:-0.666667 15:-0.62963 16:-0.0232582 17:-0.36 18:0.15942 19:-0.164182 20:-0.0526311 22:-0.615386 23:-0.153845 24:-0.11628 25:0.205484 26:-0.557895 27:-0.294117 29:-0.384617 30:-0.115386 31:0.375886 32:-0.0537643 33:-0.850267 34:-0.875 36:-0.913043 37:-0.500001 38:0.161291 39:0.0322585 40:-0.455883 41:-0.444445 43:-0.578947 44:-0.909091 45:0.542166 46:-0.0357147 47:-0.473683 48:-0.777778 50:-0.684211 51:-0.255817 52:0.0638329 53:0.333329 54:-0.437502 55:-0.6 57:-0.636363 58:-0.222216 59:0.088885 60:0.178574 61:-0.478261 62:-0.571429 64:-0.76 65:0.0399973 66:0.175572 67:0.0117662 68:-0.836735 69:-0.684211 71:-0.818182 72:-0.884615 73:-0.289857 74:-0.600003 75:0.366197 76:-0.8 78:-0.739131 79:0.0952411 80:0.255815 81:-0.298244 82:-0.375001 83:-0.846154 85:-0.68421 86:-0.488378 87:-0.132528 88:0.254235 89:-0.428571 90:0.0769223 92:-0.454545 93:0.288891 94:-0.113402 95:0.233336 96:-0.47826 97:-0.692308 99:-0.478259 100:-0.15385 101:0.038462 102:-0.241378 103:-0.648351 104:-0.684211 106:-0.92 107:-0.698113 108:-0.703126 109:-0.142857 110:0.309523 111:-0.6 113:-0.700001 114:-0.458332 115:0.196076 116:-0.130432 117:-0.0454543 118:-1 120:-0.565217 121:0.166673 122:0.279999 123:-0.749996 124:0.181814 125:-0.142857 127:-0.238094 128:-0.333329 129:0.123812 130:-0.333335 131:-0.535714 132:-0.600001 134:-0.636363 135:-0.245283 136:0.0500007 137:0.16279 138:-0.575 139:-1 141:-0.454545 142:-0.571429 143:-0.617021 144:-0.203539 145:0.128441 146:-0.615386 148:-0.826087 149:-0.680001 150:0.267174 151:-0.253332 152:-0.410254 153:-0.64706 155:-0.916667 156:-0.681818 157:0.616164 158:-0.357143 159:-0.500001 160:-0.684211 162:-0.6 163:-0.56 164:0.587786 165:-0.804875 166:-0.535715 167:-0.538463 169:-0.8 170:-0.236363 171:0.483445 172:0.250001 173:-0.872727 174:-0.36842 
0.1446841954667594 1:-0.818182 2:-0.692308 3:0.650001 4:-0.0137013 5:-0.789473 6:-0.399999 8:-0.666667 9:-0.877551 10:0.0406481 11:0.18182 12:-0.171429 13:-0.777778 15:-0.925926 16:-0.534884 17:-0.055998 18:0.362318 19:-0.343282 20:-0.578947 22:-0.538463 23:-0.499999 24:-0.271317 25:0.589045 26:-0.389473 27:-0.764706 29:-0.692308 30:-0.692307 31:0.177305 32:-0.0107531 33:-0.518718 34:-0.875 36:-0.21739 37:-0.423078 38:0.129032 39:0.129031 40:-0.676472 43:-0.263158 44:-0.181822 45:-0.13253 46:0.178574 47:-0.473683 48:-0.444445 50:-0.263158 51:0.534887 52:-0.191489 53:-0.174606 54:-0.312502 55:-0.1 57:-0.272727 58:0.166673 59:-0.111115 60:0.0357147 61:-0.434783 62:-0.428571 64:-0.519999 65:-0.240002 66:-0.129771 67:-0.105885 68:-0.455782 69:-0.578947 71:-0.363637 72:0.269234 73:-0.36232 74:0.766668 75:-0.746479 76:-1.125e-06 78:-0.130434 79:-0.761905 80:-0.16279 81:0.333336 82:-1.6875e-06 83:-0.0769223 85:-0.157895 86:0.209299 87:-0.783132 88:0.288138 89:-0.238095 90:0.384615 92:-0.454545 93:0.0666609 94:-0.319591 95:0.633333 96:-0.434781 97:-0.384615 99:-0.391303 100:-0.30769 101:-0.153848 102:-0.333333 103:-0.34066 104:-0.36842 106:-0.359999 107:-0.245281 108:0.171874 109:-0.0476173 110:-0.630952 111:-0.6 113:-0.9 114:4.21876e-06 115:0.235292 116:-0.188404 117:-0.545454 118:-0.692308 120:-0.565217 121:0.166673 122:-0.200001 123:0.125002 124:-4.09089e-06 125:-0.238094 127:-0.428571 128:-0.333329 129:0.0476207 130:-0.102566 131:-0.607143 132:-0.733333 134:-0.454545 135:-0.509434 136:-0.283333 137:0.0465122 138:-0.2375 139:-0.714286 141:-0.727273 142:-0.464286 143:0.375885 144:0.433629 145:-0.853211 146:-0.538463 148:-0.826087 149:0.119999 150:-0.251909 151:0.253331 152:-0.487179 153:-0.882353 155:-0.833334 156:-0.0454542 157:-0.313132 158:0.321424 159:0.187497 160:-0.578947 162:-0.8 163:-0.400001 164:-0.312977 165:0.243906 166:-0.107143 167:-0.23077 169:-1 170:-0.563636 171:0.311258 172:0.0576909 173:-0.563635 174:-0.36842 
0.4400307049127649 1:-0.454545 2:0.0769205 3:-0.0999994 4:0.452055 5:-0.736843 6:-0.399999 8:-1 9:0.102046 10:0.284552 11:-0.0302999 12:-0.942857 13:-0.888889 15:-0.333333 16:-0.255814 17:-0.0399996 18:0.0434771 19:-0.58209 20:-0.157893 22:-0.461541 23:-0.0384629 24:-0.0387611 25:0.342469 26:-0.789474 27:-0.764706 29:-0.538463 30:0.576922 31:0.0354592 32:0.0322582 33:-0.871658 34:-0.125 36:-0.478259 37:-3.02884e-06 38:0.0161296 39:0.129031 40:-0.64706 41:-0.333333 43:-0.789474 44:-0.181822 45:0.108431 46:-0.0714254 47:-0.473683 48:-0.222222 50:-0.684211 51:-0.116274 52:0.595747 53:-0.238099 54:-0.875001 55:-0.9 57:-0.272727 58:0.277786 59:-0.2 60:0.250003 61:-0.608696 62:-0.428571 64:-0.6 65:-0.0400036 66:0.328243 67:-0.31765 68:-0.782313 69:-0.684211 71:-0.818182 72:-0.115387 73:0.449275 74:-3.75e-06 75:-0.901408 76:-0.700001 78:-0.391303 79:-0.428571 80:0.697673 81:-0.719294 82:-0.375001 83:-0.846154 85:-0.578948 86:0.395347 87:-0.301208 88:0.22034 89:-0.761904 90:-0.692308 92:-0.181818 93:0.200001 94:-0.0927858 95:-0.0333341 96:-0.304346 97:-0.384615 99:-0.565217 100:0.192303 101:0.288459 102:-0.586207 103:-0.846154 104:-0.36842 106:-0.679999 107:-0.0188699 108:0.359373 109:0.119049 110:-0.857143 111:-0.8 113:-0.6 114:-0.291662 115:0.137254 116:-0.10145 117:-0.5 118:0.0769223 120:-0.391303 121:-0.458331 122:0.466665 123:-0.0416673 124:-0.272732 125:-0.714286 127:-0.428571 128:0.37778 129:0.0666664 130:-0.435901 131:-0.678572 132:-1 134:-0.727273 135:0.283023 136:0.233335 137:0.0930245 138:-0.8875 139:-0.619047 141:-0.545455 142:-0.178574 143:0.460993 144:0.0619487 145:-0.798165 146:-0.615386 148:-0.565217 149:0.0399978 150:0.145039 151:-0.306666 152:-0.74359 153:-0.411766 155:-0.416669 156:0.181817 157:-0.171718 158:-0.214284 159:-0.187502 160:-0.157893 162:-0.199999 163:0.160003 164:-0.190838 165:-0.073169 166:-0.607143 167:-0.384615 169:-0.6 170:0.01818 171:0.0596041 172:0.538464 173:-0.827272 174:-0.0526311 
0.5092123394685059 1:-0.363637 2:-0.115385 3:0.21667 4:-0.123285 5:-0.618422 6:-0.700001 8:0.333329 9:-0.0204094 10:-0.398376 11:-0.0909066 12:-0.314285 13:0.11111 15:-0.481482 16:0.627902 17:-0.36 18:-0.275364 19:-0.223884 20:0.0526311 22:-0.384617 23:0.423082 24:-0.317831 25:-0.123288 26:-0.452629 27:-0.0588229 29:-0.615386 30:0.46154 31:0.0780145 32:-0.0107531 33:-0.786097 34:-0.75 36:-0.565217 37:-0.192309 38:0.564516 39:-0.483871 40:-0.779412 41:-0.333333 43:-0.578947 44:0.227268 45:0.421685 46:-0.500002 47:-0.842104 48:-0.777778 50:-0.473684 51:-0.209299 52:0.553193 53:-0.46032 54:-0.750001 55:-0.199999 57:0.0909082 58:0.222223 59:-0.022225 60:-0.0357147 61:-0.652174 62:-0.714286 64:-0.76 65:-0.120005 66:0.541986 67:-0.364705 68:-0.877551 69:-0.789474 71:-0.363637 72:0.269234 73:0.2029 74:-0.266666 75:-0.774648 76:-0.6 78:-0.478259 79:-0.0952379 80:0.255815 81:-0.473681 82:-0.312502 83:-0.0769223 85:-0.473683 86:0.0232503 87:0.132528 88:-0.288138 89:-0.761904 90:-0.0769223 92:-0.454545 93:0.022221 94:0.0103106 95:0.100001 96:-0.434781 97:-0.23077 99:-0.652173 100:0.230769 101:0.0576909 102:-0.264364 103:-0.824176 104:-0.684211 106:-0.2 107:-0.245281 108:0.031249 109:0.309528 110:-0.785715 111:-0.1 113:-0.3 114:-0.208327 115:0.058822 116:-0.0434781 117:-0.454545 118:-0.538463 120:-0.391303 121:-0.249999 122:0.119997 123:4.68751e-06 124:-0.0909139 125:-0.238094 127:-0.238094 128:-0.422219 129:0.333336 130:-0.487178 131:-0.75 132:-0.199999 134:-0.636363 135:-0.0188679 136:-0.25 137:0.232561 138:-0.562501 139:-0.238094 141:-0.727273 142:-0.107144 143:-0.304964 144:0.309736 145:-0.495412 146:-0.0769272 148:-0.739131 149:-0.480001 150:0.221374 151:-0.0133326 152:-0.717949 153:-0.64706 155:-0.416669 156:0.363637 157:-0.111109 158:-4.01786e-06 159:-0.8125 160:-0.473684 162:-0.399999 163:-0.36 164:0.206107 165:-0.268294 166:-0.678572 167:-0.538463 169:-0.700001 170:-0.127268 171:-0.350993 172:0.326925 173:-0.372727 174:-0.36842 
0.6749768978656686 1:-0.545455 2:-0.0384611 3:-0.149998 4:0.69863 5:-0.789473 6:-0.199999 8:-0.500001 9:-0.102043 10:-0.0731725 11:-0.0302999 12:-0.542857 13:-0.11111 15:-0.481482 16:0.162791 17:-0.0719999 18:-0.246375 19:-0.402986 20:-0.263158 22:-0.384617 23:0.500006 24:-0.44186 25:0.0684926 26:-0.494735 27:0.0588229 29:-0.461541 30:0.384616 31:-0.262412 32:0.419355 33:-0.807488 34:1.40625e-06 36:-0.739131 37:-0.230766 38:0.370969 39:-0.0967756 40:-0.676472 41:-0.777778 43:-0.578947 44:0.272729 45:-0.13253 46:-4.01786e-06 47:-0.526315 48:-0.555555 50:-0.578947 51:0.302331 52:0.31915 53:-0.365078 54:-0.625001 55:-0.6 58:-0.0555526 59:-0.022225 60:4.01786e-06 61:-0.652174 64:-0.519999 65:1.35e-06 66:0.129772 67:-0.176472 68:-0.795918 69:-0.0526311 71:-0.818182 72:-0.269227 73:0.246377 74:0.333333 75:-0.788733 76:-0.700001 78:-0.391303 79:-0.0476128 80:0.0697657 81:0.0877225 82:-0.5625 83:-1 85:-0.368421 86:-0.209305 87:-0.710844 88:0.288138 89:-0.0476212 90:1 92:-0.363637 93:0.288891 94:-0.381445 95:0.133331 96:-0.130433 97:0.384615 99:-0.565217 100:-0.192308 101:-0.134615 102:-0.379311 103:-0.318679 104:-0.473684 106:-0.92 107:-0.283018 108:0.15625 109:0.261908 110:-0.654762 111:-0.8 113:-0.700001 114:-0.125002 115:0.0392161 116:0.130437 117:-0.545454 118:-0.692308 120:-0.043476 121:-0.208327 122:0.119997 123:-0.374996 124:0.272721 125:-0.238094 127:0.0476197 128:-0.244449 129:-0.466665 130:0.0256385 131:-0.214284 132:-0.199999 134:-0.727273 135:-0.773585 136:-0.566668 137:-0.744185 138:0.55 139:-0.904762 141:-0.818182 142:-0.285715 143:0.276595 144:0.115045 145:-0.651376 146:-0.615386 148:-0.652173 149:-0.279997 150:-0.0229002 151:0.0666653 152:-0.589743 153:-0.411766 155:-0.750001 156:0.136367 157:0.0909091 158:-0.392862 159:-0.125002 160:-0.578947 162:-0.500001 163:-0.120005 164:-0.419847 165:-0.0243878 166:0.214285 167:-0.384615 169:-1 170:-1 171:-0.97351 172:-0.942308 173:0.954546 174:-1 
0.175350051295765 1:-0.363637 2:0.115387 3:-0.0999994 4:-0.0684964 5:-0.526314 6:-0.3 8:-0.750001 9:-0.632652 10:0.821138 11:-0.787873 12:-0.8 13:-0.666667 15:-0.62963 16:0.162791 17:-0.392 18:0.449279 19:-0.492538 20:-0.157893 22:-0.538463 23:-0.499999 24:0.147288 25:0.150689 26:-0.663158 27:-0.529411 29:-0.538463 30:-0.384615 31:0.319147 32:0.139784 33:-0.860963 34:-0.249999 36:-0.739131 37:-0.538462 38:0.661292 39:-0.193548 40:-0.808824 41:-0.555555 43:-0.263158 44:-0.500003 45:0.421685 46:0.0357147 47:-0.894737 48:-0.888889 50:-0.0526311 51:-0.395348 52:-4.44089e-16 53:0.142858 54:-1.6875e-06 55:-0.700001 57:-0.454545 58:-0.111103 59:0.155555 60:-0.0714254 61:-0.434783 62:-0.714286 64:-0.679999 65:-0.279998 66:0.67939 67:-0.57647 68:-0.863945 69:-0.578947 71:-0.454545 72:0.192309 73:0.0144929 74:0.433331 75:-0.873239 76:-0.399999 78:-0.478259 79:-0.0476128 80:0.255815 81:-0.26316 82:-0.500001 83:-0.692308 85:-0.894737 86:-0.209305 87:0.012047 88:0.254235 89:-0.714285 90:-0.538463 92:-0.636363 93:0.022221 94:-0.216494 95:0.499998 96:-0.391303 97:-0.23077 99:-0.478259 100:-0.0769265 101:0.0576909 102:-0.241378 103:-0.78022 104:-0.36842 106:-0.6 107:-0.622641 108:-0.171877 109:-0.452382 110:0.0238083 111:-0.9 113:-0.399999 114:0.208336 115:2.22045e-16 116:-0.217393 117:-0.454545 118:-0.538463 120:-0.391303 121:0.0833388 122:0.253329 123:-0.166664 124:-0.636365 125:-0.52381 127:-0.428571 128:0.11111 129:-0.0476164 130:-0.256408 131:-0.607143 132:-0.600001 134:-1 135:-0.433962 136:-0.233335 137:-0.139537 138:-0.162499 139:-0.428571 141:-0.545455 142:-0.357143 143:-0.205674 144:-0.0796461 145:-0.229359 146:-0.769232 148:-0.391303 149:-0.88 150:0.297709 151:-0.173334 152:-0.51282 153:-0.764706 155:-0.666667 156:-0.0454542 157:-0.151514 158:-4.01786e-06 159:-0.250002 160:0.0526311 162:-0.399999 163:-0.240002 164:-0.0992371 165:-0.12195 166:-0.357144 167:-0.23077 169:-0.399999 170:-0.672727 171:-0.245034 172:-0.134615 173:-0.1 174:-0.578947 
0.7152471375300121 1:-0.727273 2:-0.153843 3:0.183336 4:0.287669 5:-0.723684 6:-0.700001 8:-0.750001 9:-0.306123 10:0.154469 11:0.0606067 12:-0.599999 13:-0.888889 15:-0.481482 16:-0.627908 17:-0.055998 18:0.391307 19:-0.552239 20:-0.36842 22:-0.846154 23:-0.346153 24:0.209304 25:0.0958933 26:-0.68421 27:-0.64706 29:-0.692308 30:-0.461538 31:-0.120569 32:0.0537614 33:-0.433155 34:-0.375001 36:-0.565217 37:-0.30769 38:0.419355 39:-0.161293 40:-0.735293 41:-0.444445 43:-0.578947 44:0.181818 45:-0.542171 46:0.678572 47:-0.578946 48:-0.444445 50:-0.0526311 51:-0.0697674 52:-0.319146 53:0.0158721 54:0.312497 55:-1.125e-06 57:-0.0909102 58:-0.444441 59:-0.133335 60:0.285714 61:-0.304348 62:-0.428571 64:-0.92 65:-0.72 66:-0.129771 67:-0.623529 68:0.07483 69:-0.578947 71:-0.636363 72:0.307691 73:-0.0579701 74:0.433331 75:-0.816901 76:-0.399999 78:-0.130434 79:-0.285717 80:-0.139537 81:0.0877225 82:-0.312502 83:0.0769223 85:-0.0526327 86:-0.488378 87:-0.0361465 88:-0.11864 89:-0.285714 90:-0.23077 92:-0.272727 93:-0.022219 94:-0.46392 95:0.666663 96:-0.130433 97:-0.538463 99:-0.913043 100:-0.346156 101:-0.384616 102:-0.333333 103:0.186815 104:-0.894737 106:-0.92 107:-0.509433 108:0.203124 109:-0.166664 110:-0.392857 111:-0.9 113:-0.500001 114:-0.208327 115:0.274508 116:-0.275365 117:-0.409091 118:-0.846154 120:-0.21739 121:-0.291662 122:0.039999 123:0.249999 124:-0.181822 125:-0.52381 127:-0.619047 128:-0.333329 129:-0.409523 130:-0.0256385 131:0.0357151 132:-0.0666675 134:-1 135:-0.660378 136:-0.500001 137:-0.511629 138:0.375001 139:-0.904762 141:-0.909091 142:-0.714285 143:-0.716312 144:-0.380529 145:0.385321 146:-0.769232 148:-0.826087 149:-0.680001 150:0.114504 151:0.253331 152:-0.589743 153:-0.882353 155:-0.583335 156:-0.181815 157:0.272727 158:-0.321432 159:-0.375001 160:-0.789474 162:-0.9 163:-0.279998 164:-0.0687023 165:0.0731745 166:-0.535715 167:-0.0769223 169:-0.700001 170:-0.01818 171:0.231787 172:0.442307 173:-0.836364 174:-0.578947 
0.2933252325507921 1:-0.363637 2:-0.269233 3:0.316667 4:0.0958891 5:-0.763157 6:-0.6 8:-0.750001 9:-0.510203 10:0.479672 11:-0.454547 12:-0.685714 13:-0.333333 15:-0.62963 16:-0.255814 17:0.263999 18:-0.15942 19:-0.701493 20:-0.578947 22:-0.769232 23:-0.269227 24:0.286823 25:0.178083 26:-0.894737 27:-0.764706 29:-0.538463 30:4.32693e-06 31:-0.177305 32:0.376344 33:-0.732619 34:1.40625e-06 36:-0.739131 37:-0.423078 38:0.338711 39:0.290327 40:-0.794118 41:-0.444445 43:-0.684211 44:-0.681813 45:0.542166 46:-0.0357147 47:-0.789473 48:-0.555555 50:-0.473684 51:-0.534882 52:0.51064 53:0.111108 54:-0.875001 55:-0.9 57:-0.545455 58:-0.388891 59:0.377775 60:-0.0714254 61:-0.565217 62:-0.857143 64:-0.359999 65:-0.160001 66:0.480916 67:-0.364705 68:-0.891156 69:-0.684211 71:-0.636363 72:0.0769276 73:0.0579701 74:0.266666 75:-0.802817 76:-0.199999 78:-0.739131 79:0.333334 80:-0.209302 81:0.157899 82:-0.500001 83:-0.23077 85:-1 86:0.0697677 87:0.0602405 88:-0.05085 89:-0.571429 90:-0.692308 92:-0.363637 93:-0.155559 94:0.0721647 95:-4.125e-06 96:-0.260868 97:-0.384615 99:-0.391303 100:-0.346156 101:-0.307692 102:0.149428 103:-0.560438 104:-0.578947 106:-0.519999 107:-0.245281 108:-0.312502 109:-0.166664 110:-0.154761 111:-0.8 113:-0.700001 114:-0.166665 115:-0.588233 116:0.304346 117:0.636359 118:-0.538463 120:-0.652173 121:0.0416668 122:0.226665 123:-0.208327 124:0.0909037 125:-0.714286 127:-0.142857 128:-0.155559 129:-0.447619 130:0.0512828 131:-0.321429 132:-0.0666675 134:-0.727273 135:-0.509434 136:-0.316667 137:0.139537 138:-0.274999 139:-0.333333 141:-0.636363 142:-0.428572 143:-0.390072 144:-0.115045 145:-0.0917433 146:-0.538463 148:-0.391303 149:-0.120004 150:-0.725191 151:0.146663 152:0.282054 153:-0.176471 155:-0.833334 156:-0.181815 157:-0.0303045 158:-0.0357147 159:0.0624971 160:-0.473684 162:-0.500001 163:-0.320003 164:-0.114503 166:-0.214283 167:-1 169:-0.700001 170:-0.563636 171:-0.0993383 172:0.480769 173:-0.509091 174:-0.36842 
0.7832801909383423 1:-0.636363 2:0.269226 3:0.116668 4:0.0684946 5:-0.763157 6:-0.399999 8:-0.833334 9:-0.102043 10:0.30081 11:-0.0606067 12:-0.857142 13:-0.888889 15:-0.333333 16:0.162791 17:-0.439999 18:0.42029 19:-0.552239 20:0.0526311 22:-0.692308 23:0.115385 24:0.178296 25:-0.150682 26:-0.747368 27:-0.64706 29:-0.846154 30:0.0769197 31:0.375886 32:0.0322582 33:-0.914438 34:-0.499999 36:-0.391303 37:-3.02884e-06 38:0.451613 39:-0.483871 40:-0.779412 41:-0.333333 43:-0.0526311 44:-0.318183 45:0.084337 46:-0.0714254 47:-0.421052 48:-0.666667 50:-0.0526311 51:0.0232572 52:-0.255317 53:0.460315 54:-0.375001 55:-0.8 57:-0.363637 58:0.555561 59:-0.244445 60:0.142863 61:-0.608696 62:-0.285715 64:-0.84 65:0.28 66:0.236642 67:-0.0823528 68:-0.877551 69:-0.894737 71:-0.545455 72:0.269234 73:0.144928 74:0.199999 75:-0.901408 76:-0.500001 78:-0.304345 79:0.0952411 80:0.139531 81:-0.473681 82:-0.125002 83:-0.692308 85:-0.68421 86:-0.0232566 87:-0.228915 88:0.05085 89:-0.428571 90:0.0769223 92:-0.181818 93:0.244441 94:-0.257732 95:0.299996 96:-0.391303 97:-0.538463 99:-0.21739 100:0.346151 101:-0.115386 102:-0.218387 103:-0.868132 104:-0.578947 106:-0.119999 107:0.169816 108:0.187501 109:-0.095237 110:-0.809524 111:-0.399999 113:-0.199999 114:0.125001 115:2.22045e-16 116:-0.275365 117:-0.272727 118:-0.846154 120:-0.391303 121:0.0833388 122:-0.146667 123:-0.374996 124:0.636357 125:0.0476197 127:-0.333333 128:0.0222205 129:0.104762 130:-0.564105 131:-0.464286 132:-0.466666 134:-0.545455 135:0.132077 136:0.283333 137:-0.116278 138:-0.762501 139:-0.809524 141:-0.363637 142:-0.0714254 143:0.390072 144:-0.168141 145:-0.697247 146:-0.461541 148:-0.478259 149:0.0800027 150:-0.114504 151:-0.12 152:-0.538462 153:-0.411766 155:-0.333335 156:0.0454562 157:0.0101 158:-0.285714 159:-0.312502 160:-0.473684 162:-0.399999 163:0.119998 164:-0.175572 165:-0.170731 166:-0.500001 167:0.0769223 169:-0.6 170:0.163637 171:-0.0198671 172:0.173077 173:-0.636364 174:-0.0526311 
0.1141560896587582 1:-0.363637 2:-0.153843 3:-0.0333319 4:0.232874 5:-0.644736 6:-0.199999 8:-0.500001 9:0.306126 10:-0.317072 11:0.121213 12:-0.457142 13:-0.444445 15:-0.0370367 16:0.348839 17:-0.663998 18:0.478261 19:-0.432837 20:0.0526311 22:-0.307695 23:0.500006 24:-0.44186 25:-0.0136973 26:-0.431579 27:-0.0588229 29:-0.692308 30:0.423074 31:0.0212762 32:0.204299 33:-0.882353 34:-0.125 36:-0.21739 37:-0.0384607 38:-0.0322599 39:-0.0645134 40:-0.529411 41:-0.444445 43:-0.157893 44:0.136368 45:-0.108436 46:-0.178574 47:-0.473683 48:-0.333333 50:-0.157893 51:0.255814 52:-0.191489 53:-0.206349 54:0.187497 55:-0.3 57:-0.636363 58:0.277786 59:0.13333 60:-0.392854 61:-0.391304 62:-0.142856 64:-0.119999 65:0.599995 66:-0.221376 67:-0.152939 68:-0.70068 69:-0.578947 71:-0.636363 72:-0.269227 73:-0.101451 74:0.299996 75:-0.492957 76:-0.500001 78:-0.130434 79:0.428574 80:-0.720932 81:0.26316 82:-0.125002 83:0.384615 85:-0.473683 86:0.395347 87:-0.614458 88:0.05085 89:-0.333333 90:0.538459 92:0.0909082 93:0.466661 94:-0.773195 95:0.566665 96:-0.173912 97:0.0769223 99:-0.565217 100:0.0769213 101:-0.326925 102:-0.103446 103:-0.494505 104:-0.578947 106:-0.359999 107:-0.132075 108:-0.203127 109:0.238096 110:-0.595239 111:-1.125e-06 113:-1.125e-06 114:4.21876e-06 115:-0.235292 116:-0.159422 117:-0.181819 118:0.23077 120:-0.478259 121:0.249998 122:-0.0666691 123:0.0833392 124:-0.545457 125:-0.333333 127:-0.0476197 128:-0.199999 129:0.0476207 130:-0.410257 131:-0.571429 132:-0.199999 134:-0.454545 135:0.0943368 136:0.0333319 137:-0.116278 138:-0.6 139:-0.619047 141:-0.545455 142:0.107144 143:-0.00709308 144:0.115045 145:-0.642203 146:-0.230773 148:0.130438 149:0.159995 150:-0.404579 151:0.173333 152:-0.589743 153:-0.294117 155:-0.416669 156:0.409098 157:-0.595959 158:0.0714254 159:0.187497 160:0.0526311 162:-0.199999 163:0.919999 164:-0.511451 165:-0.292681 166:-0.250002 167:-0.23077 169:-0.700001 170:0.0545483 171:0.62914 172:0.134615 173:-0.963636 174:-0.789474 
1.513306423198679 1:-0.272727 2:0.115387 3:0.0999994 4:-0.287671 5:-0.644736 6:0.1 8:-0.416669 9:0.0204121 10:0.00812743 11:-0.121213 12:-0.628571 13:-0.444445 15:-0.407407 16:0.0232592 17:-0.136001 18:0.246375 19:-0.761195 20:-0.157893 22:-0.846154 23:-0.307693 24:0.39535 25:-0.0684926 26:-0.810526 27:-0.764706 29:-0.461541 30:0.153844 31:-0.248229 32:0.376344 33:-0.721925 34:-0.125 36:-0.304345 37:0.153845 38:0.177418 39:-0.22581 40:-0.735293 41:-0.222222 43:-0.0526311 44:-0.181822 45:0.0120443 46:-0.178574 47:-0.578946 50:-0.894737 51:-0.0232499 52:0.340425 53:-0.0476207 54:-0.750001 55:-0.500001 57:-0.363637 58:-0.388891 59:0.44444 60:-0.249995 61:-0.608696 62:-0.714286 64:-0.6 65:-0.120005 66:0.282442 67:-0.129412 68:-0.891156 69:-0.157893 71:-0.272727 72:0.307691 73:0.0579701 74:-0.0333337 75:-0.802817 76:-0.3 78:-0.21739 79:0.0952411 80:-0.069771 81:-0.0526303 82:-0.500001 83:-0.384615 85:-0.578948 86:0.255816 87:0.0602405 88:-0.22034 89:-0.809524 90:-0.384615 92:-0.727273 93:0.200001 94:0.463915 95:-0.433331 96:-0.565217 97:-0.846154 99:-0.565217 100:0.0384637 101:0.288459 102:-0.563216 103:-0.78022 104:-0.36842 106:0.280001 107:-0.0943341 108:-0.171877 109:0.142856 110:-0.702382 111:0.199999 113:-0.199999 114:-0.125002 115:0.431373 116:-0.826087 117:-0.363636 118:-0.0769223 120:-0.652173 121:-0.333334 122:0.466665 123:-0.45833 124:0.0909037 125:-0.142857 127:-0.428571 128:-0.377779 129:0.219049 130:-0.282052 131:-0.714286 132:-0.466666 134:-0.181818 135:0.169809 136:0.116668 137:-0.279068 138:-0.700001 139:-0.142857 141:-0.545455 142:-0.107144 143:-0.0496452 144:0.327433 145:-0.605505 146:-0.769232 148:-0.391303 149:-0.440001 150:0.282443 151:-0.306666 152:-0.666667 153:-0.64706 155:-0.416669 156:0.0454562 157:0.0909091 158:-4.01786e-06 159:-0.875 160:-0.684211 162:-0.500001 163:-0.120005 164:-0.083968 165:-0.36585 166:-0.0357139 167:-0.538463 169:-0.700001 170:-0.0909083 171:-0.00662335 172:0.384616 173:-0.718182 174:0.473684 
1.044359306864564 1:-0.545455 2:-0.769231 3:-1 4:-0.534246 5:0.802631 6:-0.8 8:-3.74999e-06 9:0.102046 10:-0.0731725 11:-0.303027 12:-0.542857 13:-0.333333 15:-0.407407 16:0.348839 17:-0.0399996 18:-0.449272 19:-0.522389 20:0.157896 22:-0.0769272 23:0.307691 24:-0.39535 25:0.178083 26:-0.578947 27:-0.176471 29:-0.230773 30:0.961542 31:-0.21986 32:0.225807 33:-0.893048 34:-0.499999 36:-0.565217 37:-1 38:-1 39:-0.483871 40:1 41:-0.666667 43:0.368422 44:0.227268 45:-0.228917 46:-0.214284 47:-0.526315 48:-0.333333 50:-0.0526311 51:0.627912 52:-0.297871 53:-0.111113 54:-0.312502 55:-0.199999 58:0.277786 59:-0.444445 60:4.01786e-06 61:-0.173913 62:0.285715 64:-0.0399996 65:0.679996 66:-0.251907 67:-0.176472 68:-0.768706 69:-0.0526311 71:-0.363637 72:-0.807692 73:-1 74:-0.533336 75:0.957748 76:-1 78:0.0434799 79:0.190481 80:-0.395351 81:-0.0877146 82:-0.312502 83:0.692307 85:0.157894 86:0.302323 87:-0.734944 88:-0.11864 89:3.75e-06 90:0.384615 93:0.73333 94:-0.731958 95:0.333333 96:-0.434781 97:1 99:0.304351 100:0.423075 101:-0.480769 102:-0.241378 103:-0.67033 104:-0.263158 106:-0.6 107:-0.509433 108:-0.968749 109:-0.214284 110:0.476189 111:-0.9 113:-1.125e-06 114:0.375005 115:-0.196081 116:-0.478263 117:-2.25e-06 118:-0.384615 120:-0.21739 121:0.666671 122:-0.52 123:-0.333333 124:0.0909037 125:0.333333 127:0.428573 128:0.28889 129:-0.390473 130:-0.384618 131:-0.285715 132:-0.466666 135:0.132077 136:-0.216666 137:-0.0697657 138:-0.700001 139:0.809524 141:-0.909091 142:-0.964286 143:-0.801419 144:-0.362832 145:0.513761 146:-0.923077 148:-0.21739 149:-0.560001 150:-0.832061 151:-0.280002 152:1 153:0.294117 155:-0.333335 156:0.409098 157:-0.434345 158:0.249995 159:-0.500001 160:-0.263158 162:0.3 163:0.479998 164:-0.603052 165:0.0731745 166:-0.285713 167:-0.538463 169:-0.6 170:0.200005 171:0.284768 172:0.19231 173:-0.872727 174:0.0526311 
0.2230417069772608 1:-0.0909102 2:0.0769205 3:0.150002 4:0.0410939 5:-0.789473 6:-0.399999 8:-0.583335 9:0.265305 10:-0.138214 11:0.0909066 12:-0.657142 13:-0.555555 15:-0.555555 16:0.488371 17:-0.136001 18:-0.0434771 19:-0.641792 20:-0.36842 22:-0.538463 23:0.423082 24:-0.0697657 25:-0.150682 26:-0.68421 27:-0.294117 29:-0.538463 30:0.153844 31:0.361703 32:-0.0107531 33:-0.935829 34:-0.625001 36:-0.304345 37:0.192303 38:0.290321 39:0.0322585 40:-0.882353 41:-0.888889 43:-0.263158 44:-0.0909123 45:-0.0602431 46:0.142855 47:-0.578946 48:-0.666667 50:0.0526311 51:0.0697747 52:-0.148936 53:0.174601 54:-0.5625 55:-0.3 57:-0.0909102 58:0.0555601 59:-0.26667 60:0.321432 61:-0.52174 62:-0.285715 64:-0.44 65:0.360001 66:0.0839683 67:-0.270591 68:-0.782313 69:-0.473684 71:-0.272727 72:0.269234 73:0.144928 74:0.0333337 75:-0.84507 76:-0.700001 78:-0.043476 79:0.190481 80:-0.0232587 81:-0.578949 82:-1.6875e-06 83:-0.23077 85:-0.368421 86:0.116275 87:-0.349396 88:-0.05085 89:-0.428571 90:0.384615 92:-0.363637 93:0.333331 94:-0.257732 95:0.199998 96:-0.304346 97:-0.384615 99:-0.304345 100:-0.192308 101:0.0769241 102:-0.310342 103:-0.736264 104:-0.263158 106:-0.44 107:0.433967 108:0.140624 109:0.0476221 110:-0.892857 111:-0.3 113:-0.3 114:0.333333 115:-0.137254 116:-0.33333 117:-0.272727 118:-0.0769223 120:-0.130434 121:0.416668 122:-0.52 123:0.0416673 124:-0.0909139 125:0.142857 127:-0.333333 128:-0.111109 129:0.219049 130:-0.435901 131:-0.714286 132:-0.600001 134:-0.545455 135:0.396227 136:-0.133333 137:0.0697657 138:-0.749999 139:0.0476197 141:-0.545455 142:-4.01786e-06 143:0.219857 144:0.150443 145:-0.706423 146:-0.846154 148:0.130438 149:0.280001 150:-0.480914 151:0.119999 152:-0.538462 153:-0.0588229 155:-0.416669 156:0.227277 157:-0.595959 158:0.0357147 159:0.249993 160:0.473684 162:-1.125e-06 163:0.28 164:-0.267176 165:-0.0975623 166:-0.607143 167:-0.23077 169:-0.1 170:0.01818 171:0.218544 173:-0.672728 174:-0.684211 
0.6664854902361446 1:0.0909082 2:-0.0769275 3:0.0833344 4:0.0684946 5:-0.684211 6:-0.700001 8:-0.333335 9:-0.102043 10:-0.398376 11:0.42424 12:-0.285716 13:-0.777778 15:-0.185185 16:0.209298 17:-0.0240012 18:-0.333329 19:-0.492538 20:-0.473684 22:-0.230773 23:0.769236 24:-0.612403 25:0.0958933 26:-0.578947 27:0.647057 29:-0.692308 30:0.038462 31:-0.049645 32:0.35484 33:-0.818182 34:0.125 36:-0.652173 37:0.576922 38:0.370969 39:-0.451616 40:-0.926471 41:-0.11111 43:-0.578947 44:-0.363633 45:0.108431 46:-0.107144 47:-0.526315 48:0.222222 50:-1 51:-0.116274 52:0.255322 53:0.238093 54:-1 55:-0.3 57:-0.272727 58:-2.50001e-06 59:-0.06667 60:-0.249995 61:-0.391304 62:0.714285 64:-0.679999 65:-0.120005 66:0.435116 67:-0.482356 68:-0.809524 69:-0.157893 71:-1 72:-0.0769207 73:0.391303 74:0.166669 75:-0.929578 76:-0.500001 78:-0.304345 79:0.28572 80:-0.372093 81:0.157899 82:-0.0625023 83:-0.846154 85:-0.578948 86:-0.441861 87:-0.08434 88:0.322032 89:-0.714285 90:0.0769223 92:-0.454545 93:-0.155559 94:0.0927812 95:0.166668 96:-0.47826 97:-0.384615 99:-0.391303 100:-0.269232 101:-0.26923 102:-0.310342 103:-0.20879 104:-0.578947 106:-0.92 107:-0.471697 108:-0.281251 109:-0.33333 110:0.0476182 111:-0.9 113:-0.700001 114:-0.0416677 115:-0.0784322 116:0.130437 117:-0.409091 118:-0.538463 120:-0.304345 121:0.0833388 122:-0.0933331 123:0.249999 124:-0.363639 125:-0.619047 127:-0.52381 128:-0.155559 129:-0.0476164 130:-0.205131 131:-0.428572 132:-0.600001 134:-0.545455 135:0.0188642 136:-0.566668 137:-0.302327 138:-1.125e-06 139:-0.714286 141:-0.818182 142:-0.107144 143:0.163119 144:-0.115045 145:-0.513761 146:-0.538463 148:-0.478259 149:-0.16 150:-0.0534349 151:0.253331 152:-0.769231 153:-0.764706 155:-0.416669 156:-0.363635 157:-0.252527 158:0.392854 159:-0.375001 160:0.0526311 162:-0.1 163:0.119998 164:-0.358777 165:0.0487812 166:-0.464287 167:-0.0769223 169:-0.199999 170:-0.527272 171:0.57616 172:0.038462 173:-0.79091 174:-0.684211 
1.417867773095579 2:-0.192309 3:-0.0666657 4:0.342464 5:-0.671052 6:-0.500001 8:-0.833334 9:-0.632652 10:0.414635 11:-0.303027 12:-0.428572 13:-1 15:-0.703703 16:-0.16279 17:-0.248 18:0.391307 19:-0.432837 20:-0.263158 22:-0.615386 23:-0.423076 24:0.410852 25:-0.342463 26:-0.6 27:-0.882353 29:-0.153849 30:-0.269231 31:0.0638283 32:-0.0107531 33:-0.614974 34:-1 36:-0.739131 37:-0.115385 38:0.758063 39:-0.64516 40:-0.838235 41:-0.666667 43:-0.36842 44:-0.181822 45:0.228912 46:-0.571431 47:0.0526305 48:-0.777778 50:-0.789474 51:-0.581394 52:0.659575 53:-0.238099 54:-0.437502 55:-0.8 57:-0.727273 58:-0.500004 59:0.177775 60:0.321432 61:-0.608696 62:-0.428571 64:-0.679999 65:-0.56 66:0.0839683 67:-0.129412 68:-0.510204 69:-0.473684 71:-0.636363 72:0.0769276 73:0.115942 74:0.133331 75:-0.746479 76:-0.6 78:-0.565217 79:-0.571425 80:0.16279 81:-0.0175461 82:-0.187502 83:-0.0769223 85:-0.789474 86:-0.255812 87:0.614458 88:-0.627117 89:-0.714285 90:-0.384615 92:-0.363637 93:-0.111109 94:-0.0515482 95:0.166668 96:-0.21739 97:-0.538463 99:-1 100:-0.192308 101:0.211539 102:-0.310342 103:-0.692308 104:-0.36842 106:-0.92 107:-0.207548 108:0.640622 109:0.0714293 110:-0.928571 111:-1 113:-0.6 114:0.0416668 115:-0.235292 116:0.246374 117:-0.409091 118:-0.384615 120:-0.565217 121:-0.249999 122:0.359997 123:-0.291661 124:0.272721 125:-0.619047 127:-0.904762 128:-0.244449 129:0.0666664 130:-0.333335 131:-0.285715 132:-0.466666 134:-0.0909102 135:0.132077 136:0.166667 137:-0.418605 138:-0.575 139:-0.809524 141:-0.727273 142:-0.107144 143:0.503545 144:0.0796461 145:-0.80734 146:-0.846154 148:-0.478259 149:-0.8 150:-0.0229002 151:0.0933293 152:-0.256412 153:-0.764706 155:-1 156:-0.499996 157:0.0505045 158:0.214284 159:0.124996 160:-0.789474 162:-0.3 163:-0.44 164:-0.801526 165:0.0975623 166:0.964281 167:0.384615 169:-0.500001 170:0.0545483 171:0.0596041 172:0.0192332 173:-0.581817 174:-0.263158 
0.1544957092710051 1:-0.0909102 2:0.461541 3:0.0833344 4:0.232874 5:-0.907895 6:-0.8 8:-0.750001 9:-0.183668 10:-0.00813109 11:0.303033 12:-0.657142 13:-0.777778 15:-0.407407 16:-0.255814 17:0.0399996 18:-0.0434771 19:-0.58209 20:-0.263158 22:-0.538463 23:0.0769276 24:0.100774 25:0.041098 26:-0.768421 27:-0.882353 29:0.0769186 30:0.230768 31:0.0921974 32:-0.0967756 33:-0.807488 34:-0.499999 36:-0.478259 37:-0.115385 38:0.387096 39:-0.0322585 40:-0.867647 41:-0.333333 43:-0.473684 44:-0.500003 45:0.301204 46:0.0714254 47:-0.842104 48:-0.333333 50:-0.894737 51:-0.162792 52:0.106382 53:0.428572 54:-0.625001 55:-0.8 57:-0.0909102 58:0.222223 59:-0.422225 60:0.321432 61:-0.304348 62:-0.428571 64:0.0400014 65:0.199999 66:0.145038 67:-0.435296 68:-0.863945 69:0.263158 71:0.0909082 72:0.307691 73:-0.2029 74:0.0333337 75:-0.647887 76:-0.199999 78:-0.043476 79:-0.142852 80:0.209302 81:-0.403504 82:-0.375001 83:-0.538463 85:-0.578948 86:0.209299 87:-0.012047 88:-0.254235 89:-0.571429 90:-0.384615 92:-0.0909102 93:-0.111109 94:0.134019 95:0.199998 96:-0.695652 97:-0.846154 99:-0.130434 100:0.0769213 101:-0.403849 102:-0.241378 103:-0.538462 104:0.157896 106:-0.44 107:0.0566029 108:-0.421876 109:0.285715 110:-0.404763 111:-0.8 113:0.1 114:-0.166665 115:0.0392161 116:-0.33333 117:-0.181819 118:-0.538463 120:-0.739131 121:0.416668 122:0.119997 123:-0.45833 124:-0.0909139 125:-0.333333 127:-0.333333 128:0.33333 129:-0.428569 130:-0.102566 131:-0.250002 132:-0.866667 135:0.0943368 136:-0.7 137:0.372093 138:-0.5125 139:0.428573 141:-0.454545 142:-0.535714 143:-0.234043 144:0.451326 145:-0.458716 146:-0.692308 148:0.304351 149:-0.359998 150:-0.23664 151:-0.0133326 152:-0.358972 153:-0.529411 155:-0.916667 156:-0.0454542 157:0.252527 158:-0.0714335 159:-0.750001 160:-0.684211 162:-1.125e-06 163:-0.0400036 164:-0.190838 165:-0.12195 166:-0.500001 167:-0.0769223 169:-0.199999 170:0.01818 171:0.258278 172:0.153848 173:-0.781818 174:-0.473684 
0.3683357014809254 1:-0.181818 2:0.384617 3:0.200001 4:-0.342466 5:-0.776316 6:-0.1 8:0.333329 9:0.265305 10:-0.333335 11:-0.0606067 12:-0.599999 13:-0.11111 15:0.0370367 16:0.348839 17:-0.519998 18:0.18841 19:-0.402986 20:-0.0526311 22:-0.230773 23:0.538464 24:-0.410852 25:0.0684926 26:-0.6 27:0.0588229 29:-0.307695 30:0.346158 31:0.0496453 32:0.139784 33:-0.893048 34:-0.249999 36:0.130438 37:0.269227 38:0.112901 39:-0.322582 40:-0.705881 41:-0.555555 43:0.157896 44:0.136368 45:-0.253011 46:-0.107144 47:-0.473683 48:-0.222222 50:0.0526311 51:0.441863 52:-0.0851074 53:-0.238099 54:-0.187502 55:-0.700001 57:0.181818 58:0.277786 59:-0.35556 60:-0.107136 61:-0.347827 62:0.428571 64:-0.119999 65:0.0800023 66:0.129772 67:-0.247058 68:-0.823129 69:-0.263158 71:-0.272727 72:0.269234 73:0.2029 74:-0.133331 75:-0.830986 76:-0.700001 78:0.0434799 79:0.380959 80:-0.232561 81:-0.438597 82:0.0624975 83:-0.384615 85:-0.157895 86:0.0697677 87:-0.132528 88:-0.11864 89:-0.666667 90:-0.0769223 92:0.0909082 93:0.022221 94:-0.381445 95:-0.0666641 96:0.173916 97:0.384615 99:-0.478259 100:0.423075 101:-0.115386 102:-0.471261 103:-0.714285 104:-0.0526311 106:-0.44 107:0.245289 108:0.0781228 109:0.0952418 110:-0.773808 111:-0.6 113:-0.1 114:0.541674 115:-0.294119 116:-0.217393 117:-0.318182 118:-0.384615 120:-0.130434 121:0.166673 122:-0.0666691 123:-0.333333 124:-4.09089e-06 125:-0.142857 127:-0.333333 128:0.77778 129:-0.466665 130:-0.333335 131:-0.535714 132:0.333331 134:-0.727273 135:0.4717 136:-0.300002 137:0.0697657 138:-0.625 139:0.0476197 141:-0.0909102 142:0.428573 143:0.0780143 144:0.132742 145:-0.844036 146:-0.153849 148:0.217394 149:0.239996 150:-0.603052 151:0.226667 152:-0.487179 153:0.176469 155:-0.250002 156:0.454548 157:-0.616164 158:0.428573 159:-0.250002 160:-0.473684 162:0.500001 163:0.119998 164:-0.465647 165:-0.0487812 166:-0.428572 167:0.538459 169:-0.3 170:0.127277 171:-0.0198671 172:0.153848 173:-0.609092 174:-0.473684 
0.3552198687334288 1:-0.727273 2:0.423074 3:-0.116664 4:0.260275 5:-0.75 6:-0.1 8:-0.833334 9:-0.0204094 10:0.495934 11:-0.696967 12:-0.685714 13:-0.777778 15:-0.62963 16:0.395346 17:0.168001 18:-0.391301 19:-0.731344 20:-0.473684 22:-0.615386 23:0.115385 24:-0.0542634 25:-0.0684926 26:-0.621052 27:-0.0588229 29:-0.307695 30:0.038462 31:-0.0212759 32:0.0537614 33:-0.732619 34:1.40625e-06 36:-0.478259 37:-0.230766 38:-0.0483873 39:0.258065 40:-0.558824 41:-0.333333 43:-0.157893 44:0.181818 45:0.253011 46:-0.571431 47:-0.68421 48:-0.444445 50:-0.0526311 51:0.209306 52:-0.17021 53:0.111108 54:-0.250001 55:-0.700001 57:-0.181818 58:0.388898 59:-0.133335 60:-0.107136 61:-0.391304 62:-0.571429 64:-0.279999 65:-0.0799996 66:0.435116 67:-0.552943 68:-0.795918 69:-0.578947 71:-0.454545 72:-0.0769207 73:-0.449275 74:0.466668 75:-0.323944 76:-0.500001 78:0.217394 79:0.190481 80:-0.558142 81:0.192983 82:-0.187502 83:-0.0769223 85:-0.0526327 86:0.720927 87:-0.469882 88:-0.355935 89:-0.428571 90:0.0769223 92:-0.0909102 93:0.82222 94:-0.546391 95:0.199998 96:-0.347824 97:-0.23077 99:0.391307 100:-0.0769265 101:-0.480769 102:-0.241378 103:-0.538462 104:0.368422 106:-0.679999 107:-0.622641 108:-0.703126 109:0.166669 110:0.0238083 111:-1.125e-06 113:-0.1 114:-0.125002 115:0.235292 116:-0.362319 117:-0.5 118:-0.692308 120:-0.21739 121:-0.125002 122:-0.0933331 123:-0.0833298 124:-0.181822 125:0.333333 127:-0.238094 128:0.28889 129:-0.485715 130:-0.0512828 131:-0.428572 132:-0.0666675 135:-0.0943405 136:-0.383335 137:0.116278 138:-0.475001 139:-0.142857 141:-0.727273 142:-0.464286 143:-0.602839 144:0.0442474 145:-0.0275234 146:-0.461541 148:-0.304345 149:-0.359998 150:-0.312978 151:-0.14667 152:0.102567 153:-0.64706 155:-0.583335 156:-0.0909043 157:0.111109 158:-0.0714335 159:-0.750001 160:-0.263158 162:-0.6 163:-0.160001 164:0.0381676 165:-0.073169 166:-0.678572 167:-0.538463 169:0.1 170:0.236365 171:0.165563 172:0.288463 173:-0.827272 174:-0.894737 
0.3155376853538723 1:-0.636363 2:-0.0384611 3:0.25 4:-0.0684964 5:-0.684211 6:-0.500001 8:-0.250002 9:0.306126 10:-0.284555 11:0.0606067 12:-0.542857 13:-0.444445 15:-0.185185 16:1 17:-0.439999 18:-0.246375 19:-0.432837 20:-0.0526311 22:0.153842 23:0.692312 24:-0.534885 25:0.0684926 26:-0.6 27:-0.0588229 29:-0.923077 30:0.19231 31:0.191488 32:0.204299 33:-0.871658 34:-0.625001 36:-0.652173 37:-0.153851 38:-0.0806458 39:0.58065 40:-0.720589 43:-0.684211 44:-0.181822 45:0.325298 46:-0.357143 47:-0.473683 48:-0.444445 50:-0.578947 51:0.348838 52:0.0212792 53:-0.0793635 54:-0.500001 55:-0.399999 57:-0.363637 58:-0.0555526 59:0.2 60:-0.249995 61:-0.608696 64:-0.519999 65:0.160003 66:0.0534336 67:-0.223531 68:-0.768706 69:0.0526311 71:-1 72:-0.0384629 73:0.434783 74:0.0333337 75:-0.915493 76:-0.6 78:-0.043476 79:0.523813 80:-0.465117 81:-0.157891 82:0.0624975 83:-0.384615 85:-0.0526327 86:-0.441861 87:0.132528 88:-0.084745 89:-0.714285 90:-0.23077 92:0.0909082 93:0.022221 94:0.0515436 95:-0.100002 96:-0.391303 97:-0.692308 99:-0.652173 100:0.499999 101:2.22045e-16 102:-0.333333 103:-0.824176 104:-0.789474 106:-0.519999 107:-0.396225 108:0.453124 109:0.0238096 110:-0.833333 111:-0.399999 113:-0.399999 114:0.125001 115:0.0196059 116:-0.159422 117:-0.545454 118:-0.384615 120:-0.130434 121:-0.333334 122:0.440001 123:-0.500002 124:0.181814 125:-0.619047 127:0.238096 128:0.24444 129:-0.314286 130:-0.307691 131:-0.642858 132:0.333331 134:-0.818182 135:-0.132073 136:0.633332 137:-0.348839 138:-0.825 139:-0.428571 141:-0.454545 142:-0.214286 143:0.503545 144:-0.02655 145:-0.770643 146:-0.692308 148:-0.913043 149:-0.16 150:-0.0381692 151:0.0666653 152:-0.538462 153:-0.529411 155:-0.750001 156:0.227277 157:0.171718 158:-0.678572 159:-3.51561e-06 160:-0.578947 162:-0.6 163:0.239995 164:-0.083968 165:-0.195119 166:-0.714287 167:0.0769223 169:-0.500001 170:-0.345453 171:-0.112582 172:0.788461 173:-0.672728 174:-0.894737 
